tree
version=v4
num_class=1
num_tree_per_iteration=1
label_index=0
max_feature_idx=19
objective=regression
feature_names=Column_0 Column_1 Column_2 Column_3 Column_4 Column_5 Column_6 Column_7 Column_8 Column_9 Column_10 Column_11 Column_12 Column_13 Column_14 Column_15 Column_16 Column_17 Column_18 Column_19
feature_infos=[52.034549713134766:264.10427856445312] [5.1873831748962402:100] [93.766632080078125:300] [2.6695625782012939:83.316452026367188] [4.8245997428894043:6.2200589179992676] [81.476829528808594:95] [16.781444549560547:33.42144775390625] [0:2] none none none none none [2.6695625782012939:83.316452026367188] [52.034549713134766:264.10427856445312] [0.028181182220578194:0.9555671215057373] [1.1811992095545065e-07:0.7200590968132019] [0.22837059199810028:1.930213451385498] [252.8837890625:7382.85107421875] [0.13532184064388275:0.38256317377090454]
tree_sizes=2740 2838 2849 2835 2837 2843 2836 2838 2841 2826 2854 2833 2817 2832 2835 2825 2839 2841 2847 2840 2859 2831 2842 2845 2834 2837 2833 2852 2830 2861 2843 2851 2830 2819 2839 2850 2836 2835 2835 2844 2838 2859 2857 2855 2820 2829 2858 2869 2843 2806 2853 2866 2869 2858 2815 2820 2822 2816 2828 2807 2796 2801 2847 2821 2812 2824 2810 2833 2822 2804 2832 2798 2802 2817 2835 2813 2824 2848 2824 2819 2819 2839 2829 2821 2816 2782 2795 2841 2593 2311 2791 2781 2811 2628 2800 2711 2798 2790 2801 2814 2806 2477 2745 2796 2365 2791 2808 2774 2378 2767 2747 2803 2822 2756 2744 2813 2753 2838 2793 2825 2813 2769 2789 2608 2753 2793 2387 2801 2610 2797 2811 2834 2787 2781 2833 2861 2374 2789 2783 2785 2781 2773 2798 2806 2762 2822 1945 2785 2800 2764 2793 2485 2782 2797 2830 2837 2709 2815 2804 2789 2762 2843 1987 2828 2379 2766 2770 1866 2748 2816 2803 2811 2791 2798 2815 2787 2809 2807 2814 2862 2796 2843 2790 2813 2800 2805 2787 2827 2828 2809 2816 2816 2812 2791 2838 2839 2155 2862 2822 1457 2819 2783 2823 2785 2820 2793 2800 2799 2761 2785 2831 2665 2810 2788 2839 2451 2783 2817 2811 2035 2860 2127 2821 2855 2803 2752 2783 2793 2777 2417 2838 2820 2409 2773 2827 2801 2810 2757 2830 2473 2833 2816 2768 2811 2806 2830 2787 2663 2745 2642 2784 2820 2783 2827 2796 2829 2779 2811 2708 2788 2779 2792 2813 2850 2828 2773 2758 2757 2407 2824 2841 2827 2820 2797 2639 2790 2749 2803 2799 2787 2809 2612 2797 2783 2812 2836 2843 2829 2563 2797 2864 2375 2826 2836 2847 2465 2865 2834 2824 2781

Tree=0
num_leaves=31
num_cat=0
split_feature=15 0 0 0 0 0 0 0 0 0 17 17 0 3 0 0 1 0 0 1 2 18 1 0 17 3 0 19 0 1
split_gain=274442 856517 122391 102406 92175.5 26350.6 20076.3 18446.7 17077.1 9364.44 8659.33 6571.65 4999.63 4850.31 4905.66 4803.27 4772.79 3575.35 3148.06 3116.05 2423.31 2115.96 2101.5 2217.41 2077.73 2076.34 1922.96 1811.28 1631.16 1598.62
threshold=0.37419329583644872 126.6238250732422 130.11508941650393 112.35521697998048 140.19667816162112 114.1837844848633 147.70458984375003 101.89109802246095 167.35779571533206 121.96797561645509 0.77149802446365368 0.70523539185523998 103.48122024536134 36.032617568969734 164.61104583740237 121.51851654052736 59.147590637207038 132.61039733886722 138.40026855468753 62.89729309082032 233.86307525634768 3207.105102539063 56.798852920532234 137.88933563232425 0.81732490658760082 35.612251281738288 115.06840133666994 0.21113970130681994 108.77907562255861 57.820955276489265
decision_type=2 2 2 2 2 2 2 2 2 2 2 2 2 2 2 2 2 2 2 2 2 2 2 2 2 2 2 2 2 2
left_child=1 3 5 7 11 12 18 21 10 26 19 22 -2 -8 -15 -7 -12 -13 -4 -6 28 -1 23 -3 -10 -20 27 -5 -9 -19
right_child=2 4 6 9 8 15 13 20 24 -11 16 17 -14 14 -16 -17 -18 29 25 -21 -22 -23 -24 -25 -26 -27 -28 -29 -30 -31
leaf_value=0.6297371666629259 1.3746503664232383 1.4744333121968243 1.0983337312657158 1.0131039032020119 1.7907502438896121 1.2218356905275762 1.2988770701678021 0.84014514740977697 1.9196021605152211 1.3041095215668397 1.9524526860278493 1.5260373811179879 1.2825679449335281 0.95165642352009261 0.80319190741839996 1.1641985096382161 1.7874815501360779 1.7003363633052304 1.4738516587311818 1.5795277759521975 1.3324805151208645 1.0359735483682415 1.3539128196776273 1.7212567465298949 2.1309631086290897 1.0344889735570078 1.1492328948116599 1.4334887634813014 0.94444554534065706 1.5555740930259334
leaf_weight=1349 2000 733 5137 474 1011 6949 86 1001 138 1070 1995 694 5607 2495 717 7534 565 909 27 212 30 33 317 104 817 3651 1472 27 603 243
leaf_count=1349 2000 733 5137 474 1011 6949 86 1001 138 1070 1995 694 5607 2495 717 7534 565 909 27 212 30 33 317 104 817 3651 1472 27 603 243
internal_value=1.23732 1.42556 1.16139 0.980363 1.77416 1.23143 1.03366 0.773892 1.91148 1.18501 1.86374 1.55727 1.30678 0.928423 0.918501 1.19185 1.91607 1.6158 1.07304 1.75417 0.88766 0.639419 1.46363 1.50516 2.1005 1.03772 1.12042 1.0358 0.879332 1.66984
internal_weight=48000 13797 34203 6059 7738 22090 12113 3016 4738 3043 3783 3000 7607 3298 3212 14483 2560 1846 8815 1223 1634 1382 1154 837 955 3678 1973 501 1604 1152
internal_count=48000 13797 34203 6059 7738 22090 12113 3016 4738 3043 3783 3000 7607 3298 3212 14483 2560 1846 8815 1223 1634 1382 1154 837 955 3678 1973 501 1604 1152
is_linear=0
shrinkage=1


Tree=1
num_leaves=31
num_cat=0
split_feature=15 0 0 0 0 0 0 0 0 0 17 17 0 3 0 1 0 0 1 0 1 2 18 17 0 0 3 3 15 0
split_gain=247687 773017 110671 92422.7 83188.6 21252.2 21197.8 16648.3 15412.7 8451.48 7859.93 6198.9 4975.02 5848.21 4463.57 4450.04 4086.92 3884.75 2694.15 2595.82 2335.57 2187.29 1909.26 1874.62 1756.33 1646.53 1537.58 1478.13 1420.83 1401.09
threshold=0.37419329583644872 126.6238250732422 128.58893585205081 112.35521697998048 140.19667816162112 113.19035720825197 144.6553649902344 101.89109802246095 167.35779571533206 121.96797561645509 0.75338983535766613 0.64575645327568065 158.48643493652347 36.032617568969734 132.61039733886722 62.481544494628913 119.92543029785158 103.48122024536134 63.786769866943366 135.22769165039065 54.70282173156739 233.86307525634768 3207.105102539063 0.81732490658760082 117.73529434204103 179.32020568847659 35.612251281738288 34.51831245422364 0.383651614189148 137.66825103759768
decision_type=2 2 2 2 2 2 2 2 2 2 2 2 2 2 2 2 2 2 2 2 2 2 2 2 2 2 2 2 2 2
left_child=1 3 5 7 11 17 19 22 10 24 18 29 26 -14 -13 -12 -7 28 -6 -4 -16 27 -1 -10 -5 -15 -8 -9 -2 -3
right_child=2 4 6 9 8 16 12 21 23 -11 15 14 13 25 20 -17 -18 -19 -20 -21 -22 -23 -24 -25 -26 -27 -28 -29 -30 -31
leaf_value=-0.57720972375332491 -0.10497891549710875 0.10784672076843083 -0.11485675059579081 -0.1540461604512797 0.51207928780631329 -0.0051199256051012894 0.11460473097836062 -0.34562412044438151 0.64818899356999493 0.063446584809145057 0.66543648134514755 0.25503132968210507 0.34238987345875743 -0.35137191899462267 0.43245271682202857 0.48713084722428796 -0.059427938850313028 0.047626575012146261 0.29148650817810812 -0.16856479933300428 0.29650882144196372 0.090414515058463596 -0.19131330514602432 0.8489626696818583 -0.059267871808158713 -0.51502437273837809 -0.24472184290909943 0.076110802559067284 0.13800014332778732 0.35877477789672557
leaf_weight=1349 62 424 4559 1078 851 6175 30 1583 138 1070 2353 1021 29 1080 1034 413 7892 4844 166 4446 457 30 33 817 895 180 2968 21 1938 64
leaf_count=1349 62 424 4559 1078 851 6175 30 1583 138 1070 2353 1021 29 1080 1034 413 7892 4844 166 4446 457 30 33 817 895 180 2968 21 1938 64
internal_value=2.97818e-07 0.17883 -0.0721371 -0.244115 0.510003 -0.000429461 -0.184947 -0.440263 0.640456 -0.0496972 0.595103 0.303957 -0.276462 -0.358629 0.335638 0.638833 -0.0355889 0.0718351 0.47611 -0.141376 0.390811 -0.332183 -0.568013 0.820026 -0.11106 -0.374794 -0.241121 -0.340095 0.13046 0.140832
internal_weight=48000 13797 34203 6059 7738 20911 13292 3016 4738 3043 3783 3000 4287 1289 2512 2766 14067 6844 1017 9005 1491 1634 1382 955 1973 1260 2998 1604 2000 488
internal_count=48000 13797 34203 6059 7738 20911 13292 3016 4738 3043 3783 3000 4287 1289 2512 2766 14067 6844 1017 9005 1491 1634 1382 955 1973 1260 2998 1604 2000 488
is_linear=0
shrinkage=0.05


Tree=2
num_leaves=31
num_cat=0
split_feature=15 0 0 0 0 0 0 0 0 0 17 17 0 3 0 1 0 0 17 0 1 2 1 0 0 18 4 0 17 15
split_gain=223541 697657 99913.3 83412 75078.1 19524.9 18886.1 15025.3 13910.5 7627.56 7142.04 5594.72 4977.82 4331.36 4249.02 3982.31 3566.46 3505.96 2908.07 2129.72 2045.12 2006.72 2247.15 2066.41 1809.81 1722.74 1719.22 1736.06 1691.36 1487.5
threshold=0.37419329583644872 126.6238250732422 128.39597320556643 112.35521697998048 140.19667816162112 143.64948272705081 113.19035720825197 101.89109802246095 167.35779571533206 121.96797561645509 0.77149802446365368 0.66421821713447582 155.55946350097659 36.032617568969734 133.68663024902347 59.147590637207038 119.92543029785158 103.48122024536134 0.63232225179672252 134.12180328369143 57.820955276489265 199.68442535400393 63.786769866943366 108.77907562255861 179.32020568847659 3207.105102539063 5.7296366691589364 118.05710220336915 0.81732490658760082 0.38215349614620214
decision_type=2 2 2 2 2 2 2 2 2 2 2 2 2 2 2 2 2 2 2 2 2 2 2 2 2 2 2 2 2 2
left_child=1 3 6 7 11 19 17 25 10 26 18 -3 29 -14 -13 -12 -8 -2 -6 -4 -16 23 -23 -9 -15 -1 27 -5 -10 -7
right_child=2 4 5 9 8 12 16 21 28 -11 15 14 13 24 20 -17 -18 -19 -20 -21 -22 22 -24 -25 -26 -27 -28 -29 -30 -31
leaf_value=-0.54835138371029679 0.12393736209178184 0.15989152142836627 -0.10414868112639503 -0.16514662493117294 0.1868574082064437 0.0054726551210665351 -0.0048639332412380061 -0.39555532380254932 0.61580300622233275 0.060274550063646459 0.64610390370777004 0.25580502046071202 0.1865982360078807 -0.32092972945775633 0.42478315654350257 0.49541524775409312 -0.055814508762054252 0.04524529688200897 0.48718110730897957 -0.15352736303195125 0.2656441494965755 -0.26315103893004665 0.089020867154647632 -0.26436755394872885 -0.48928746189560118 -0.18177654028298992 0.020786694751346181 -0.063753528480292712 0.80651972637733016 -0.22452063209960957
leaf_weight=1349 2000 658 4020 1010 87 72 6175 783 138 1070 1995 1141 40 1446 943 565 7740 4844 1136 4786 258 309 53 489 180 33 237 726 817 2900
leaf_count=1349 2000 658 4020 1010 87 72 6175 783 138 1070 1995 1141 40 1446 943 565 7740 4844 1136 4786 258 309 53 489 180 33 237 726 817 2900
internal_value=6.04893e-07 0.16989 -0.0685304 -0.23191 0.484506 -0.174721 0.000241326 -0.418251 0.608437 -0.0472126 0.565351 0.288762 -0.25775 -0.326952 0.324958 0.612869 -0.0332049 0.0682434 0.465838 -0.130988 0.390626 -0.315574 -0.211566 -0.345151 -0.339599 -0.539616 -0.105508 -0.122753 0.779033 -0.218947
internal_weight=48000 13797 34203 6059 7738 13444 20759 3016 4738 3043 3783 3000 4638 1666 2342 2560 13915 6844 1223 8806 1201 1634 362 1272 1626 1382 1973 1736 955 2972
internal_count=48000 13797 34203 6059 7738 13444 20759 3016 4738 3043 3783 3000 4638 1666 2342 2560 13915 6844 1223 8806 1201 1634 362 1272 1626 1382 1973 1736 955 2972
is_linear=0
shrinkage=0.05


Tree=3
num_leaves=31
num_cat=0
split_feature=3 0 0 0 0 0 0 0 0 0 17 17 0 3 0 0 0 3 0 16 18 0 19 0 0 4 0 17 16 15
split_gain=201801 633678 91042 75894.7 67344.5 19826 15663.2 13847.6 12131 7093.29 6530.66 5877.78 4305 4722.03 3720.65 3001.44 2654.35 2320.95 1995.25 1891.55 1832.19 1950.72 1728.13 1633.55 1607.11 1589.2 1555.5 1474.87 1202.07 1014.56
threshold=35.226648330688484 126.6238250732422 126.96423721313478 112.35521697998048 140.77127075195315 143.64948272705081 110.30748748779298 101.89109802246095 167.35779571533206 121.96797561645509 0.72283270955085765 0.70523539185523998 155.55946350097659 36.032617568969734 119.48289489746095 132.61039733886722 133.68663024902347 34.51831245422364 101.2772789001465 0.19118303060531619 3011.434692382813 137.4253845214844 0.22360044717788699 179.32020568847659 107.61433410644533 5.7296366691589364 115.91330718994142 0.81732490658760082 0.12850248068571093 0.38215349614620214
decision_type=2 2 2 2 2 2 2 2 2 2 2 2 2 2 2 2 2 2 2 2 2 2 2 2 2 2 2 2 2 2
left_child=1 3 6 7 11 16 18 -1 10 25 19 20 29 -14 -8 -13 -4 -12 -2 -6 21 -3 24 -15 -9 26 -5 -10 -17 -7
right_child=2 4 5 9 8 12 14 22 27 -11 17 15 13 23 -16 28 -18 -19 -20 -21 -22 -23 -24 -25 -26 -27 -28 -29 -30 -31
leaf_value=-0.51524583762868315 0.13083215743257687 0.177255551981294 -0.093754804735610209 -0.18236777094491299 0.44976230200393225 -0.02317311464500163 0.0037402250411130329 -0.35895550336960658 0.58995667827120801 0.058674809165761427 0.57576402382322778 0.25219946102292917 0.21386944811587663 -0.30488434574191253 -0.046703498683874238 0.42650336054141658 -0.14525632824565146 0.16547686272536929 0.061643467085282289 0.25688830987142269 -0.11150828683452244 0.35298704419878835 0.0051705242128435632 -0.4648366306237991 -0.25820188438466729 0.019357780384552242 -0.083158490540648167 0.76758184012751474 0.32791446959454207 -0.2132924189589277
leaf_weight=1385 1503 940 4958 608 411 72 7642 799 139 1068 3020 695 42 1446 7007 686 5054 35 3400 185 47 190 45 180 789 240 1130 816 569 2899
leaf_count=1385 1503 940 4958 608 411 72 7642 799 139 1068 3020 695 42 1446 7007 686 5054 35 3400 185 47 190 45 180 789 240 1130 816 569 2899
internal_value=7.58184e-07 0.161418 -0.0651126 -0.221234 0.461482 -0.159349 0.00550221 -0.398936 0.58306 -0.0451567 0.541518 0.282385 -0.244798 -0.309098 -0.0203881 0.335651 -0.119754 0.571071 0.0828563 0.389955 0.194112 0.206836 -0.30026 -0.322622 -0.308918 -0.101222 -0.117876 0.741798 0.381838 -0.208688
internal_weight=48000 13797 34203 6064 7733 14651 19552 3018 4606 3046 3651 3127 4639 1668 14649 1950 10012 3055 4903 596 1177 1130 1633 1626 1588 1978 1738 955 1255 2971
internal_count=48000 13797 34203 6064 7733 14651 19552 3018 4606 3046 3651 3127 4639 1668 14649 1950 10012 3055 4903 596 1177 1130 1633 1626 1588 1978 1738 955 1255 2971
is_linear=0
shrinkage=0.05


Tree=4
num_leaves=31
num_cat=0
split_feature=3 0 0 0 0 0 0 0 0 0 1 17 17 0 3 0 0 0 1 0 0 2 0 0 0 0 17 4 16 2
split_gain=182127 571901 82165.9 68518.3 60778.9 17932.6 14136.1 11442.4 9948.92 8186.07 6543.69 5354.65 4931.97 4156.28 4262.16 3357.9 3343.76 2163.11 2053.8 1988.15 1840.09 1782.81 1955.23 1715.37 1474.45 1334.71 1330.66 1321.02 1139.12 1073.32
threshold=35.226648330688484 126.6238250732422 126.96423721313478 109.56505203247072 140.19667816162112 143.0118103027344 110.30748748779298 167.35779571533206 118.21326065063478 101.2772789001465 64.710617065429702 0.72283270955085765 0.64575645327568065 155.55946350097659 36.032617568969734 119.48289489746095 132.61039733886722 133.68663024902347 54.70282173156739 123.22094345092775 92.514720916748061 221.25904846191409 114.53073120117189 147.70458984375003 179.32020568847659 137.66825103759768 0.81732490658760082 5.7223124504089364 0.25267295539379125 191.8019714355469
decision_type=2 2 2 2 2 2 2 2 2 2 2 2 2 2 2 2 2 2 2 2 2 2 2 2 2 2 2 2 2 2
left_child=1 3 6 9 12 17 20 10 21 29 11 -6 25 -7 -15 -8 -14 -4 -18 -10 -2 22 -5 -12 -16 28 -9 -11 -3 -1
right_child=2 4 5 8 7 13 15 26 19 27 23 -13 16 14 24 -17 18 -19 -20 -21 -22 -23 -24 -25 -26 -27 -28 -29 -30 -31
leaf_value=-0.52787834493786878 0.17957682835540503 0.11939821930117832 -0.089067159181196856 -0.22070418219400809 0.38882013089673373 -0.19636286981967407 0.0035532159290893326 0.56048005028520032 -0.031055588831769277 -0.33388439722618429 0.20013605819391792 0.56340535860607943 0.2209312420263293 0.20320138387612097 -0.28964119076648448 -0.044368356728972796 0.37771021601892507 -0.13615066559883701 0.25044878242665713 0.073937194435916509 0.069406692440311418 0.070600392948949528 -0.10893940942509919 0.40329095338433468 -0.44160772859884728 0.33145477097428355 0.72920744675061544 -0.17773654715377007 -0.10931910886639927 -0.43430500922991017
leaf_weight=842 414 361 4958 837 523 3219 7642 139 1104 1055 155 2782 1023 42 1446 7007 1029 4806 460 762 4489 82 736 318 180 63 816 156 64 490
leaf_count=842 414 361 4958 837 523 3219 7642 139 1104 1055 155 2782 1023 42 1446 7007 1029 4806 460 762 4489 82 736 318 180 63 816 156 64 490
internal_value=9.50899e-07 0.153348 -0.0618572 -0.210173 0.438411 -0.151382 0.00522716 0.550012 -0.0673331 -0.407935 0.510888 0.535792 0.262326 -0.229573 -0.293645 -0.0193687 0.290585 -0.112244 0.338418 0.0118183 0.0787137 -0.156574 -0.168423 0.336785 -0.306493 0.116825 0.704716 -0.31379 0.0849267 -0.493495
internal_weight=48000 13797 34203 6064 7733 14651 19552 4733 3521 2543 3778 3305 3000 4887 1668 14649 2512 9764 1489 1866 4903 1655 1573 473 1626 488 955 1211 425 1332
internal_count=48000 13797 34203 6064 7733 14651 19552 4733 3521 2543 3778 3305 3000 4887 1668 14649 2512 9764 1489 1866 4903 1655 1573 473 1626 488 955 1211 425 1332
is_linear=0
shrinkage=0.05


Tree=5
num_leaves=31
num_cat=0
split_feature=15 0 0 0 0 0 0 0 0 0 17 19 0 13 17 0 0 0 0 5 13 1 2 0 19 4 19 13 17 18
split_gain=164403 513726 73863.2 63381.3 54362.6 17009.7 11793.5 10518.2 7676.04 6270.17 5546.72 5244.14 3844.2 3444.25 2951.75 2587.7 2475.35 2419.5 2402.25 2400.29 2246.42 2193.18 2075.85 1659.37 1523.92 1521.99 1449.06 1611.92 1277.44 1127.19
threshold=0.37419329583644872 125.38882064819337 130.70432281494143 139.93451690673831 108.77907562255861 115.73926925659181 150.2350769042969 156.98744201660159 118.21326065063478 98.688899993896499 0.70523539185523998 0.2058333829045296 104.73776245117189 36.032617568969734 0.77295339107513439 132.61039733886722 141.38239288330081 123.69393157958986 164.61104583740237 93.716094970703139 33.395503997802741 56.420562744140632 199.68442535400393 114.53073120117189 0.22360044717788699 5.7257468700408944 0.18872933089733127 32.05546951293946 0.99423611164093029 3207.105102539063
decision_type=2 2 2 2 2 2 2 2 2 2 2 2 2 2 2 2 2 2 2 2 2 2 2 2 2 2 2 2 2 2
left_child=1 4 5 10 9 12 16 11 23 29 26 20 -2 -8 -9 -12 -4 -7 -15 -13 -5 -16 -11 24 -6 -25 -3 -28 -17 -1
right_child=2 3 6 7 8 17 13 14 -10 22 15 19 -14 18 21 28 -18 -19 -20 -21 -22 -23 -24 25 -26 -27 27 -29 -30 -31
leaf_value=-0.4944741633395987 0.10175196656046724 0.27717802457169177 -0.11588354066929241 0.49229457750648709 -0.20547468059296448 -0.022908514525083287 0.10504349211943316 0.44711921498739549 -0.0044620967056868228 -0.35756924109190935 0.21902961466751233 -0.013670657521551836 0.027742575834954181 -0.23306236053000418 0.67853677483824559 0.34558678928878067 -0.17201036249462423 -0.06559906597715652 -0.34101429335776107 0.33648516875397116 0.19835059790137807 0.55970914638519786 -0.20993204218306472 -0.12507845090438982 0.23433529832469882 0.094692654845824287 0.1428627274288149 -0.1592611755763631 0.0090827483491799279 -0.14679776266897368
leaf_weight=1029 2389 198 6161 2471 1004 7702 65 242 1598 1037 811 59 6608 1842 1054 1075 2886 5833 717 286 67 623 310 680 20 89 1045 46 29 24
leaf_count=1029 2389 198 6161 2471 1004 7702 65 242 1598 1037 811 59 6608 1842 1054 1075 2886 5833 717 286 67 623 310 680 20 89 1045 46 29 24
internal_value=1.08163e-06 0.145695 -0.05877 0.405178 -0.213038 -0.00588774 -0.160863 0.520095 -0.0841516 -0.39513 0.232935 0.459673 0.047396 -0.254193 0.610837 0.286914 -0.13379 -0.041307 -0.263323 0.276602 0.484545 0.634432 -0.323614 -0.155167 -0.196858 -0.0996278 0.152721 0.130106 0.336754 -0.486569
internal_weight=48000 13797 34203 8006 5791 22532 11671 4802 3391 2400 3204 2883 8997 2624 1919 1915 9047 13535 2559 345 2538 1677 1347 1793 1024 769 1289 1091 1104 1053
internal_count=48000 13797 34203 8006 5791 22532 11671 4802 3391 2400 3204 2883 8997 2624 1919 1915 9047 13535 2559 345 2538 1677 1347 1793 1024 769 1289 1091 1104 1053
is_linear=0
shrinkage=0.05


Tree=6
num_leaves=31
num_cat=0
split_feature=3 0 0 0 0 0 0 0 17 0 0 17 1 0 0 3 0 1 16 0 3 2 1 0 0 3 1 4 19 6
split_gain=148396 466638 67171.5 55989.3 49630.9 14647.7 11704.2 10306.4 9222.55 5582.92 5343.64 4436.03 3687.36 3079.9 2915.12 3769.19 2840.88 2517.42 2357.37 2288.17 1702.73 1660.03 1910.13 1550.28 1459.16 1419.87 1403.47 1339.86 1214.34 1193.74
threshold=35.226648330688484 126.6238250732422 126.96423721313478 112.35521697998048 140.77127075195315 144.6553649902344 110.0686492919922 101.89109802246095 0.77935934066772472 167.35779571533206 121.96797561645509 0.64575645327568065 59.147590637207038 132.61039733886722 164.61104583740237 36.032617568969734 118.38035964965822 62.89729309082032 0.19118303060531619 135.22769165039065 15.734785556793215 199.68442535400393 63.786769866943366 92.514720916748061 108.77907562255861 35.846841812133796 56.798852920532234 5.7296366691589364 0.20813161134719851 27.59482574462891
decision_type=2 2 2 2 2 2 2 2 2 2 2 2 2 2 2 2 2 2 2 2 2 2 2 2 2 2 2 2 2 2
left_child=1 3 6 7 11 19 23 -1 17 12 27 -3 -10 -13 25 -16 -8 18 -6 -4 -19 24 -23 -2 -9 -7 -15 28 -5 -12
right_child=2 4 5 10 8 14 16 21 9 -11 29 13 -14 26 15 -17 -18 20 -20 -21 -22 22 -24 -25 -26 -27 -28 -29 -30 -31
leaf_value=-0.44291826802664325 0.16554378870459835 0.10413640766298181 -0.084243285642106425 -0.11358300145735614 0.46851000414744448 0.043276617179720762 0.0069853415819468301 -0.32685366702863272 0.53893460526863024 0.65324817649276845 0.073926294633570463 0.19995488015815213 0.38958305806413701 0.33782615576282399 0.37048714054164605 -0.3239659660901672 -0.03702174815444105 0.327508707975109 0.30847574010179901 -0.13170316452053235 0.030256688915322474 -0.2104670502582997 0.11411374018241682 0.064270556092408213 -0.21655887136719679 -0.19992237650914857 0.22982026936235758 0.023341360394034175 0.057272048538649659 -0.072651978625730362
leaf_weight=1385 414 491 5912 1627 769 61 6701 781 1866 879 904 1023 533 1211 20 717 8100 160 330 4455 69 310 53 4337 489 3486 402 240 111 164
leaf_count=1385 414 491 5912 1627 769 61 6701 781 1866 879 904 1023 533 1211 20 717 8100 160 330 4455 69 310 53 4337 489 3486 402 240 111 164
internal_value=1.19383e-06 0.138421 -0.0558355 -0.189946 0.395917 -0.136781 0.00481964 -0.342575 0.500288 0.545338 -0.0387115 0.242168 0.505772 0.267871 -0.214554 -0.305066 -0.0170977 0.389051 0.420493 -0.10464 0.238018 -0.257446 -0.163044 0.0730998 -0.28441 -0.195737 0.310927 -0.0873736 -0.102666 0.0514086
internal_weight=48000 13797 34203 6064 7733 14651 19552 3018 4606 3278 3046 3127 2399 2636 4284 737 14801 1328 1099 10367 229 1633 363 4751 1270 3547 1613 1978 1738 1068
internal_count=48000 13797 34203 6064 7733 14651 19552 3018 4606 3278 3046 3127 2399 2636 4284 737 14801 1328 1099 10367 229 1633 363 4751 1270 3547 1613 1978 1738 1068
is_linear=0
shrinkage=0.05


Tree=7
num_leaves=31
num_cat=0
split_feature=18 0 0 0 0 0 0 17 0 15 0 0 0 0 1 17 1 19 16 0 16 6 0 18 15 19 16 0 16 17
split_gain=134082 420329 58742.4 50898.5 44274.3 12834.1 9783.71 7931.01 6304.57 5417.83 5374.32 4918.32 4740.72 3834.3 3564.82 2424.83 2413.01 2139.01 2036.71 1927.76 1846.42 1804.12 1681.41 1622 1393.46 1380.7 1328.02 1299.89 1349.96 1293.54
threshold=3207.105102539063 125.38882064819337 126.78977584838869 140.77127075195315 108.77907562255861 141.99809265136722 112.57061767578126 0.77935934066772472 118.21326065063478 0.3777767568826676 99.472564697265639 133.68663024902347 167.35779571533206 159.28138732910159 59.147590637207038 0.73845842480659496 62.89729309082032 0.2012281268835068 0.19118303060531619 102.98722457885744 0.026381120085716251 26.295527458190922 119.62570571899415 1477.3723144531252 0.383651614189148 0.20007849484682086 0.2065737992525101 113.38238906860353 0.28277952969074255 0.50997447967529308
decision_type=2 2 2 2 2 2 2 2 2 2 2 2 2 2 2 2 2 2 2 2 2 2 2 2 2 2 2 2 2 2
left_child=1 4 6 11 10 -4 19 16 27 21 -1 15 14 -11 -9 -3 18 25 -5 24 -19 -7 -8 -18 -2 -13 -12 29 -29 -6
right_child=2 3 5 7 8 9 22 12 -10 13 26 17 -14 -15 -16 -17 23 20 -20 -21 -22 -23 -24 -25 -26 -27 -28 28 -30 -31
leaf_value=-0.44054815538588932 -0.091500139867068633 0.11862688108161533 -0.092758872234315282 0.44968046163952891 0.040410298657042487 0.042804469646004366 -0.0018260632966133651 0.51558107370618333 -0.0043208166152019761 -0.17390798640913532 -0.31797570463030045 0.29156683549139856 0.61912056854008135 -0.27656460424687029 0.36789323107885941 0.23773558871632727 0.31166019065743389 0.51007190219630627 0.29954945621444179 0.037231441065954066 0.15252863011261775 0.51629442437855211 -0.037720726525355519 0.019080624693307902 0.10683875337574622 0.4233378327675727 -0.19692965205977506 -0.12317028001001676 0.069058216381982257 -0.20658546320315582
leaf_weight=1105 93 1106 9576 761 57 88 6331 1843 1571 4025 958 880 875 1176 527 697 162 40 323 4531 367 26 6732 67 1814 258 298 866 102 745
leaf_count=1105 93 1106 9576 761 57 88 6331 1843 1571 4025 958 880 875 1176 527 697 162 40 323 4531 367 26 6732 67 1814 258 298 866 102 745
internal_value=1.42127e-06 0.132852 -0.0525643 0.368846 -0.194359 -0.127344 0.0045375 0.477577 -0.0772305 -0.189651 -0.360094 0.220807 0.519548 -0.197126 0.48276 0.164685 0.373811 0.286282 0.404982 0.0549847 0.187797 0.151195 -0.0203249 0.226126 0.0971593 0.32148 -0.289278 -0.141936 -0.102905 -0.189022
internal_weight=48000 13608 34392 7906 5702 14891 19501 4558 3341 5315 2361 3348 3245 5201 2370 1803 1313 1545 1084 6438 407 114 13063 229 1907 1138 1256 1770 968 802
internal_count=48000 13608 34392 7906 5702 14891 19501 4558 3341 5315 2361 3348 3245 5201 2370 1803 1313 1545 1084 6438 407 114 13063 229 1907 1138 1256 1770 968 802
is_linear=0
shrinkage=0.05


Tree=8
num_leaves=31
num_cat=0
split_feature=18 0 0 0 0 0 0 15 0 0 19 0 17 0 3 1 0 5 0 1 16 0 2 0 0 17 0 1 1 19
split_gain=121100 379557 51539.3 46192.9 39713.9 11797 8416.81 8179.21 9319.22 5594.84 4896.01 4829.12 3416.64 2876.7 2881.96 2170.94 2151.51 2050.43 2008.08 2200.48 1941.16 1877.38 1510.36 1484.18 1392.18 1385.46 1372.71 2123.37 1231.69 1224.61
threshold=3118.393920898438 125.38882064819337 130.70432281494143 139.14746093750003 108.77907562255861 116.61444091796876 156.98744201660159 0.3777767568826676 150.77449035644534 118.21326065063478 0.2058333829045296 99.472564697265639 0.72833436727523815 106.94947814941408 35.226648330688484 58.028835296630866 129.35766601562503 93.547031402587905 176.25382995605472 61.018806457519538 0.23898534476757052 141.38239288330081 197.30988311767581 124.23341369628908 163.28694152832034 0.99423611164093029 133.68663024902347 43.145986557006843 72.835422515869155 0.20259421318769458
decision_type=2 2 2 2 2 2 2 2 2 2 2 2 2 2 2 2 2 2 2 2 2 2 2 2 2 2 2 2 2 2
left_child=1 4 5 12 11 13 10 25 21 -6 20 -1 26 14 -2 16 -14 -12 19 -8 -5 -9 -13 -7 -10 -4 29 -28 -24 -3
right_child=2 3 7 6 9 23 18 8 24 -11 17 22 15 -15 -16 -17 -18 -19 -20 -21 -22 -23 28 -25 -26 -27 27 -29 -30 -31
leaf_value=-0.42059693147300675 -0.24297838444567785 0.13727961956927034 0.10298034932296717 0.44171904390548211 -0.13540306178053407 -0.022471106990234781 0.53552507109255232 -0.10110835884195951 -0.20004860968895324 -0.0049311809902853818 -0.046464715538745004 -0.30954002491083366 0.15396536689198256 0.016759693015733754 0.081114076252013306 0.12622366107676106 0.31750587023024135 0.27573967792971565 0.61962940608252115 0.38672798989795898 0.33474090689471692 -0.14952215402763008 -0.20950724050869363 -0.056886119384412251 -0.27988392629406667 0.51611401294421289 0.38094967256391166 0.14843517680145091 0.18547006783327222 -0.0044681042623927669
leaf_weight=1092 70 821 251 2073 1750 7439 1068 6122 1665 1549 59 902 258 6616 3190 278 919 301 481 326 536 2978 308 5413 815 22 136 354 21 187
leaf_count=1092 70 821 251 2073 1750 7439 1068 6122 1665 1549 59 902 258 6616 3190 278 919 301 481 326 536 2978 308 5413 815 22 136 354 21 187
internal_value=1.71042e-06 0.127493 -0.0494706 0.353294 -0.185665 -0.00538901 0.448317 -0.133996 -0.140373 -0.0741453 0.3959 -0.344028 0.197411 0.0357037 0.0741463 0.25199 0.281678 0.222922 0.531289 0.500761 0.419757 -0.116954 -0.276072 -0.0369667 -0.226297 0.136468 0.144381 0.213045 -0.184232 0.11098
internal_weight=48000 13419 34581 7797 5622 22728 4844 11853 11580 3299 2969 2323 2953 9876 3260 1455 1177 360 1875 1394 2609 9100 1231 12852 2480 273 1498 490 329 1008
internal_count=48000 13419 34581 7797 5622 22728 4844 11853 11580 3299 2969 2323 2953 9876 3260 1455 1177 360 1875 1394 2609 9100 1231 12852 2480 273 1498 490 329 1008
is_linear=0
shrinkage=0.05


Tree=9
num_leaves=31
num_cat=0
split_feature=15 0 0 0 0 0 0 0 17 0 0 17 1 3 0 0 17 0 1 0 0 2 4 4 1 5 3 1 16 15
split_gain=109250 341663 49656.2 41201.7 36892.8 11427.5 8022.23 7456.95 7108.65 4185.34 3937.34 3420.77 2670 2601.58 2516.85 2285.86 2030.46 1797.61 1733.78 1654.5 1507.02 1475.33 1217.89 1176.57 1153.26 1115.55 1096.11 1039.92 1009.01 991.912
threshold=0.37419329583644872 126.6238250732422 130.70432281494143 112.35521697998048 140.77127075195315 115.22950363159181 150.77449035644534 101.89109802246095 0.77295339107513439 167.35779571533206 121.96797561645509 0.64575645327568065 59.147590637207038 36.032617568969734 104.31914520263673 132.61039733886722 0.63232225179672252 122.7896194458008 62.89729309082032 141.38239288330081 179.32020568847659 233.86307525634768 5.9285230636596689 5.7955374717712411 30.263685226440433 94.076587677001967 34.51831245422364 58.028835296630866 0.035798078402876861 0.383651614189148
decision_type=2 2 2 2 2 2 2 2 2 2 2 2 2 2 2 2 2 2 2 2 2 2 2 2 2 2 2 2 2 2
left_child=1 3 5 7 11 14 19 -1 16 12 23 -3 -10 -8 29 27 25 -7 -18 -4 -15 26 -17 -5 -12 -6 -9 -13 -11 -2
right_child=2 4 6 10 8 17 13 21 9 28 24 15 -14 20 -16 22 18 -19 -20 -21 -22 -23 -24 -25 -26 -27 -28 -29 -30 -31
leaf_value=-0.3788764868333756 -0.1015262103947249 0.085142115327236423 -0.095103569410280767 -0.084487427740544338 -0.13086520502141671 -0.015101263639678328 0.10356257887972686 -0.23230305535054152 0.46082050329362989 0.43038507463678233 -0.19206451015535539 0.19592274458951153 0.33531749394222193 -0.20807580838205647 0.024788886451760663 0.271062255748445 0.37242363696391723 -0.050965406700219179 0.21223891847150123 -0.14036331548649872 -0.35850208098196051 0.12590837868741186 -0.10294899032935836 0.074544801483175438 0.056004115137624655 0.2384012330287007 0.1306591263314559 0.070773929728454296 0.58223469050224452 0.092244009498105642
leaf_weight=1382 68 491 6161 1849 34 7264 64 1583 1934 130 49 812 545 2260 6282 1593 955 6733 206 3006 180 30 22 124 1021 51 21 209 756 2185
leaf_count=1382 68 491 6161 1849 34 7264 64 1583 1934 130 49 812 545 2260 6282 1593 955 6733 206 3006 180 30 22 124 1021 51 21 209 756 2185
internal_value=1.90436e-06 0.11877 -0.0479074 -0.162412 0.33894 -0.00454807 -0.131616 -0.293376 0.428849 0.46664 -0.032603 0.206353 0.433246 -0.210934 0.041051 0.228924 0.326755 -0.0323536 0.344027 -0.109947 -0.219189 -0.22104 0.265958 -0.0744867 0.0446224 0.0906557 -0.22754 0.170319 0.560011 0.0863892
internal_weight=48000 13797 34203 6059 7738 22532 11671 3016 4611 3365 3043 3127 2479 2504 8535 2636 1246 13997 1161 9167 2440 1634 1615 1973 1070 85 1604 1021 886 2253
internal_count=48000 13797 34203 6059 7738 22532 11671 3016 4611 3365 3043 3127 2479 2504 8535 2636 1246 13997 1161 9167 2440 1634 1615 1973 1070 85 1604 1021 886 2253
is_linear=0
shrinkage=0.05


Tree=10
num_leaves=31
num_cat=0
split_feature=18 14 14 14 14 14 17 14 3 14 14 14 19 14 3 14 1 7 15 1 16 17 4 14 16 14 14 17 2 3
split_gain=98858 309839 42113 41579.7 29609.1 9664.49 7963.9 6523.51 6367.07 3981.41 3803.59 3765.16 3399.08 2919.58 2650.85 2543.14 2055.82 1909.44 1697.69 1658.44 1532.23 1481.32 1536.36 1474.74 1473.91 1639.82 1446.11 1424.46 1346.7 1345.58
threshold=3118.393920898438 124.56318664550783 125.91725158691408 138.1386413574219 108.77907562255861 142.32175445556643 0.77935934066772472 110.30748748779298 35.846841812133796 99.472564697265639 115.06840133666994 156.98744201660159 0.20148194581270221 159.28138732910159 34.51831245422364 134.999137878418 60.729465484619148 1.0000000180025095e-35 0.3777767568826676 47.969350814819343 0.27533885836601263 0.50997447967529308 5.539788246154786 133.03681945800784 0.041174504905939109 127.1514358520508 118.05710220336915 0.67190623283386242 197.30988311767581 10.20223379135132
decision_type=2 2 2 2 2 2 2 2 2 2 2 2 2 2 2 2 2 2 2 2 2 2 2 2 2 2 2 2 2 2
left_child=1 4 7 12 9 18 16 14 -7 -1 21 20 15 -10 -2 17 27 -3 -4 -13 -8 22 -6 -20 25 -14 -9 -5 -11 -26
right_child=2 3 5 6 10 8 11 26 13 28 -12 19 24 -15 -16 -17 -18 -19 23 -21 -22 -23 -24 -25 29 -27 -28 -29 -30 -31
leaf_value=-0.38067388419111703 -0.33114259386954664 -0.25395717979357252 0.079256134490859748 0.22088912862891213 0.32003545071423234 0.12426164398222989 0.41297521837045564 0.0058182325957801184 -0.1503153167834953 -0.28104541792024984 -0.034467963742497013 0.56510914097208009 -0.1585000446057433 -0.24038517411463853 0.058230052578650784 0.28673590613625688 0.20077274961621039 0.16892966058479805 -0.061949761681846321 0.45998255403694482 0.28363158425460344 -0.16489189749762972 -0.16543732554741739 -0.099773245340887787 -0.040026984360758994 0.3391429335078836 -0.026623547136674433 0.36270942699226771 -0.16273024475291956 0.13615475152430478
leaf_weight=1092 44 27 170 215 33 189 1555 6284 3871 902 2016 597 21 1173 4940 534 350 1803 5404 1029 270 1029 32 4930 319 77 7576 1025 329 164
leaf_count=1092 44 27 170 215 33 189 1555 6284 3871 902 2016 597 21 1173 4940 534 350 1803 5404 1029 270 1029 32 4930 319 77 7576 1025 329 164
internal_value=2.01432e-06 0.115191 -0.0446968 0.313358 -0.176094 -0.105075 0.400561 0.00572665 -0.16059 -0.311149 -0.0752077 0.443232 0.164081 -0.171267 0.054785 0.190711 0.307922 0.162674 -0.0774168 0.498616 0.393859 -0.150267 0.0810697 -0.0799953 0.0557029 0.232401 -0.0119144 0.338143 -0.249444 0.0198
internal_weight=48000 13419 34581 7986 5433 15737 5041 18844 5233 2323 3110 3451 2945 5044 4984 2364 1590 1830 10504 1626 1825 1094 65 10334 581 98 13860 1240 1231 483
internal_count=48000 13419 34581 7986 5433 15737 5041 18844 5233 2323 3110 3451 2945 5044 4984 2364 1590 1830 10504 1626 1825 1094 65 10334 581 98 13860 1240 1231 483
is_linear=0
shrinkage=0.05


Tree=11
num_leaves=31
num_cat=0
split_feature=18 0 0 0 0 0 0 0 0 1 3 0 2 0 2 0 0 0 0 7 0 2 6 6 1 4 1 0 16 2
split_gain=89231.5 279997 39409.5 33503.7 29684.7 7784.66 7328.85 6295.48 5470.57 4489.87 3506.72 3244.35 2670.19 2583.3 2513.4 2414.93 2322.06 1686.87 1453.36 1393.69 1333.21 1184.23 1173.25 1341.97 1162.1 1133.35 1310.24 1128.98 1077.86 1075.76
threshold=3207.105102539063 126.6238250732422 128.58893585205081 112.35521697998048 140.77127075195315 113.80663299560548 144.6553649902344 101.2772789001465 167.35779571533206 64.710617065429702 36.032617568969734 121.96797561645509 217.33248138427737 165.85640716552737 206.70357513427737 159.28138732910159 134.999137878418 102.98722457885744 147.70458984375003 1.0000000180025095e-35 121.67572402954103 233.86307525634768 27.59482574462891 26.581336021423343 57.820955276489265 5.7296366691589364 69.210140228271499 137.66825103759768 0.041174504905939109 191.8019714355469
decision_type=2 2 2 2 2 2 2 2 2 2 2 2 2 2 2 2 2 2 2 2 2 2 2 2 2 2 2 2 2 2
left_child=1 3 5 7 14 17 -4 29 9 12 13 25 -6 -8 16 -12 19 -2 -11 -3 -7 -9 23 -13 -18 26 -5 28 -16 -1
right_child=2 4 6 11 8 20 10 21 -10 18 15 22 -14 -15 27 -17 24 -19 -20 -21 -22 -23 -24 -25 -26 -27 -28 -29 -30 -31
leaf_value=-0.38427512815184578 0.081790855834674214 -0.22439827886641839 -0.084365732227321022 -0.092091814574469508 0.39782836338691935 -0.008191391790523455 -0.011823187122130895 -0.20867087579403021 0.4966871456531447 0.083274282309910713 -0.14862473307939622 0.040430883380431944 0.23913644673344081 0.58217286250037603 0.22504358710299788 -0.23361066547216411 0.29369392198166949 0.027148646476679514 0.27541440149580632 0.17551705623776803 -0.039568853273574428 0.098098517151265122 -0.084909543588729236 0.23069396561577024 0.16305904831187365 0.034739607270681316 0.11752990412379159 0.22779748400237257 -0.0012217122001211807 -0.28994830497104912
leaf_weight=823 1907 22 9064 1636 2855 7428 138 1634 950 143 3006 786 293 21 64 1159 815 5448 317 1569 6221 32 158 105 216 234 78 102 294 482
leaf_count=823 1907 22 9064 1636 2855 7428 138 1634 950 143 3006 786 293 21 64 1159 815 5448 317 1569 6221 32 158 105 216 234 78 102 294 482
internal_value=2.06642e-06 0.108379 -0.04288 -0.148233 0.308833 -0.000148132 -0.10992 -0.267216 0.389878 0.361741 -0.163482 -0.030276 0.383068 0.0669143 0.188964 -0.17228 0.207878 0.0413178 0.215726 0.16997 -0.0224933 -0.20277 0.0406105 0.0628814 0.266349 -0.0684512 -0.0825432 0.0811217 0.0392655 -0.349464
internal_weight=48000 13608 34392 5968 7640 21004 13388 2971 4558 3608 4324 2997 3148 159 3082 4165 2622 7355 460 1591 13649 1666 1049 891 1031 1948 1714 460 358 1305
internal_count=48000 13608 34392 5968 7640 21004 13388 2971 4558 3608 4324 2997 3148 159 3082 4165 2622 7355 460 1591 13649 1666 1049 891 1031 1948 1714 460 358 1305
is_linear=0
shrinkage=0.05


Tree=12
num_leaves=31
num_cat=0
split_feature=18 0 0 0 0 0 0 15 0 0 0 1 2 7 0 16 0 3 2 6 0 0 1 16 0 5 2 2 3 6
split_gain=80597.6 252855 34594.1 30822.2 26674.5 7930.58 6005.68 5390.18 6323.99 3889.35 3288.07 2788.57 2804.09 2653.16 2258.77 2409.16 2048.34 2090.14 1889.2 1661.21 1590.63 1566.08 1838.26 1368 1352.29 1349.54 1247.11 1220.76 1195.92 1098.44
threshold=3118.393920898438 125.38882064819337 130.70432281494143 139.14746093750003 108.77907562255861 116.61444091796876 156.21103668212893 0.3777767568826676 150.77449035644534 118.21326065063478 98.688899993896499 64.710617065429702 217.33248138427737 1.0000000180025095e-35 129.71214294433597 0.16516619920730594 106.94947814941408 35.226648330688484 152.22986602783206 23.491864204406742 139.93451690673831 176.25382995605472 61.018806457519538 0.39159327745437628 138.40026855468753 91.038078308105483 168.64002990722659 197.30988311767581 35.612251281738288 22.931443214416507
decision_type=2 2 2 2 2 2 2 2 2 2 2 2 2 2 2 2 2 2 2 2 2 2 2 2 2 2 2 2 2 2
left_child=1 4 5 13 10 16 11 19 24 -6 -1 12 -5 -3 25 -16 17 29 -13 26 -21 22 -8 27 -9 -15 -4 -12 -22 -2
right_child=2 3 7 6 9 -7 21 8 -10 -11 23 18 -14 14 15 -17 -18 -19 -20 20 28 -23 -24 -25 -26 -27 -28 -29 -30 -31
leaf_value=-0.3484593330642593 0.10443104034780862 -0.21961527199808617 0.2664754169327872 0.35304872461882852 -0.11126702046550251 -0.030133560914777931 0.43822621096873271 -0.076688288020238068 -0.18556644618595317 -0.0024834261680617437 -0.26670504231825459 0.57297079444355814 0.16219044957825934 0.28495122323290228 0.23660855040056372 0.12147711217827442 0.01346419412582496 0.067822873913684412 0.14362668776887841 -0.0038014988011014447 0.39374258480925201 0.51199239005534636 0.30536539085831166 0.062848778781683545 -0.11525966383639226 0.080966247701995731 -0.15360664918165554 -0.15431979389269576 -0.0095026413599650084 -0.33327928574499255
leaf_weight=1023 20 45 23 2349 1750 12852 1143 4664 2480 1549 934 28 210 90 1305 698 6616 3190 294 61 91 481 339 39 4436 815 75 327 23 50
leaf_count=1023 20 45 23 2349 1750 12852 1143 4664 2480 1549 934 28 210 90 1305 698 6616 3190 294 61 91 481 339 39 4436 815 75 327 23 50
internal_value=2.19038e-06 0.10401 -0.0403578 0.28831 -0.151589 -0.00424257 0.36593 -0.109607 -0.114785 -0.0601923 -0.281376 0.31994 0.337395 0.160975 0.166874 0.196498 0.0294498 0.0618888 0.181143 0.109952 0.202217 0.433404 0.407861 -0.228559 -0.0954924 0.101287 -0.0547939 -0.23758 0.312405 -0.208177
internal_weight=48000 13419 34581 7797 5622 22728 4844 11853 11580 3299 2323 2881 2559 2953 2908 2003 9876 3260 322 273 175 1963 1482 1300 9100 905 98 1261 114 70
internal_count=48000 13419 34581 7797 5622 22728 4844 11853 11580 3299 2323 2881 2559 2953 2908 2003 9876 3260 322 273 175 1963 1482 1300 9100 905 98 1261 114 70
is_linear=0
shrinkage=0.05


Tree=13
num_leaves=31
num_cat=0
split_feature=18 0 0 0 0 0 0 0 3 0 19 0 0 3 0 0 6 19 16 16 19 6 5 6 7 4 5 2 3 0
split_gain=72740.3 228330 31389.1 30645.4 22048.4 7176.59 6243.6 4864.57 4723.56 3531.69 2877.31 2481.84 2337.24 2206.16 2104.35 1963.84 1924.37 1861.86 1801.39 1752.23 1572.08 1530.3 1659.53 1582.51 1460.2 1433.19 1317.06 1217.09 1192.15 1185.08
threshold=3118.393920898438 124.56318664550783 125.91725158691408 138.1386413574219 107.61433410644533 142.32175445556643 149.31474304199222 110.0686492919922 36.032617568969734 115.06840133666994 0.20148194581270221 159.28138732910159 98.688899993896499 35.226648330688484 176.25382995605472 134.999137878418 23.464257240295414 0.19634986668825152 0.19264379888772967 0.2065737992525101 0.2058333829045296 26.45306491851807 92.378616333007827 27.355415344238285 1.0000000180025095e-35 5.2435405254364023 93.547031402587905 233.86307525634768 35.846841812133796 92.514720916748061
decision_type=2 2 2 2 2 2 2 2 2 2 2 2 2 2 2 2 2 2 2 2 2 2 2 2 2 2 2 2 2 2
left_child=1 4 7 10 12 28 20 13 16 27 15 -10 -1 -2 18 24 -7 -18 -8 -14 25 22 -12 -23 -3 -5 -22 -6 -4 -15
right_child=2 3 5 6 9 8 14 -9 11 -11 21 -13 19 29 -16 -17 17 -19 -20 -21 26 23 -24 -25 -26 -27 -28 -29 -30 -31
leaf_value=-0.33103807101140897 -0.21011938790063822 -0.22369428742195849 0.047972694792789372 0.11430898904659972 -0.1416590803447316 -0.10720663415578149 0.40237058117531677 -0.0097234144294019303 -0.12926345292502786 -0.028949328157689542 -0.35539676321679681 -0.2127494788310639 -0.26214062293466095 0.13369604112790479 0.48639808345785057 0.24965460708616291 0.0047482450899568587 0.35731199511187334 0.31194491198496549 -0.11636523248309072 -0.13167266951016318 -0.26788443646140914 0.10981523519027883 0.060187963600932537 0.14610434892254937 0.30388582059020885 0.20430460494124084 0.22461353886179081 -0.069108199548916671 0.045152609568585321
leaf_weight=1023 81 27 222 106 1260 87 1640 14013 3836 2016 20 1160 837 414 481 534 72 78 834 274 34 71 414 76 1803 1744 202 23 10282 4336
leaf_count=1023 81 27 222 106 1260 87 1640 14013 3836 2016 20 1160 837 414 481 534 72 78 834 274 34 71 414 76 1803 1744 202 23 10282 4336
internal_value=2.31047e-06 0.0988108 -0.0383399 0.268926 -0.151242 -0.0904671 0.343791 0.00519255 -0.138306 -0.0702254 0.140771 -0.148653 -0.276477 0.0484588 0.390558 0.165272 0.0797584 0.188231 0.371903 -0.226207 0.277523 0.0410596 0.0882884 -0.0983092 0.140634 0.293033 0.155845 -0.135072 -0.0666328 0.0528736
internal_weight=48000 13419 34581 7986 5433 15737 5041 18844 5233 3299 2945 4996 2134 4831 2955 2364 237 150 2474 1111 2086 581 434 147 1830 1850 236 1283 10504 4750
internal_count=48000 13419 34581 7986 5433 15737 5041 18844 5233 3299 2945 4996 2134 4831 2955 2364 237 150 2474 1111 2086 581 434 147 1830 1850 236 1283 10504 4750
is_linear=0
shrinkage=0.05


Tree=14
num_leaves=31
num_cat=0
split_feature=18 0 0 0 0 0 0 13 0 0 17 0 2 1 16 13 0 1 0 17 1 18 6 19 17 2 4 1 1 2
split_gain=65648.5 206407 28449.2 24485.7 22005.2 6589.75 4674.88 4413.76 5343.54 4339.19 3416.26 2442.97 2250.29 2094.21 1837.69 1704.2 1876.88 1520.67 1767.15 1519.38 1514.7 1417.14 1362.75 1296.11 2378.78 1256.08 1201.61 1381.87 1172.59 2051.11
threshold=3118.393920898438 126.6238250732422 130.70432281494143 112.35521697998048 145.75666046142581 116.61444091796876 101.89109802246095 35.846841812133796 150.77449035644534 137.66825103759768 0.81952571868896495 120.71467208862306 206.70357513427737 63.378959655761726 0.18796785920858386 34.51831245422364 105.15714263916017 59.147590637207038 170.92713165283206 0.72391527891159069 57.820955276489265 443.30599975585943 23.491864204406742 0.19634986668825152 0.70523539185523998 145.24497985839847 5.737499713897706 72.835422515869155 64.256637573242202 216.08838653564456
decision_type=2 2 2 2 2 2 2 2 2 2 2 2 2 2 2 2 2 2 2 2 2 2 2 2 2 2 2 2 2 2
left_child=1 3 5 6 9 15 -1 22 -9 12 14 26 20 19 -6 -2 -17 25 -19 -11 -3 -15 -4 -24 -25 -12 27 -5 -8 -30
right_child=2 4 7 11 10 -7 28 8 -10 13 17 -13 -14 21 -16 16 -18 18 -20 -21 -22 -23 23 24 -26 -27 -28 -29 29 -31
leaf_value=-0.2994489227251752 -0.25544883632250198 0.18656251848031591 -0.055176173674640998 -0.089237705997576411 0.33466315183631701 -0.02727300860606903 -0.18712068966629836 -0.086724138805102907 -0.16978882049847566 0.18773056639024643 0.255068424000294 0.025153463030381434 0.027189655916481006 0.38778194788613973 0.20712194785395674 0.065458595822082258 0.015618079175118144 0.26543898035911351 0.44270016637625159 0.30409621395610986 0.081552129999207898 0.032294565464672152 0.041123812866545637 -0.096777846098355824 0.44011903245174938 0.43041242505724897 0.054006508287368173 0.21581492093135052 -0.1244391364116768 0.35159405685438883
leaf_weight=1337 53 1597 125 1447 836 12852 1426 9043 2464 390 110 1289 353 34 428 2552 7271 406 216 1008 438 158 121 29 71 1560 184 38 137 27
leaf_count=1337 53 1597 125 1447 836 12852 1426 9043 2464 390 110 1289 353 34 428 2552 7271 406 216 1008 438 158 121 29 71 1560 184 38 137 27
internal_value=2.2586e-06 0.0938706 -0.0364229 -0.128004 0.267183 -0.00367199 -0.23053 -0.0992215 -0.104513 0.18638 0.357565 -0.0265476 0.143753 0.250385 0.2915 0.0270403 0.0285676 0.393982 0.327065 0.271653 0.163968 0.0954406 0.0767084 0.151318 0.284428 0.418882 -0.0664794 -0.0814143 -0.172558 -0.0458709
internal_weight=48000 13419 34581 5885 7534 22728 2927 11853 11507 3978 3556 2958 2388 1590 1264 9876 9823 2292 622 1398 2035 192 346 221 100 1670 1669 1485 1590 164
internal_count=48000 13419 34581 5885 7534 22728 2927 11853 11507 3978 3556 2958 2388 1590 1264 9876 9823 2292 622 1398 2035 192 346 221 100 1670 1669 1485 1590 164
is_linear=0
shrinkage=0.05


Tree=15
num_leaves=31
num_cat=0
split_feature=18 0 0 0 0 0 0 0 17 17 0 13 19 0 15 16 17 6 0 6 17 6 16 0 4 0 15 17 6 5
split_gain=59274.2 186444 27850.5 26667.7 15246.4 5834.12 4900.12 4546.89 3300.55 3230.93 3056.07 2433.7 1986.43 1872.27 1752.5 1508.26 1466.11 1193.9 1191.41 1181.85 1232.11 1213.78 1172.2 1709.6 1140.69 1285.74 1133.94 1116.76 1087.78 990.125
threshold=3207.105102539063 128.9701843261719 113.38238906860353 126.78977584838869 147.70458984375003 141.99809265136722 103.8956642150879 110.0686492919922 0.81952571868896495 0.72391527891159069 122.12797927856447 35.612251281738288 0.20651620626449588 163.28694152832034 0.035197077319026 0.18796785920858386 0.4519352018833161 26.295527458190922 119.48289489746095 25.22796726226807 0.63659593462944042 27.289299964904789 0.39159327745437628 95.194065093994155 5.9767754077911386 176.25382995605472 0.3860901147127152 0.66108372807502758 25.832090377807621 91.751472473144545
decision_type=2 2 2 2 2 2 2 2 2 2 2 2 2 2 2 2 2 2 2 2 2 2 2 2 2 2 2 2 2 2
left_child=1 2 6 7 9 -5 22 -2 15 19 -4 17 14 -13 -11 -6 -8 -7 -9 20 -3 -21 -1 -24 25 -10 -15 -17 -14 -18
right_child=3 4 10 5 8 11 16 18 24 12 -12 13 28 26 -16 27 29 -19 -20 21 -22 -23 23 -25 -26 -27 -28 -29 -30 -31
leaf_value=-0.28073450206182543 0.045824969961519531 0.073114779873692082 -0.048700580428826357 -0.062014140656988181 0.31529547706630362 0.016886392676242975 0.25665090612696306 0.0030960485801824924 0.3637337902916179 0.017820106809203689 0.047717167237479353 -0.11911647157866234 -0.10772818497276043 0.054441244236744235 0.24915361392933144 -0.13121470398161991 -0.048108018091114479 0.41537457756787188 -0.025421540833152984 0.044681368365205781 0.22004126402872604 0.18775912566391048 -0.30852880350291573 0.21214652962710379 0.02870805345765956 0.46031902443924655 -0.21515930864122235 0.21422125588074065 0.30616278422387294 -0.16919019295411716
leaf_weight=1571 4792 194 1796 9576 712 75 22 7823 1734 85 1515 4399 64 41 2268 25 194 25 6886 468 542 217 33 30 23 433 775 348 21 1313
leaf_count=1571 4792 194 1796 9576 712 75 22 7823 1734 85 1515 4399 64 41 2268 25 194 25 6886 468 542 217 33 30 23 433 775 348 21 1313
internal_value=2.50573e-06 0.0883334 -0.105945 -0.0349477 0.264638 -0.0853323 -0.212046 0.00352612 0.343987 0.197288 -0.00458151 -0.127342 0.232222 -0.132028 0.2408 0.272601 -0.147688 0.116874 -0.0102542 0.137336 0.181335 0.0900348 -0.272253 -0.0605657 0.379338 0.383056 -0.201602 0.191026 -0.00517441 -0.153611
internal_weight=48000 13608 6474 34392 7134 14891 3163 19501 3275 3859 3311 5315 2438 5215 2353 1085 1529 100 14709 1421 736 685 1634 63 2190 2167 816 373 85 1507
internal_count=48000 13608 6474 34392 7134 14891 3163 19501 3275 3859 3311 5315 2438 5215 2353 1085 1529 100 14709 1421 736 685 1634 63 2190 2167 816 373 85 1507
is_linear=0
shrinkage=0.05


Tree=16
num_leaves=31
num_cat=0
split_feature=18 14 14 14 14 14 17 15 14 14 6 19 14 1 14 14 14 16 3 1 17 6 5 6 4 1 16 15 3 14
split_gain=53519 168434 23409.3 22863.7 16397.8 5620.17 5015.04 3614.19 3473.01 2597.1 2351.18 2303.45 2207.27 1998.45 1789.28 1636.23 1575.73 1533.28 1523.38 1459.22 1412.89 1388.47 1497.3 1407.81 1377.4 1359.13 1173.8 1141.52 1129.48 1105.99
threshold=3118.393920898438 124.56318664550783 125.38882064819337 138.1386413574219 107.61433410644533 143.0118103027344 0.77935934066772472 0.3777767568826676 108.50764846801759 115.91330718994142 23.464257240295414 0.20148194581270221 167.35779571533206 64.710617065429702 98.688899993896499 163.28694152832034 134.999137878418 0.2065737992525101 35.226648330688484 60.729465484619148 0.50997447967529308 26.45306491851807 92.927558898925795 27.355415344238285 5.2156641483306894 49.074476242065437 0.16248931735754016 0.3777767568826676 35.612251281738288 133.68663024902347
decision_type=2 2 2 2 2 2 2 2 2 2 2 2 2 2 2 2 2 2 2 2 2 2 2 2 2 2 2 2 2 2
left_child=1 4 8 11 14 27 19 10 18 20 -7 16 13 -8 -1 -9 24 25 -2 26 -6 22 -13 -23 -3 -16 -5 -4 -12 -29
right_child=2 3 5 6 9 7 12 15 -10 -11 28 21 -14 -15 17 -17 -18 -19 -20 -21 -22 23 -24 -25 -26 -27 -28 29 -30 -31
leaf_value=-0.28574976265008439 -0.17286208426210203 -0.10407270302435274 0.069955003441304467 0.28486447762238298 0.075484894630164848 -0.14811032475070626 0.32191949895808336 -0.11523274978512688 -0.0056543402376795053 -0.020534291033782737 0.36242603555462466 -0.27048227778824746 0.39849702940869047 0.18308746405111082 -0.28920911216647766 -0.19295077982336128 0.21767798618843687 -0.091287436869181615 0.051578820123393723 0.13177043394177887 -0.12285993571580056 -0.26173396957173695 0.10082345816431604 0.047701735581600568 0.12841594006694798 -0.16157892311370833 0.18402109351903817 -0.045266724713030553 -0.045179224985217613 -0.077215550382190495
leaf_weight=1023 77 66 174 780 96 52 2291 4021 14421 1836 74 29 867 293 433 815 534 274 3883 350 1367 71 405 76 1764 404 460 6270 22 4772
leaf_count=1023 77 66 174 780 96 52 2291 4021 14421 1836 74 29 867 293 433 815 534 274 3883 350 1367 71 405 76 1764 404 460 6270 22 4772
internal_value=2.63271e-06 0.0847567 -0.0328858 0.230866 -0.130009 -0.0767056 0.29553 -0.120886 0.00573449 -0.0601409 0.122422 0.120171 0.32939 0.306187 -0.23801 -0.128335 0.142093 -0.194026 0.0472092 0.22202 -0.109837 0.0309557 0.0759446 -0.101796 0.120023 -0.227638 0.247477 -0.0570722 0.269015 -0.059075
internal_weight=48000 13419 34581 7986 5433 16200 5041 4984 18381 3299 148 2945 3451 2584 2134 4836 2364 1111 3960 1590 1463 581 434 147 1830 837 1240 11216 96 11042
internal_count=48000 13419 34581 7986 5433 16200 5041 4984 18381 3299 148 2945 3451 2584 2134 4836 2364 1111 3960 1590 1463 581 434 147 1830 837 1240 11216 96 11042
is_linear=0
shrinkage=0.05


Tree=17
num_leaves=31
num_cat=0
split_feature=3 0 0 0 0 0 0 0 17 0 17 0 16 15 3 17 0 0 16 6 17 0 16 16 0 5 16 0 0 4
split_gain=48264 153430 23086 22888.3 12933.1 5973.29 4200.29 3308.92 3111.56 2487.59 2177.54 1670.54 1564.14 1612.73 1404.68 1289.95 1190.64 1189.67 1135.36 1062.4 1057.76 1006.92 1376.71 994.61 986.575 986.462 958.312 862.385 844.673 802.703
threshold=35.226648330688484 128.9701843261719 113.59555816650392 131.9448165893555 149.31474304199222 116.43931579589845 103.8956642150879 150.77449035644534 0.72391527891159069 122.12797927856447 0.82418853044509899 100.2039031982422 0.27533885836601263 0.033775480464100845 36.032617568969734 0.4519352018833161 184.18233489990237 159.28138732910159 0.18796785920858386 25.22796726226807 0.65780952572822582 176.25382995605472 0.0061612972058355817 0.20462092757225039 134.999137878418 91.269721984863295 0.29131433367729193 123.07004547119142 160.15583038330081 5.7820487022399911
decision_type=2 2 2 2 2 2 2 2 2 2 2 2 2 2 2 2 2 2 2 2 2 2 2 2 2 2 2 2 2 2
left_child=1 2 6 5 8 11 23 -5 19 29 18 -2 13 -10 17 -8 -16 -9 -6 20 -3 22 -12 -1 -21 -17 -14 -7 -20 -4
right_child=3 4 9 7 10 27 15 14 12 -11 21 -13 26 -15 16 25 -18 -19 28 24 -22 -23 -24 -25 -26 -27 -28 -29 -30 -31
leaf_value=-0.26995128907844673 0.080236195594535514 0.088550316549553476 -0.05263328819333124 -0.076826483333064147 0.29527840168573533 -0.011857904433299923 0.2469152485083671 -0.12353796706819103 -0.075182247424623538 0.043415326549139599 -0.025722517562528382 0.018160210279589997 -0.073143054062138516 0.23361391831255071 -0.14087033735810597 -0.014933458769506575 -0.308515718088399 0.30366376463869282 0.1223260655480114 0.012161356138161583 0.20898081846109548 0.41370310716371633 0.33410837996037657 -0.18294446507521853 0.13029366088351288 -0.15065515277895136 0.15101763863427051 -0.036920124975365023 0.28522887821205872 0.076783892968243922
leaf_weight=1209 1245 291 1663 8300 636 6474 22 33 43 1535 27 8371 57 2317 2329 148 111 32 217 308 490 440 1568 453 415 1414 289 7308 126 129
leaf_count=1209 1245 291 1663 8300 636 6474 22 33 43 1535 27 8371 57 2317 2329 148 111 32 217 308 490 440 1568 453 415 1414 289 7308 126 129
internal_value=2.49555e-06 0.0789429 -0.0958553 -0.0318409 0.237989 -0.00404551 -0.19072 -0.0920303 0.181372 -0.00329559 0.317061 0.0261986 0.213423 0.227982 -0.142399 -0.132439 -0.148511 0.0868433 0.255705 0.123692 0.164132 0.346562 0.328013 -0.246252 0.0799845 -0.1378 0.114065 -0.0251479 0.182248 -0.0433104
internal_weight=48000 13797 6573 34203 7224 23398 3246 10805 4210 3327 3014 9616 2706 2360 2505 1584 2440 65 979 1504 781 2035 1595 1662 723 1562 346 13782 343 1792
internal_count=48000 13797 6573 34203 7224 23398 3246 10805 4210 3327 3014 9616 2706 2360 2505 1584 2440 65 979 1504 781 2035 1595 1662 723 1562 346 13782 343 1792
is_linear=0
shrinkage=0.05


Tree=18
num_leaves=31
num_cat=0
split_feature=3 0 0 0 0 0 0 0 17 17 1 1 0 0 15 2 0 3 2 17 0 16 15 3 1 0 17 16 15 19
split_gain=43561.4 136893 21016.5 20726.5 12044.4 5720.14 4225.48 3017.96 2580.31 2171.99 2631.14 1864.93 1791.37 1757.25 1688.5 1674.68 1393.28 1359.04 1357.5 1193.94 1096.38 1003.45 1463.17 946.945 945.021 921.139 1744.74 863.637 780.035 1216.62
threshold=35.612251281738288 128.9701843261719 132.83071136474612 114.53073120117189 145.75666046142581 115.06840133666994 103.8956642150879 155.55946350097659 0.82418853044509899 0.72391527891159069 65.679515838623061 56.420562744140632 122.12797927856447 167.35779571533206 0.035197077319026 233.86307525634768 98.688899993896499 4.5911293029785165 145.24497985839847 0.59408840537071239 122.7896194458008 0.20114284753799441 0.17418119311332705 3.3071092367172246 43.065374374389656 90.906330108642592 0.42990279197692877 0.18796785920858386 0.38717223703861242 0.20729079842567447
decision_type=2 2 2 2 2 2 2 2 2 2 2 2 2 2 2 2 2 2 2 2 2 2 2 2 2 2 2 2 2 2
left_child=1 3 5 6 9 16 25 -4 19 21 14 18 -5 -13 -11 23 -2 -12 -10 -6 -7 24 -23 -8 -3 -1 -27 -21 29 -9
right_child=2 4 7 12 8 20 15 28 11 10 17 13 -14 -15 -16 -17 -18 -19 -20 27 -22 22 -24 -25 -26 26 -28 -29 -30 -31
leaf_value=-0.29303880950459743 0.083497991097547922 0.21061531601194075 -0.078738451639465634 -0.034173495676721677 -0.15006314824469646 -0.0088832289765649868 0.091493467989681665 -0.14362874880510026 0.1752598387644381 -0.020095418655916995 0.29778816499702415 0.19490221783541173 0.040704391461884211 0.34721073912004496 0.21407363533072732 0.23167066329195421 0.0209092452534256 -0.068311618971702931 0.36441841650935614 0.26694845259467076 -0.03549921751105032 -0.024038020421483279 0.19529602297909565 -0.13347163703284032 0.10504332879660785 0.10756338618855013 -0.22001801579133279 0.18135861225528538 -0.16072475737283443 0.24385689983797226
leaf_weight=443 1012 299 8505 1640 20 7379 48 58 102 80 31 466 1557 320 2003 33 7327 137 1429 886 8136 262 107 1710 731 42 1196 444 1566 31
leaf_count=443 1012 299 8505 1640 20 7379 48 58 102 80 31 466 1557 320 2003 33 7327 137 1429 886 8136 262 107 1710 731 42 1196 444 1566 31
internal_value=2.53764e-06 0.0742841 -0.0305408 -0.0895658 0.223623 -0.00489048 -0.174147 -0.0907624 0.287627 0.159313 0.189726 0.319661 0.00229203 0.256953 0.205077 -0.120692 0.0285064 -0.000590785 0.351832 0.232626 -0.022841 0.110366 0.039585 -0.127322 0.135712 -0.231087 -0.208893 0.238395 -0.152542 -0.00848351
internal_weight=48000 13986 34014 6669 7317 23854 3472 10160 3667 3650 2251 2317 3197 786 2083 1791 8339 168 1531 1350 15515 1399 369 1758 1030 1681 1238 1330 1655 89
internal_count=48000 13986 34014 6669 7317 23854 3472 10160 3667 3650 2251 2317 3197 786 2083 1791 8339 168 1531 1350 15515 1399 369 1758 1030 1681 1238 1330 1655 89
is_linear=0
shrinkage=0.05


Tree=19
num_leaves=31
num_cat=0
split_feature=18 0 0 0 0 0 0 0 0 15 6 1 7 16 0 4 1 16 0 1 15 4 1 6 3 0 0 4 2 4
split_gain=39490.2 124722 17434.7 14997.8 13853.1 4368.72 2698.92 2599.37 2535.75 2518.89 2382.55 2180.76 1935.12 1850.89 1731.03 1721.84 1539.55 1543.43 1263.69 1146.55 1133.77 1046.37 1023.97 952.56 946.525 927.472 909.518 863.661 856.425 802.337
threshold=3118.393920898438 126.6238250732422 125.38882064819337 108.77907562255861 140.77127075195315 143.0118103027344 108.50764846801759 156.21103668212893 118.21326065063478 0.38012619316577917 23.464257240295414 64.710617065429702 1.0000000180025095e-35 0.23898534476757052 98.688899993896499 5.819014549255372 57.820955276489265 0.13432206213474276 159.28138732910159 53.976444244384773 0.38484580814838415 5.9767754077911386 61.018806457519538 22.406512260437015 35.612251281738288 139.14746093750003 92.514720916748061 5.7257468700408944 221.25904846191409 5.827395200729371
decision_type=2 2 2 2 2 2 2 2 2 2 2 2 2 2 2 2 2 2 2 2 2 2 2 2 2 2 2 2 2 2
left_child=1 3 6 14 12 -4 20 11 27 10 -7 13 23 -6 -1 -13 17 -14 -11 29 -2 22 -9 -3 -12 -18 -22 28 -5 -16
right_child=2 4 5 8 7 9 -8 21 -10 18 24 15 16 -15 19 -17 25 -19 -20 -21 26 -23 -24 -25 -26 -27 -28 -29 -30 -31
leaf_value=-0.24717881894313526 -0.069438091931089879 -0.39395648556765012 -0.048754985693762735 -0.099742167180510155 0.26922042663660489 -0.15909966306299966 -0.0049585579354708056 0.33137267623729477 0.0062542833955351526 -0.097483570979742959 0.31981475728283693 0.057934782695559864 0.18579611770239257 0.15630163750191631 -0.20226703670225957 0.45771805535123189 0.041846902839142421 0.10368679178937015 -0.15730022064637939 -0.094137289349711606 0.11923810262627746 -0.028498851943325687 0.24716514225542557 0.052293192126632276 0.028895344966795383 0.22626876221865844 0.039543470748738131 0.014962093635935786 0.075631056435497945 0.074291021885467198
leaf_weight=1023 217 26 11216 1459 1792 69 14421 1457 1812 3628 74 257 1289 456 836 30 591 1031 1168 437 401 23 483 22 45 77 3342 218 73 27
leaf_count=1023 217 26 11216 1459 1792 69 14421 1457 1812 3628 74 257 1289 456 836 30 591 1031 1168 437 401 23 483 22 45 77 3342 218 73 27
internal_value=2.63999e-06 0.072806 -0.0282483 -0.0996656 0.207528 -0.0660651 0.00508113 0.263232 -0.0352021 -0.105017 0.0744693 0.229753 0.124993 0.246325 -0.198503 0.0998863 0.130055 0.149315 -0.112055 -0.16018 0.0416428 0.306449 0.310424 -0.189638 0.209962 0.0631433 0.0480857 -0.0781281 -0.091378 -0.193601
internal_weight=48000 13419 34581 5885 7534 16200 18381 4498 3562 4984 188 2535 3036 2248 2323 287 2988 2320 4796 1300 3960 1963 1940 48 119 668 3743 1750 1532 863
internal_count=48000 13419 34581 5885 7534 16200 18381 4498 3562 4984 188 2535 3036 2248 2323 287 2988 2320 4796 1300 3960 1963 1940 48 119 668 3743 1750 1532 863
is_linear=0
shrinkage=0.05


Tree=20
num_leaves=31
num_cat=0
split_feature=18 17 17 17 17 19 17 17 19 17 15 19 16 5 19 3 16 5 16 1 1 19 4 16 17 4 17 4 15 6
split_gain=35640.3 82287.2 10897.2 10159.3 8512.29 2258.52 2201.1 2130.62 2096.66 2079.61 2077.64 1940.46 1705.61 1663.66 1721.36 1555.76 1507.49 1494.53 1439.41 1403.14 1279.21 1110.4 1071.41 1152.62 1067.94 1030.25 974.227 972.409 881.773 2660.45
threshold=3118.393920898438 0.69130158424377453 0.83364188671112072 0.72600892186164867 0.59408840537071239 0.20526327192783358 0.76699870824813854 0.61956655979156505 0.21233663707971576 0.88919621706008922 0.3777767568826676 0.20021684467792514 0.0077583431266248235 91.973339080810561 0.1929804012179375 3.3071092367172246 0.14678561687469485 94.569637298583999 0.39159327745437628 30.263685226440433 57.175327301025398 0.22050257772207263 5.2261967658996591 0.23668573796749118 0.61366513371467601 5.7296366691589364 0.40035638213157659 5.1538591384887704 0.38215349614620214 26.504749298095707
decision_type=2 2 2 2 2 2 2 2 2 2 2 2 2 2 2 2 2 2 2 2 2 2 2 2 2 2 2 2 2 2
left_child=1 4 6 7 8 13 11 -2 18 28 -11 19 17 14 -6 -8 -13 -4 -1 -3 25 -22 -7 -24 -15 -14 -10 -17 29 -5
right_child=3 2 12 9 5 22 15 -9 26 10 -12 16 20 24 -16 27 -18 -19 -20 -21 21 -23 23 -25 -26 -27 -28 -29 -30 -31
leaf_value=-0.16232114102395667 0.020321994190639462 -0.20033220120699974 0.24633368446002249 -0.026048416620077272 0.03493707590829772 0.43872200082734703 -0.099212842453235417 -0.014882190464050683 -0.18997302425141568 0.16347967699999139 -0.11320668105783865 0.20353365614626473 0.2911562948437722 -0.12114749405867808 0.48725288673493661 -0.07536435001943953 0.082072115669155676 -0.15430769698535579 0.054796772655547055 0.071338644758883338 0.17960140058162188 0.32692367896905394 0.11848204280424929 -0.13256482548061449 -0.031871209190692779 0.18714371239620375 -0.0011910045813841549 0.18339554791282045 -0.053362100729387185 0.41313634217528628
leaf_weight=2200 6144 49 45 246 438 22 52 14303 84 70 2112 592 1869 405 22 37 450 48 79 1482 717 156 295 54 1938 274 365 1746 11666 40
leaf_count=2200 6144 49 45 246 438 22 52 14303 84 70 2112 592 1869 405 22 37 450 48 79 1482 717 156 295 54 1938 274 365 1746 11666 40
internal_value=2.66476e-06 0.0691663 0.178877 -0.0268359 -0.0705654 -0.0148937 0.128311 -0.0043036 -0.135334 -0.0594318 -0.104321 0.098462 0.250562 -0.0302405 0.0566816 0.170155 0.151097 0.0395537 -0.154791 0.062628 0.257066 0.205967 0.101019 0.0795969 -0.0473097 0.277869 -0.0365544 0.178019 -0.0512355 0.0354815
internal_weight=48000 13419 7517 34581 5902 3174 4408 20447 2728 14134 2182 2573 3109 2803 460 1835 1042 93 2279 1531 3016 873 371 349 2343 2143 449 1783 11952 286
internal_count=48000 13419 7517 34581 5902 3174 4408 20447 2728 14134 2182 2573 3109 2803 460 1835 1042 93 2279 1531 3016 873 371 349 2343 2143 449 1783 11952 286
is_linear=0
shrinkage=0.05


Tree=21
num_leaves=31
num_cat=0
split_feature=18 0 0 0 0 0 17 3 0 19 0 0 1 6 1 6 6 1 6 17 3 0 0 7 17 0 16 4 17 19
split_gain=32165.9 104975 15042.6 14658.2 10282.5 4311.67 3106.7 2590.45 2397.96 1777.39 1572.52 1450.58 1498.83 1371.24 1303.64 1217.68 1269.19 1201.12 1194.09 1173.73 1155.82 1201.71 1106.16 1208.8 1121.54 1057.12 1170.21 937.323 929.822 889.218
threshold=3118.393920898438 124.56318664550783 133.68663024902347 138.1386413574219 107.61433410644533 117.58113098144533 0.77935934066772472 36.032617568969734 155.55946350097659 0.20148194581270221 115.91330718994142 167.35779571533206 64.710617065429702 27.553804397583011 74.532855987548842 26.45306491851807 27.355415344238285 60.729465484619148 25.948001861572269 0.50997447967529308 34.51831245422364 103.48122024536134 134.999137878418 1.0000000180025095e-35 0.86698728799819957 98.688899993896499 0.2065737992525101 5.7762746810913095 1.0088521838188174 0.19747830182313922
decision_type=2 2 2 2 2 2 2 2 2 2 2 2 2 2 2 2 2 2 2 2 2 2 2 2 2 2 2 2 2 2
left_child=1 4 5 9 14 20 17 13 -9 22 19 12 -8 28 25 18 -17 -5 -11 -6 -2 -22 23 -3 -24 -1 -27 -19 -4 -13
right_child=2 3 7 6 10 -7 11 8 -10 15 -12 29 -14 -15 -16 16 -18 27 -20 -21 21 -23 24 -25 -26 26 -28 -29 -30 -31
leaf_value=-0.23403015645583713 -0.2014849948600666 -0.23826547603765538 0.00095279602869319528 0.19806545180528135 0.081720819034682479 -0.023069316505905473 0.25429570381993849 -0.0714057088001918 -0.13812872053666217 0.030819080390732195 -0.017692039286541561 0.15843362764667507 0.13408211254705721 0.38090149217454838 0.024329681791548447 -0.26211509331327287 0.031695579158805519 0.060022056498062151 0.32748018300758219 -0.099053108713130944 0.054951439631606515 0.012176915876405965 0.20541897791695607 0.098166972106401892 0.0023195365192682556 -0.19190171598818684 -0.070744786937371948 0.29571311093275027 0.32298820548037771 0.33188444688150365
leaf_weight=984 59 27 321 1240 96 13934 2291 7845 1626 397 1836 82 293 29 69 71 76 301 37 1367 2023 8720 454 1803 80 817 264 49 24 785
leaf_count=984 59 27 321 1240 96 13934 2291 7845 1626 397 1836 82 293 29 69 71 76 301 37 1367 2023 8720 454 1803 80 817 264 49 24 785
internal_value=2.7633e-06 0.0657087 -0.0254941 0.181055 -0.10384 -0.00468937 0.232832 -0.0777658 -0.0828627 0.0924223 -0.0485122 0.259483 0.240672 0.0512809 -0.189363 0.0140568 -0.110261 0.174972 0.0561916 -0.0871828 0.0190193 0.0202326 0.111679 0.0931877 0.175008 -0.196507 -0.162327 0.0931081 0.0234568 0.315506
internal_weight=48000 13419 34581 7986 5433 24736 5041 9845 9471 2945 3299 3451 2584 374 2134 581 147 1590 434 1463 10802 10743 2364 1830 534 2065 1081 350 345 867
internal_count=48000 13419 34581 7986 5433 24736 5041 9845 9471 2945 3299 3451 2584 374 2134 581 147 1590 434 1463 10802 10743 2364 1830 534 2065 1081 350 345 867
is_linear=0
shrinkage=0.05


Tree=22
num_leaves=31
num_cat=0
split_feature=18 0 0 0 0 0 0 0 17 1 0 17 1 0 15 19 15 0 6 6 6 19 16 16 2 15 2 1 16 2
split_gain=29030.2 95056 14257.5 14062.2 8069.35 2905.99 2829.61 2244.65 1993.19 2153.21 1779.49 1464.82 1537.41 1423.99 1384.28 1739.96 1327.97 1216.98 1114.84 1278.46 1100.57 1107.3 1009.18 1097.31 979.625 933.895 929.145 1278.2 856.23 840.125
threshold=3207.105102539063 128.9701843261719 112.35521697998048 128.39597320556643 149.31474304199222 113.38238906860353 144.6553649902344 101.89109802246095 0.72499167919158947 65.679515838623061 121.96797561645509 0.81952571868896495 56.420562744140632 167.35779571533206 0.38717223703861242 0.21381787210702899 0.033775480464100845 176.25382995605472 27.639705657958988 26.274580955505375 28.01485633850098 0.2011438384652138 0.18796785920858386 0.19769901037216189 192.91605377197268 0.048930708318948753 199.68442535400393 63.786769866943366 0.021551186218857769 191.8019714355469
decision_type=2 2 2 2 2 2 2 2 2 2 2 2 2 2 2 2 2 2 2 2 2 2 2 2 2 2 2 2 2 2
left_child=1 2 7 5 8 -2 -5 29 -3 16 20 22 -13 -14 15 -8 -10 -16 19 -12 -4 -22 24 -24 -6 -11 -9 -28 -20 -1
right_child=3 4 10 6 11 -7 14 26 9 25 18 12 13 -15 17 -17 -18 -19 28 -21 21 -23 23 -25 -26 -27 27 -29 -30 -31
leaf_value=-0.23527075017675028 0.02744325011525281 0.096340382913096739 -0.053504876103927179 -0.048473948335996921 0.068445243475941581 -0.012023164663227422 -0.030764214472542729 -0.13802290751705534 -0.070610468716537422 0.22710324815880065 0.026287519815042872 0.30567499968329698 0.15062395094356362 0.29276581560941695 -0.098004724011559713 0.39077503439245187 0.18703981436755943 -0.21343882392826813 -0.35883817970430182 0.1553016250747716 0.01190180893462698 0.30387404073503549 -0.18352471681961158 0.15445664149743998 0.26055033152663598 -0.039090017273277496 -0.085927092879818381 0.17955037030459797 -0.037887860019187813 -0.15388301835783799
leaf_weight=850 7043 1493 1737 9216 76 13809 253 1250 51 41 1091 1338 392 321 3801 27 2397 243 23 233 171 40 26 301 532 166 310 53 208 508
leaf_count=850 7043 1493 1737 9216 76 13809 253 1250 51 41 1091 1338 392 321 3801 27 2397 243 23 233 171 40 26 301 532 166 310 53 208 508
internal_value=2.81883e-06 0.0618193 -0.0769007 -0.0244563 0.187706 0.00130689 -0.0641325 -0.157469 0.142579 0.168574 -0.00856444 0.250385 0.274048 0.214657 -0.0975033 0.00999136 0.181667 -0.104947 0.0313192 0.0490055 -0.0404043 0.0673934 0.198449 0.12752 0.236561 0.0136943 -0.117571 -0.0471134 -0.070007 -0.204843
internal_weight=48000 13608 6474 34392 7134 20852 13540 2971 4148 2655 3503 2986 2051 713 4324 280 2448 4044 1555 1324 1948 211 935 327 608 207 1613 363 231 1358
internal_count=48000 13608 6474 34392 7134 20852 13540 2971 4148 2655 3503 2986 2051 713 4324 280 2448 4044 1555 1324 1948 211 935 327 608 207 1613 363 231 1358
is_linear=0
shrinkage=0.05


Tree=23
num_leaves=31
num_cat=0
split_feature=18 0 0 0 0 0 17 3 0 19 6 0 0 1 16 16 0 16 17 4 19 19 3 0 15 1 1 0 19 6
split_gain=26221.6 85677.1 12430.6 12219.2 8458.5 3699.39 2560.23 1960.16 1731.01 1664.08 1633.14 1576.3 1245.14 1243.25 1181.46 1158.42 1219.65 1102.5 1097.14 1149.56 1073.82 1011.35 1008.9 1002.61 1059.52 987.3 942.94 932.446 896.576 897.819
threshold=3118.393920898438 124.56318664550783 134.31805419921878 137.66825103759768 106.28929901123048 118.05710220336915 0.77935934066772472 35.612251281738288 155.55946350097659 0.20148194581270221 23.491864204406742 115.06840133666994 156.98744201660159 47.969350814819343 0.36811815202236181 0.041174504905939109 127.1514358520508 0.20462092757225039 0.50997447967529308 5.5019717216491708 0.19634986668825152 0.2058333829045296 10.20223379135132 105.15714263916017 0.38484580814838415 60.729465484619148 42.486427307128913 133.68663024902347 0.19217566400766375 24.32630825042725
decision_type=2 2 2 2 2 2 2 2 2 2 2 2 2 2 2 2 2 2 2 2 2 2 2 2 2 2 2 2 2 2
left_child=1 4 5 9 17 23 25 10 -9 14 26 18 21 -14 27 16 -11 -1 19 -6 -12 -8 -17 24 -2 -5 -4 -3 -13 -30
right_child=2 3 7 6 11 -7 12 8 -10 15 20 28 13 -15 -16 22 -18 -19 -20 -21 -22 -23 -24 -25 -26 -27 -28 -29 29 -31
leaf_value=-0.20084472170373849 -0.079760614587114698 0.085055368305966383 0.18422720872960385 0.17860692955771051 0.2706747165060383 -0.021934643026925771 0.21427015945010852 -0.065335533186997807 -0.12179707472190837 -0.17187014439659662 0.041818938170639613 -0.076815320051263458 0.32322594078478856 0.23238921875933941 -0.071393235471295294 -0.081161174902465508 0.25973534663137759 -0.11531174822808632 -0.098700434607815704 -0.061674737978436714 0.31885586412766398 0.044997368096729107 0.074605745100997961 0.0084984192443570677 0.052275286258548104 0.085003660143461612 -0.20429406871216471 0.15591433314686207 0.052942010157543934 -0.027780162289992173
leaf_weight=1412 162 1511 21 1291 42 13875 1775 7562 1655 21 71 500 597 1029 97 311 73 515 1380 68 69 93 156 8686 2420 361 60 671 529 987
leaf_count=1412 162 1511 21 1291 42 13875 1775 7562 1655 21 71 500 597 1029 97 311 73 515 1380 68 69 93 156 8686 2420 361 60 671 529 987
internal_value=2.79046e-06 0.0593277 -0.0230179 0.163534 -0.0938454 -0.00465098 0.209481 -0.0719467 -0.0754755 0.0802739 0.0751714 -0.047589 0.233738 0.265762 0.0992624 0.00312228 0.16318 -0.177995 -0.0865855 0.0653075 0.178524 0.205848 -0.0291121 0.0166311 0.0439864 0.158162 -0.103402 0.106854 -0.0187617 0.000385739
internal_weight=48000 13419 34581 7986 5433 25143 5146 9438 9217 2840 221 3506 3494 1626 2279 561 94 1927 1490 110 140 1868 467 11268 2582 1652 81 2182 2016 1516
internal_count=48000 13419 34581 7986 5433 25143 5146 9438 9217 2840 221 3506 3494 1626 2279 561 94 1927 1490 110 140 1868 467 11268 2582 1652 81 2182 2016 1516
is_linear=0
shrinkage=0.05


Tree=24
num_leaves=31
num_cat=0
split_feature=3 0 0 0 0 0 0 0 0 16 0 6 1 17 1 0 4 2 6 19 0 5 19 6 6 16 2 6 0 1
split_gain=23625.3 77230.4 12322.1 11847.8 7005.65 3275 2155.44 1856.6 1746.32 1499.65 1326.96 1259.52 1258.43 1257.18 1392.6 1301.61 1216.2 1081.77 1012.67 1095.83 998.682 975.027 941.824 920.083 1195.13 911.605 880.849 783.088 754.914 736.359
threshold=35.612251281738288 128.9701843261719 132.15922546386722 112.98622512817384 149.31474304199222 114.1837844848633 98.688899993896499 150.2350769042969 137.88933563232425 0.36811815202236181 121.96797561645509 22.254983901977543 64.710617065429702 0.81952571868896495 56.420562744140632 167.35779571533206 5.8102204799652108 199.68442535400393 28.01485633850098 0.2011438384652138 92.514720916748061 92.088325500488295 0.18541917204856875 27.639705657958988 26.274580955505375 0.18796785920858386 217.33248138427737 27.920038223266605 121.96797561645509 43.863895416259773
decision_type=2 2 2 2 2 2 2 2 2 2 2 2 2 2 2 2 2 2 2 2 2 2 2 2 2 2 2 2 2 2
left_child=1 3 5 6 8 20 -1 -4 9 11 18 -3 26 22 -15 -16 -14 -8 -5 -20 -2 -19 29 24 -12 -24 -10 -25 -7 -6
right_child=2 4 7 10 13 28 17 -9 12 -11 23 -13 16 14 15 -17 -18 21 19 -21 -22 -23 25 27 -26 -27 -28 -29 -30 -31
leaf_value=-0.19605516693509001 0.10069828227333139 -0.0087344874177877688 -0.055300332338434614 -0.045309844201398143 0.60429756200709051 -0.0035083408460232094 -0.12808133808689615 -0.10391702829433783 0.17919265499730841 -0.10723495429317642 0.023163019962732651 0.11605652393595274 0.0065366101350665153 0.27657351095220351 0.13068251466732986 0.26538076194411847 0.35127894272099658 0.10990367518796325 0.01809781986012575 0.32460542253510116 0.020461290939998628 -0.076075324637700656 0.20134386182866418 -0.25741818557159352 0.14669631791298321 0.095162155636459037 0.059150270799332084 -0.019798775485049103 -0.025367059050459592 0.24352914286849181
leaf_weight=1067 410 229 7975 1697 21 7405 1642 2606 1832 90 1125 1722 212 1360 403 324 29 86 152 36 7151 388 570 42 237 314 167 197 8467 44
leaf_count=1067 410 229 7975 1697 21 7405 1642 2606 1832 90 1125 1722 212 1360 403 324 29 86 152 36 7151 388 570 42 237 314 167 197 8467 44
internal_value=2.78467e-06 0.0547068 -0.0224906 -0.0683625 0.166877 -0.00226786 -0.138104 -0.0672755 0.125669 0.0921993 -0.00467905 0.101407 0.156157 0.224977 0.24669 0.190748 0.0481694 -0.108872 -0.0331093 0.0769587 0.0248141 -0.0423057 0.177201 0.0287913 0.0446718 0.163648 0.16917 -0.0616673 -0.0151694 0.360911
internal_weight=48000 13986 34014 6669 7317 23433 3183 10581 4281 2041 3486 1951 2240 3036 2087 727 241 2116 1885 188 7561 474 949 1601 1362 884 1999 239 15872 65
internal_count=48000 13986 34014 6669 7317 23433 3183 10581 4281 2041 3486 1951 2240 3036 2087 727 241 2116 1885 188 7561 474 949 1601 1362 884 1999 239 15872 65
is_linear=0
shrinkage=0.05


Tree=25
num_leaves=31
num_cat=0
split_feature=15 0 0 0 0 0 3 0 0 7 0 1 2 0 2 6 15 0 6 15 19 0 2 19 2 19 0 4 0 4
split_gain=21371 69576 9892.35 8764.72 7688 2498.83 2984.05 1652.67 1535.77 1524.44 1438.63 1737.17 1458 1311.15 1303.26 1160.44 1088.59 1019.3 931.079 930.679 897.665 897.007 1041.89 895.306 883.733 877.457 851.967 793.723 754.068 734.697
threshold=0.3415773361921311 125.38882064819337 125.23162841796876 140.77127075195315 108.77907562255861 138.65995025634768 36.032617568969734 165.85640716552737 108.50764846801759 1.0000000180025095e-35 167.35779571533206 64.710617065429702 217.33248138427737 164.61104583740237 200.06618499755862 21.119766235351566 0.38484580814838415 118.21326065063478 23.616908073425297 0.048930708318948753 0.19201678037643435 133.68663024902347 176.37805175781253 0.22746085375547412 201.86420440673831 0.25534293055534368 95.194065093994155 5.819014549255372 85.884571075439467 5.5338778495788583
decision_type=2 2 2 2 2 2 2 2 2 2 2 2 2 2 2 2 2 2 2 2 2 2 2 2 2 2 2 2 2 2
left_child=1 4 8 9 14 -4 7 18 16 -3 11 12 -5 -8 26 -13 -2 -6 -7 -12 -21 22 -11 -19 -16 -26 -1 -28 -18 -23
right_child=2 3 5 10 17 6 13 -9 -10 21 19 15 -14 -15 24 -17 28 23 -20 20 -22 29 -24 -25 25 -27 27 -29 -30 -31
leaf_value=-0.22868143406086716 -0.067041205242563739 -0.17687240205915636 -0.031912880607378798 0.20675733414166975 -0.058237452215256981 -0.084132007762293473 -0.07106990986343513 0.36916423006359383 -0.002962571029124581 0.11483344692400435 0.36164540289019598 0.42789356860629751 0.088688040615695019 -0.14265141933969402 0.14208048622209832 0.071134532360420041 0.15768167564427549 -0.0069769807683147389 0.097026175214547594 -0.048369805732231541 0.23972904830658315 0.15644286751398614 0.035762975137816698 0.30020270683953376 -0.11570653482244253 0.21373866751295695 -0.15791031605018924 0.071018094556106012 0.034684849508414439 0.085954316405301878
leaf_weight=489 259 53 9430 2782 1720 111 5952 41 14320 713 161 24 289 717 40 425 129 1506 196 28 741 752 1003 24 480 21 1211 39 3615 729
leaf_count=489 259 53 9430 2782 1720 111 5952 41 14320 713 161 24 289 717 40 425 129 1506 196 28 741 752 1003 24 480 21 1211 39 3615 729
internal_value=2.91045e-06 0.0540887 -0.0205767 0.151259 -0.0812114 -0.0487262 -0.0713198 0.0713945 0.00469059 0.088831 0.196849 0.182218 0.195651 -0.0787686 -0.151596 0.0903062 0.032069 -0.031829 0.0315036 0.252193 0.229228 0.0932428 0.0686245 -0.0021359 -0.0837801 -0.101848 -0.172685 -0.150759 0.0389282 0.121757
internal_weight=48000 13230 34770 7700 5530 16447 7017 348 18323 3250 4450 3520 3071 6669 2280 449 4003 3250 307 930 769 3197 1716 1530 541 501 1739 1250 3744 1481
internal_count=48000 13230 34770 7700 5530 16447 7017 348 18323 3250 4450 3520 3071 6669 2280 449 4003 3250 307 930 769 3197 1716 1530 541 501 1739 1250 3744 1481
is_linear=0
shrinkage=0.05


Tree=26
num_leaves=31
num_cat=0
split_feature=18 0 0 0 0 0 0 3 0 6 1 2 3 0 1 17 4 4 17 4 3 1 1 2 17 3 1 0 3 3
split_gain=19313.9 63300.8 9326.3 9019.99 6357.35 2934.08 2025.88 1530.4 1397.44 1258.77 1593.19 1228.55 1230.38 1142.63 1139.26 1102.72 1088.43 999.865 951.343 1033.55 948.045 1114.02 916.497 1057.81 913.739 826.577 815.428 802.795 771.387 704.759
threshold=3118.393920898438 124.56318664550783 135.22769165039065 137.66825103759768 106.28929901123048 118.05710220336915 150.77449035644534 36.179405212402351 164.61104583740237 25.164622306823734 58.028835296630866 206.70357513427737 3.3071092367172246 115.06840133666994 64.710617065429702 0.99423611164093029 5.8102204799652108 5.9767754077911386 0.50997447967529308 5.5019717216491708 7.0942771434783944 47.878208160400398 74.532855987548842 219.85069274902347 0.75338983535766613 3.3071092367172246 32.202695846557624 99.472564697265639 45.534809112548835 35.846841812133796
decision_type=2 2 2 2 2 2 2 2 2 2 2 2 2 2 2 2 2 2 2 2 2 2 2 2 2 2 2 2 2 2
left_child=1 4 5 11 22 27 14 9 28 -4 -11 12 -3 18 26 -14 -16 24 19 -6 -13 -22 -1 -24 -8 -20 -5 29 -9 -2
right_child=2 3 7 6 13 -7 17 8 -10 10 -12 20 15 -15 16 -17 -18 -19 25 -21 21 -23 23 -25 -26 -27 -28 -29 -30 -31
leaf_value=-0.16018993350324451 -0.11604942632213928 -0.1029223983988391 -0.035428371124370368 0.044988353088888128 0.26232079729048485 -0.019417784672167693 0.13926813963044682 -0.063766620832278118 -0.13569083373766158 0.067458526742994337 0.48586792145123259 -0.10142549567766122 0.092903404975617818 -0.016096628364034665 0.013879715415744169 -0.26196445685166581 0.33786172564701528 -0.092781532943468692 0.15097498777335372 -0.052811511677092228 0.18784353877798785 -0.029176433356320766 -0.10737020807493554 0.32152995871847839 0.22416497162411844 -0.09146265989555008 0.16706840689179719 0.010072853761737319 0.11315390560746003 0.062546607828409609
leaf_weight=1861 58 86 262 147 42 14432 368 7700 709 120 28 169 2310 2016 238 22 29 27 36 68 94 159 45 21 2329 1344 2008 10092 62 1118
leaf_count=1861 58 86 262 147 42 14432 368 7700 709 120 28 169 2310 2016 238 22 29 27 36 68 94 159 45 21 2329 1344 2008 10092 62 1118
internal_value=2.99233e-06 0.0509176 -0.0197541 0.140489 -0.0807426 -0.00448976 0.179965 -0.0639253 -0.0684918 0.0304045 0.146925 0.0689529 0.082691 -0.0406406 0.146674 0.0895424 0.0492008 0.209556 -0.0738424 0.0675953 -0.00975348 0.0514781 -0.153696 0.0293024 0.212588 -0.0851241 0.158746 0.0146295 -0.0623514 0.0537249
internal_weight=48000 13419 34581 7986 5433 25700 5146 8881 8471 410 148 2840 2418 3506 2422 2332 267 2724 1490 110 422 253 1927 66 2697 1380 2155 11268 7762 1176
internal_count=48000 13419 34581 7986 5433 25700 5146 8881 8471 410 148 2840 2418 3506 2422 2332 267 2724 1490 110 422 253 1927 66 2697 1380 2155 11268 7762 1176
is_linear=0
shrinkage=0.05


Tree=27
num_leaves=31
num_cat=0
split_feature=15 14 14 14 14 14 14 16 14 17 2 7 17 15 2 1 16 17 3 14 19 17 14 3 6 1 1 16 14 18
split_gain=17451 56670.8 9326.71 8796.89 5226.14 2780.28 2027.12 1467.22 1444.45 1361.44 1220.21 1129.32 1055.61 1042.13 1013.21 903.944 1263.85 798.023 780.515 770.471 763.953 1631.35 742.138 881.667 728.748 1040.28 990.346 725.361 1490.48 719.129
threshold=0.38012619316577917 128.9701843261719 123.87515258789064 114.53073120117189 145.75666046142581 143.64948272705081 103.8956642150879 0.16516619920730594 107.25608062744142 0.75338983535766613 233.86307525634768 1.0000000180025095e-35 0.64954701066017162 0.035197077319026 182.50910949707034 48.312019348144538 0.45312002301216131 0.59408840537071239 3.3071092367172246 123.22094345092775 0.2058333829045296 0.89324313402175914 184.18233489990237 37.306352615356452 28.65103912353516 46.434709548950202 42.486427307128913 0.39159327745437628 95.194065093994155 1923.036560058594
decision_type=2 2 2 2 2 2 2 2 2 2 2 2 2 2 2 2 2 2 2 2 2 2 2 2 2 2 2 2 2 2
left_child=1 3 8 6 7 -4 27 11 -2 17 18 -3 -13 -9 -15 16 -11 -6 -8 24 21 -21 -7 -24 26 -26 -5 -1 -29 -22
right_child=2 4 5 19 9 22 10 13 -10 15 -12 12 -14 14 -16 -17 -18 -19 -20 20 29 -23 23 -25 25 -27 -28 28 -30 -31
leaf_value=-0.15852049000317844 0.03685550225658854 -0.15421348914627886 -0.033296224903318662 -0.08640227056279931 -0.19205997879084069 -0.075656559500682383 0.11696079725906904 -0.18425536006343338 -0.0001716056484658784 0.23704375906208075 0.22462740706172957 0.036003755314556261 0.13975047289783235 0.11071318266470653 0.02113345356755331 0.17497241469086208 -0.12867058342423182 0.12804031591400436 -0.087198446074676209 0.035994761651992731 -0.033236999158377696 0.47967554217831215 0.078180745769949517 -0.27403045297323286 0.2524750183818929 -0.044233710089459789 -0.0037150492258481993 -0.20996177796481993 0.27718643392484216 -0.35729682184570466
leaf_weight=1633 3278 36 12589 500 20 4443 48 43 13402 1256 33 278 2091 629 634 1774 24 624 1747 1154 116 21 22 91 58 60 1313 34 29 20
leaf_count=1633 3278 36 12589 500 20 4443 48 43 13402 1256 33 278 2091 629 634 1774 24 624 1747 1154 116 21 22 91 58 60 1313 34 29 20
internal_value=2.97748e-06 0.0465741 -0.0195135 -0.0580419 0.142111 -0.0454101 -0.112724 0.100184 0.00710494 0.18418 -0.0761848 0.123354 0.12758 0.0575063 0.0657552 0.198117 0.230173 0.118063 -0.08173 0.00139711 0.0309795 0.0439688 -0.0788802 -0.205406 -0.018685 0.101654 -0.0265253 -0.152098 0.0142857 -0.0811571
internal_weight=48000 14175 33825 6766 7409 17145 3524 3711 16680 3698 1828 2405 2369 1306 1263 3054 1280 644 1795 3242 1311 1175 4556 113 1931 118 1813 1696 63 136
internal_count=48000 14175 33825 6766 7409 17145 3524 3711 16680 3698 1828 2405 2369 1306 1263 3054 1280 644 1795 3242 1311 1175 4556 113 1931 118 1813 1696 63 136
is_linear=0
shrinkage=0.05


Tree=28
num_leaves=31
num_cat=0
split_feature=15 0 0 0 0 0 0 0 16 0 15 6 16 19 0 19 5 13 6 13 0 0 13 0 4 13 6 2 19 1
split_gain=15749.7 51145.3 8516.52 7939.18 4764.06 2247.41 1850.49 1482.57 1361.68 1047.45 1070.09 1042.61 975.799 947.826 925.181 1114.52 919.531 916.252 904.797 1302.76 809.677 765.952 750.932 695.354 762.573 921.781 751.029 890.505 718.464 688.808
threshold=0.38012619316577917 128.9701843261719 131.31214141845706 114.53073120117189 149.31474304199222 114.88436508178712 98.688899993896499 155.55946350097659 0.20287588238716128 138.65995025634768 0.037426948547363288 28.576575279235843 0.1994166970252991 0.22360044717788699 170.92713165283206 0.18738837540149691 92.088325500488295 3.1766827106475835 31.101964950561527 7.5655400753021249 92.514720916748061 142.32175445556643 11.701547622680666 123.22094345092775 5.7417724132537851 27.527901649475101 28.885430335998539 175.85731506347659 0.21000403910875323 69.210140228271499
decision_type=2 2 2 2 2 2 2 2 2 2 2 2 2 2 2 2 2 2 2 2 2 2 2 2 2 2 2 2 2 2
left_child=1 3 5 6 8 20 -1 -4 12 10 -10 14 17 16 15 -6 -8 -3 19 -13 -2 -11 -15 24 29 -26 28 -28 -25 -5
right_child=2 4 7 23 11 -7 13 -9 9 21 -12 18 -14 22 -16 -17 -18 -19 -20 -21 -22 -23 -24 26 25 -27 27 -29 -30 -31
leaf_value=-0.161634540292938 0.088506745607554685 -0.088997182938616304 -0.046889808589850285 -0.034467680101457177 0.26170468181543799 -0.012750079875015773 -0.013394993994383951 -0.098417981282502953 -0.30100062801829125 0.17853555841320154 0.021074946102504714 0.15050258177257242 0.38406412857543687 0.24720655889335894 0.22598160157903779 0.14704825707308156 -0.10083985714612725 0.11854972566935061 -0.0015467238641971917 0.44775655364780076 0.016403322597807631 0.057728815770056278 -0.12462571221293431 0.048462255104169689 0.038129052273597697 0.38827182774860147 0.1046635431686483 -0.2700042300323876 -0.10372072923233651 0.13129882904287493
leaf_weight=1079 410 54 9424 1672 238 14639 353 1639 27 207 533 58 34 38 689 1956 2033 3130 22 102 7713 359 21 1160 173 21 25 43 83 65
leaf_count=1079 410 54 9424 1672 238 14639 353 1639 27 207 533 58 34 38 689 1956 2033 3130 22 102 7713 359 21 1160 173 21 25 43 83 65
internal_value=2.8523e-06 0.0442456 -0.0185378 -0.0551395 0.135006 -0.00104659 -0.107088 -0.0545251 0.101321 0.0539811 0.00548641 0.18274 0.117881 -0.0830082 0.175397 0.1595 -0.0879059 0.115026 0.29888 0.340195 0.0200443 0.101943 0.114788 0.0013274 -0.0177506 0.0762374 0.0294308 -0.132234 0.0382889 -0.0282545
internal_weight=48000 14175 33825 6766 7409 22762 3524 11063 4344 1126 560 3065 3218 2445 2883 2194 2386 3184 182 160 8123 566 59 3242 1931 194 1311 68 1243 1737
internal_count=48000 14175 33825 6766 7409 22762 3524 11063 4344 1126 560 3065 3218 2445 2883 2194 2386 3184 182 160 8123 566 59 3242 1931 194 1311 68 1243 1737
is_linear=0
shrinkage=0.05


Tree=29
num_leaves=31
num_cat=0
split_feature=18 0 0 0 0 0 0 4 1 15 19 17 15 6 0 0 1 4 19 4 1 6 4 1 1 4 0 15 3 17
split_gain=14272.1 47099.4 7447.66 7151.77 3925.71 2245.6 1256.07 1110.95 1143.12 1742.18 1206.51 1048.69 1019.16 1168.06 1160.64 1016.88 932.643 2037.81 889.901 877.488 876.477 1048.48 874.462 978.917 734.174 873.951 712.206 694.716 688.707 660.268
threshold=3118.393920898438 129.71214294433597 112.35521697998048 135.22769165039065 145.75666046142581 119.62570571899415 99.472564697265639 5.2261967658996591 56.798852920532234 0.092096667736768736 0.2012281268835068 0.59408840537071239 0.3860901147127152 27.553804397583011 163.28694152832034 120.71467208862306 68.389644622802749 5.5129668712615976 0.21381787210702899 5.737499713897706 62.058567047119148 28.449642181396488 5.9767754077911386 48.312019348144538 53.976444244384773 5.7296366691589364 105.9679527282715 0.033775480464100845 45.534809112548835 0.52495262026786815
decision_type=2 2 2 2 2 2 2 2 2 2 2 2 2 2 2 2 2 2 2 2 2 2 2 2 2 2 2 2 2 2
left_child=1 2 6 5 7 26 -1 -3 10 -10 -9 -6 13 18 28 16 19 -18 -5 -4 27 -22 23 -13 25 -8 -2 -17 -14 -26
right_child=3 4 15 12 11 -7 24 8 9 -11 -12 22 14 -15 -16 20 17 -19 -20 -21 21 -23 -24 -25 29 -27 -28 -29 -30 -31
leaf_value=-0.15401436670011082 0.033240404350646909 -0.03550810454757599 -0.054852500756158051 -0.027396790135279382 -0.18856787201925296 -0.018374221679464418 -0.12416199478952999 0.13758974403938753 0.13333458576337573 -0.016268052474681279 0.048833094775627063 0.20742103055491606 -0.055266272228351954 0.27178853652869672 -0.11806658331207474 -0.23868755324062332 0.39648714275921093 -0.070405202298689629 0.24928618037049027 0.067977356815102807 -0.035689655389987855 -0.41140093041296621 -0.082170296867808551 0.15375335429050657 0.050224304485139815 0.0077726827109891872 0.0048937531562195345 0.037397080412101193 0.11191744943555811 -0.070863642718462669
leaf_weight=1092 2848 153 1410 443 20 12867 1076 1899 350 438 480 1459 7528 40 777 23 39 58 31 162 245 20 33 2044 148 142 9985 1659 62 469
leaf_count=1092 2848 153 1410 443 20 12867 1076 1899 350 438 480 1459 7528 40 777 23 39 58 31 162 245 20 33 2044 148 142 9985 1659 62 469
internal_value=2.90747e-06 0.0437703 -0.0522566 -0.0169808 0.135147 -0.00361385 -0.111547 0.0960388 0.102396 0.050182 0.119687 0.171654 -0.0556612 0.0126668 -0.0598594 -0.00426043 -0.0328987 0.117478 -0.00924218 -0.0421878 0.0202866 -0.0642086 0.173699 0.176113 -0.0862651 -0.108777 0.0111853 0.0336049 -0.0538985 -0.0418067
internal_weight=48000 13419 6543 34581 6876 25700 2927 3320 3167 788 2379 3556 8881 514 8367 3616 1669 97 474 1572 1947 265 3536 3503 1835 1218 12833 1682 7590 617
internal_count=48000 13419 6543 34581 6876 25700 2927 3320 3167 788 2379 3556 8881 514 8367 3616 1669 97 474 1572 1947 265 3536 3503 1835 1218 12833 1682 7590 617
is_linear=0
shrinkage=0.05


Tree=30
num_leaves=31
num_cat=0
split_feature=18 0 0 0 0 0 0 19 4 0 4 4 0 2 17 3 6 5 5 3 3 1 17 0 1 1 17 19 18 1
split_gain=12880.5 42508.2 6512.9 6351.52 3881.36 1780.09 1280.44 1054.98 1044.13 1034.06 1021.83 1163.18 997.04 976.415 966.435 905.672 1797.8 905.494 2114.79 859.242 859.037 859.034 1353.68 847.701 811.992 1207.95 796.094 781.302 764.627 868.415
threshold=3118.393920898438 128.9701843261719 125.23162841796876 108.77907562255861 145.75666046142581 141.38239288330081 120.71467208862306 0.20204912871122363 5.2261967658996591 110.30748748779298 5.737499713897706 5.5325050354003915 139.14746093750003 200.06618499755862 0.74229416251182567 36.580497741699226 27.043585777282718 92.927558898925795 94.491542816162124 34.51831245422364 15.734785556793215 62.058567047119148 0.60161679983139049 184.18233489990237 48.312019348144538 29.364541053771976 0.50321546196937572 0.21381787210702899 2402.429809570313 37.068109512329109
decision_type=2 2 2 2 2 2 2 2 2 2 2 2 2 2 2 2 2 2 2 2 2 2 2 2 2 2 2 2 2 2
left_child=1 3 9 13 7 -4 10 8 -3 19 11 -5 -10 -1 28 16 27 -9 -19 -2 26 -8 -23 -17 25 -16 -15 -7 29 -6
right_child=2 4 5 6 14 15 21 17 12 -11 -12 -13 -14 20 24 23 -18 18 -20 -21 -22 22 -24 -25 -26 -27 -28 -29 -30 -31
leaf_value=-0.13594025358945214 -0.19588511732159727 -0.045528611234685254 -0.027104007488298078 -0.019297485462071683 0.25179595571784702 -0.048923751368942302 0.031218016586421211 -0.1950874427647602 0.084729651998594779 -0.0028873503565165133 0.055263577202449635 -0.096490707787454666 0.14711691581245534 -0.057358317706658363 0.047319618891010752 -0.06475132066240992 0.29229140848589041 0.28490693060547001 0.0058710012507718623 0.025791606618400405 -0.16895132655610415 0.14712374496616817 -0.13518326761375113 -0.20758869865949597 0.15180529879958599 0.21934266655213711 0.11965064357742002 0.22040642458958315 0.27472357973323569 0.052284395135593409
leaf_weight=1769 44 116 10729 1191 63 360 1546 42 1754 13248 255 827 1010 340 112 5076 49 79 480 4940 136 55 185 106 1756 1165 78 29 56 404
leaf_count=1769 44 116 10729 1191 63 360 1546 42 1754 13248 255 827 1010 340 112 5076 49 79 480 4940 136 55 185 106 1756 1165 78 29 56 404
internal_value=2.77362e-06 0.0415817 -0.0161317 -0.0518636 0.126329 -0.0390461 -0.0141262 0.0887903 0.101365 0.00441598 -0.0390194 -0.0509379 0.107533 -0.117797 0.163072 -0.0618426 0.00718533 0.0285171 0.0453583 0.0238297 -0.0598396 0.0175524 -0.0704328 -0.067678 0.1739 0.204264 -0.0242953 -0.0287808 0.100246 0.0792581
internal_weight=48000 13419 34581 6382 7037 16349 4059 3481 2880 18232 2273 2018 2764 2323 3556 5620 438 601 559 4984 554 1786 240 5182 3033 1277 418 389 523 467
internal_count=48000 13419 34581 6382 7037 16349 4059 3481 2880 18232 2273 2018 2764 2323 3556 5620 438 601 559 4984 554 1786 240 5182 3033 1277 418 389 523 467
is_linear=0
shrinkage=0.05


Tree=31
num_leaves=31
num_cat=0
split_feature=3 14 14 14 14 14 14 17 14 16 7 17 19 5 16 5 6 6 16 3 15 14 3 18 14 14 2 17 17 14
split_gain=11639 36610 6468.6 5740.28 3662.98 1740.09 1377.02 1262.84 1168.6 1159.46 1222.7 1007.12 917.777 863.055 811.882 1040.93 771.133 1296.22 834.356 700.771 694.523 678.011 1015.2 869.167 646.926 575.498 539.263 1611.85 618.63 458.032
threshold=36.179405212402351 128.9701843261719 131.9448165893555 114.53073120117189 147.70458984375003 115.73926925659181 100.73342514038087 0.81952571868896495 155.55946350097659 0.16091510653495791 1.0000000180025095e-35 0.63659593462944042 0.22360044717788699 92.088325500488295 0.42568072676658636 90.825019836425795 27.553804397583011 27.255143165588382 0.21020439267158511 10.870288848876955 0.3777767568826676 137.66825103759768 3.4089337587356572 3118.393920898438 97.893783569335952 184.18233489990237 132.37756347656253 0.90244901180267345 0.8778667449951173 90.906330108642592
decision_type=2 2 2 2 2 2 2 2 2 2 2 2 2 2 2 2 2 2 2 2 2 2 2 2 2 2 2 2 2 2
left_child=1 3 5 6 9 24 20 14 -4 10 -3 -12 13 -8 15 -6 17 -9 -18 -14 29 22 -11 -23 -2 -10 -5 28 -28 -1
right_child=2 4 8 26 7 -7 12 16 25 21 11 -13 19 -15 -16 -17 18 -19 -20 -21 -22 23 -24 -25 -26 -27 27 -29 -30 -31
leaf_value=-0.17678966578108821 0.056841795279829903 -0.17214566348608296 -0.041666065011424142 -0.20906521918103596 0.30401236582082453 -0.012219234353989361 0.0012221832976241943 0.16958729169641384 -0.079860198770855054 -0.24929339724388555 0.0016088871269511877 0.11535098166128049 0.27596340388758794 -0.084091964571279307 -0.19153411304114631 0.10218448078280887 0.30092669986940118 -0.047851789911420382 0.11455559969373608 -0.090701615061805144 0.10009286145554896 0.09505529592665922 0.026103475645886873 -0.10937041147294956 0.011580807301419044 -0.19836273381755529 0.0025551137130331611 0.41094703686682515 -0.2330492847754862 -0.11395970442741887
leaf_weight=441 877 40 8875 30 68 14172 352 1920 1500 35 212 2386 34 1874 22 1048 213 71 84 21 32 710 717 56 7913 110 3281 24 28 854
leaf_count=441 877 40 8875 30 68 14172 352 1920 1500 35 212 2386 34 1874 22 1048 213 71 84 21 32 710 717 56 7913 110 3281 24 28 854
internal_value=2.75057e-06 0.0373286 -0.0162379 -0.0453768 0.113369 -0.00137906 -0.0891804 0.151649 -0.0487776 0.0818096 0.101845 0.106072 -0.0656108 -0.0705994 0.108576 0.114513 0.173065 0.161829 0.248289 0.135963 -0.129683 0.0469842 0.0132477 0.0800915 0.0160978 -0.0879716 0.00161781 0.00352186 0.00055299 -0.135372
internal_weight=48000 14553 33447 6971 7582 22962 3608 3426 10485 4156 2638 2598 2281 2226 1138 1116 2288 1991 297 55 1327 1518 752 766 8790 1610 3363 3333 3309 1295
internal_count=48000 14553 33447 6971 7582 22962 3608 3426 10485 4156 2638 2598 2281 2226 1138 1116 2288 1991 297 55 1327 1518 752 766 8790 1610 3363 3333 3309 1295
is_linear=0
shrinkage=0.05


Tree=32
num_leaves=31
num_cat=0
split_feature=18 0 0 0 0 0 17 16 3 1 17 19 4 0 16 0 0 4 2 6 1 4 6 4 17 17 17 3 19 18
split_gain=10527.2 34908.4 5420.78 5183.59 3621.14 1485.72 1261.51 1202.63 1296.75 1075.37 1432.57 1072.35 1006.49 924.596 923.076 1131.27 909.466 833.638 792.88 792.241 752.885 785.524 694.002 684.07 1169.8 938.649 680.909 677.989 1058.1 640.167
threshold=3118.393920898438 124.56318664550783 125.74828338623048 137.66825103759768 106.28929901123048 146.1133728027344 0.77935934066772472 0.16954079270362857 3.4089337587356572 54.11189270019532 0.83364188671112072 0.22050257772207263 5.9767754077911386 176.25382995605472 0.39159327745437628 95.194065093994155 108.50764846801759 5.1904976367950448 189.46302032470706 22.310106277465824 74.532855987548842 5.6003479957580575 22.450846672058109 5.3573734760284433 0.68207165598869335 0.68207165598869335 0.46732176840305334 36.580497741699226 0.21381787210702899 4118.2548828125009
decision_type=2 2 2 2 2 2 2 2 2 2 2 2 2 2 2 2 2 2 2 2 2 2 2 2 2 2 2 2 2 2
left_child=1 4 16 7 14 -4 23 9 -9 10 -3 -10 13 -8 20 -16 -2 18 -6 -11 22 -22 -1 24 -5 -25 -19 28 -7 -29
right_child=2 3 5 6 17 27 12 8 11 19 -12 -13 -14 -15 15 -17 -18 26 -20 -21 21 -23 -24 25 -26 -27 -28 29 -30 -31
leaf_value=-0.2229067257939828 0.024943702777586476 0.078243357268051664 -0.027378580824797629 0.18969949084430346 -0.29115319723414057 -0.023329821853770541 0.14375716700177174 -0.23864289205628597 0.027651034367607269 -0.13116937020138855 0.23377071178770256 -0.2917405304653618 -0.10802323255898819 0.22030077123479566 -0.15225976284852202 0.24731595015588398 -0.0020471876898106212 0.21497384363023686 0.0048274379093049347 0.040120090665616982 -0.12032604102956926 0.23259973723032942 -0.11776060711687371 0.037814274460354208 -0.025960105827620802 0.13694608520272064 -0.027913043809408816 -0.071178288242813303 0.28031039613058262 0.14649087185384244
leaf_weight=174 3960 1104 12025 86 58 270 3002 52 867 77 171 27 37 455 33 38 14728 29 37 542 33 30 1619 312 233 1021 3382 3532 32 34
leaf_count=174 3960 1104 12025 86 58 270 3002 52 867 77 171 27 37 455 33 38 14728 29 37 542 33 30 1619 312 233 1021 3382 3532 32 34
internal_value=2.62136e-06 0.0375919 -0.0145837 0.104108 -0.06018 -0.0360501 0.134034 0.0498783 0.00383337 0.0728724 0.0991229 0.0179678 0.151062 0.153839 -0.115239 0.0615744 0.00367204 -0.0299138 -0.17594 0.0187869 -0.122009 0.0477569 -0.127979 0.0980112 0.0322057 0.113752 -0.0258403 -0.0630056 0.00890956 -0.0690975
internal_weight=48000 13419 34581 7986 5433 15893 5146 2840 946 1894 1275 894 3494 3457 1927 71 18688 3506 95 619 1856 63 1793 1652 319 1333 3411 3868 302 3566
internal_count=48000 13419 34581 7986 5433 15893 5146 2840 946 1894 1275 894 3494 3457 1927 71 18688 3506 95 619 1856 63 1793 1652 319 1333 3411 3868 302 3566
is_linear=0
shrinkage=0.05


Tree=33
num_leaves=31
num_cat=0
split_feature=3 0 0 0 0 0 0 17 6 18 16 1 16 17 18 3 17 1 15 0 0 17 1 15 5 5 18 4 3 6
split_gain=9511.54 29982.7 5414.99 4795.17 3013 1901.1 1145.13 1075.74 1086.44 1267.04 1041.09 982.774 974.879 963.252 985.913 892.432 874.582 1016.8 901.835 781.84 721.766 708.065 616.522 705.861 605.281 553.998 506.135 460.533 650.386 621.111
threshold=36.179405212402351 128.9701843261719 136.8868103027344 114.53073120117189 147.70458984375003 121.05282211303712 90.906330108642592 0.75338983535766613 28.01485633850098 2402.429809570313 0.065152961760759368 53.845846176147468 0.16091510653495791 0.42990279197692877 3294.4240722656255 45.534809112548835 0.63659593462944042 52.70758247375489 0.075505889952182784 184.18233489990237 97.893783569335952 0.7939291000366212 29.364541053771976 0.035197077319026 94.552795410156264 94.17551422119142 752.55276489257824 5.7955374717712411 25.579243659973148 24.961358070373539
decision_type=2 2 2 2 2 2 2 2 2 2 2 2 2 2 2 2 2 2 2 2 2 2 2 2 2 2 2 2 2 2
left_child=1 3 5 6 12 20 -1 10 9 -9 24 -12 16 25 -15 19 18 -18 -3 -4 -2 -10 26 -24 -6 -8 -14 -5 29 -29
right_child=2 4 15 27 7 -7 13 8 21 -11 11 -13 22 14 -16 -17 17 -19 -20 -21 -22 -23 23 -25 -26 -27 -28 28 -30 -31
leaf_value=-0.15585920310642906 0.052752988551681847 -0.14853496739118338 -0.051279888842835068 -0.002483860767105885 0.069876821181493382 -0.018292215303385997 0.3395380659408479 0.15355502102432841 0.43683534216999709 0.054603919777670346 -0.035912785844927846 0.1178282603860704 0.020667314578883381 -0.080749168350096545 0.045537522184170884 0.17490829620034956 0.12471801339096603 0.056840511458087599 0.06831697131358061 -0.18553641853713643 0.0058815603077807047 0.20986076039755744 -0.15664007990754725 0.053508469893708159 0.29859814554150993 0.0093091799961722167 -0.31069962351974856 0.14608862188797964 0.30603391249213935 -0.058783698712032297
leaf_weight=449 877 72 7394 3188 50 12094 21 2222 40 379 225 193 24 2943 163 43 1572 851 143 110 12929 248 41 1431 69 32 22 71 27 77
leaf_count=449 877 72 7394 3188 50 12094 21 2222 40 379 225 193 24 2943 163 43 1572 851 143 110 12929 248 41 1431 69 32 22 71 27 77
internal_value=2.53272e-06 0.033745 -0.0146789 -0.0411011 0.10256 -0.00381871 -0.0811366 0.137277 0.149359 0.139141 0.072254 0.0350722 0.0739365 -0.0705098 -0.0741189 -0.0519481 0.0923081 0.100884 -0.00431526 -0.053251 0.0088597 0.241543 0.042003 0.0476415 0.202678 0.140642 -0.138034 0.00185079 0.0808007 0.0394982
internal_weight=48000 14553 33447 6971 7582 25900 3608 3426 2889 2601 537 418 4156 3159 3106 7547 2638 2423 215 7504 13806 288 1518 1472 119 53 46 3363 175 148
internal_count=48000 14553 33447 6971 7582 25900 3608 3426 2889 2601 537 418 4156 3159 3106 7547 2638 2423 215 7504 13806 288 1518 1472 119 53 46 3363 175 148
is_linear=0
shrinkage=0.05


Tree=34
num_leaves=31
num_cat=0
split_feature=15 0 0 0 0 0 17 15 19 5 16 1 1 4 2 16 18 17 15 0 2 1 18 16 0 15 4 4 1 15
split_gain=8637.56 28510.5 4326.54 3702.28 3356.59 1149.72 1092.03 1081.95 1067.08 1108.44 1041.53 1031.65 1097.81 1029.03 1077.76 988.645 785.815 783.707 1156.3 760.307 731.133 808.998 787.471 785.874 728.495 726.069 852.411 685.403 676.535 658.598
threshold=0.3415773361921311 125.38882064819337 125.38882064819337 137.66825103759768 106.28929901123048 148.10752868652347 0.72283270955085765 0.38717223703861242 0.18233185261487964 91.203998565673842 0.36811815202236181 23.716965675354007 62.481544494628913 5.6145982742309579 173.20169830322268 0.20462092757225039 4118.2548828125009 0.71439260244369518 0.16770125925540927 130.70432281494143 238.23350524902347 31.006114006042484 987.07104492187511 0.03261536359786988 108.50764846801759 0.13849012553691867 5.9285230636596689 5.1904976367950448 37.068109512329109 0.036329440772533424
decision_type=2 2 2 2 2 2 2 2 2 2 2 2 2 2 2 2 2 2 2 2 2 2 2 2 2 2 2 2 2 2
left_child=1 4 24 8 15 -4 17 28 13 19 -11 -8 -13 -3 -15 -1 -9 29 -19 -10 21 23 -22 -6 -2 26 -17 -23 -7 -5
