tree
version=v4
num_class=1
num_tree_per_iteration=1
label_index=0
max_feature_idx=19
objective=regression
feature_names=Column_0 Column_1 Column_2 Column_3 Column_4 Column_5 Column_6 Column_7 Column_8 Column_9 Column_10 Column_11 Column_12 Column_13 Column_14 Column_15 Column_16 Column_17 Column_18 Column_19
feature_infos=[52.034549713134766:264.10427856445312] [5.1873831748962402:100] [93.766632080078125:300] [2.6695625782012939:83.316452026367188] [4.8245997428894043:6.2200589179992676] [81.476829528808594:95] [16.781444549560547:33.42144775390625] [0:2] none none none none none [2.6695625782012939:83.316452026367188] [52.034549713134766:264.10427856445312] [0.028181182220578194:0.9555671215057373] [1.1811992095545065e-07:0.7200590968132019] [0.22837059199810028:1.930213451385498] [252.8837890625:7382.85107421875] [0.13532184064388275:0.38256317377090454]
tree_sizes=3004 2968 2979 3007 2977 2972 2982 2928 2905 2987 2982 2984 2970 2981 2996 2984 2996 2979 2969 2970 2934 2964 2932 2986 2950 2972 2968 2877 2982 2962 2977 2888 2991 2942 2995 2967 2987 2995 2865 2946 2998 2892 2989 2946 2986 2973 2988 2979 2965 2945 2902 3006 2964 2959 2989 2887 2973 2976 2892 2974 2959 2962 2909 2948 2922 2879 2899 2982 2918 2599 2610 2690 2911 2869 2901 2615 2936 2949 2899 2910 2774 2891 2932 2621 2901 2740 2758 2950 2655 2891 2895 2907 2537 2838 2889 2924 2918 2781 2943 2819 2933 2925 2938 2948 2698 2911 2864 2429 2896 2871 2862 2513 2557 2934 2928 2929 2870 2904 2955 2751 2625 2990 2874 2913 2558 2912 2886 2914 2648 2950 2945 2618 2993 2635 2884 2883 2524 2888 2938 2914 2872 2350 2846 2708 2885 2922 2305 2983 2981 2751 2959 2890 2735 2924 2913 2903 2918 2910 2931 2926 2940 2828 2904 2885 2537 2920 2894 2634 2956 2914 2923 2886 2700 2963 2930 2883 2967 2990 2861 2906 2726 2732 2941 2846 2942 2910 2970 2888 2863 2902 2905 2856 2918 2784 2767 2899 2915 2897 2915 2876 2853 2970 2793 2763 2873 2877 2916 2929 2872 2882 2882 2859 2948 2903 2898 2949 2929 2723 2919 2925 2935 2872 2544 2991 2976 2888 2931 2926 2923 2955 2885 2960 2938 2981 2874 2869 2845 2942 2858 2659 2953 2459 2967 2900 2903 2945 2911 2951 2940 2920 2967 2878 2961 2918 2931 2909 2914 2872 2926 2865 2548 2937 2870 2925 2905 2849 2916 2929 2895 2940 2934 2842 2956 2915 2812 2947 2934 2951 2900 2848 2501 2918 2927 2949 2913 2913 2893 2859 2861 2825 2862 2900 2885 2978 2882 2968 2885 2891 2879 2901

Tree=0
num_leaves=31
num_cat=0
split_feature=4 3 3 16 4 4 16 16 16 16 16 16 19 1 4 6 16 19 4 4 19 0 16 17 6 6 6 1 16 16
split_gain=5.94693 42.7153 22.9803 16.1548 6.02474 2.56785 1.78454 1.36662 1.26087 0.844356 0.5142 0.418751 0.447276 0.413281 0.336453 0.336117 0.296992 0.288695 0.270842 0.244872 0.243238 0.207072 0.195954 0.208719 0.182558 0.179696 0.177386 0.179548 0.173293 0.172257
threshold=5.5646476745605478 35.226648330688484 35.226648330688484 0.11661116778850557 5.7223124504089364 5.4606785774230966 0.097486957907676711 0.26788954436779028 0.14447193592786792 0.20823647081851962 0.22287920117378238 0.40738940238952642 0.20148194581270221 59.878282546997077 5.5129668712615976 24.787687301635746 0.16091510653495791 0.20729079842567447 5.6111013889312753 5.4818501472473153 0.20895212143659594 115.39113235473634 0.34920318424701696 0.98280456662178051 24.852163314819339 24.557808876037601 29.052865982055668 66.870925903320327 0.25874403119087225 0.32736775279045111
decision_type=2 2 2 2 2 2 2 2 2 2 2 2 2 2 2 2 2 2 2 2 2 2 2 2 2 2 2 2 2 2
left_child=2 4 3 5 8 26 19 13 17 -3 -8 12 28 16 20 25 -5 18 -2 -4 -7 -19 23 -9 -16 -10 27 -1 -6 -11
right_child=1 9 6 7 11 14 10 22 15 29 -12 -13 -14 -15 24 -17 -18 21 -20 -21 -22 -23 -24 -25 -26 -27 -28 -29 -30 -31
leaf_value=-0.0058318357718728665 -0.0012585726912072541 -0.0039787706684358236 -0.0030286771470761911 -0.007922898898246199 0.0025521398750119315 -0.0042331670659839773 -0.0025300161170087633 -0.010591199308672191 0.00024060481947022275 -0.0046796723600787283 -0.0015326584884307844 0.0051504143442826968 0.0017126437835858735 -0.0069626928345577453 -0.0023968863994478259 0.0014889578244598992 -0.0092703148611946867 3.7527211565395284e-05 -2.7464938281208419e-05 -0.0034499807643350974 -0.00229289864141822 -0.0031252612775646191 -0.012069915985491205 -0.0064927752274418441 -0.0034689224958155229 -0.0026912748853796997 -0.0083045372913639059 -0.0039530889497950633 0.0039725221693986679 -0.0055079376720731056
leaf_weight=1740 1160 9613 6242 726 380 1360 5227 377 598 2863 1736 255 559 421 748 922 1118 67 774 7681 181 245 279 39 831 62 71 145 739 841
leaf_count=1740 1160 9613 6242 726 380 1360 5227 377 598 2863 1736 255 559 421 748 922 1118 67 774 7681 181 245 279 39 831 62 71 145 739 841
internal_value=-0.00335624 -0.002671 -0.00380825 -0.00608048 0.000926187 -0.00436731 -0.00293422 -0.00901652 -0.000225453 -0.0042268 -0.00228062 0.00320396 0.0029047 -0.00841432 -0.00347518 0.00085988 -0.00874281 -0.000992301 -0.000763143 -0.00326146 -0.00400197 -0.00242918 -0.0109709 -0.0102198 -0.00296422 -2.70971e-05 -0.00578772 -0.00569001 0.00349522 -0.00486913
internal_weight=48000 19078 28922 8036 5761 5076 20886 2960 3828 13317 6963 1933 1678 2265 3120 1582 1844 2246 1934 13923 1541 312 695 416 1579 660 1956 1885 1119 3704
internal_count=48000 19078 28922 8036 5761 5076 20886 2960 3828 13317 6963 1933 1678 2265 3120 1582 1844 2246 1934 13923 1541 312 695 416 1579 660 1956 1885 1119 3704
is_linear=0
shrinkage=1


Tree=1
num_leaves=31
num_cat=0
split_feature=4 3 3 16 4 4 16 16 16 4 16 16 1 1 4 0 15 6 1 3 2 4 4 1 2 2 16 17 6 6
split_gain=5.3687 38.5934 20.7438 14.5817 5.45754 2.31805 1.61066 1.23292 1.11732 0.734397 0.463866 0.394625 0.372081 0.35011 0.305499 0.287395 0.286805 0.281655 0.265429 0.258288 0.254204 0.222671 0.221258 0.198738 0.196505 0.189715 0.175265 0.18703 0.167235 0.164194
threshold=5.5646476745605478 34.51831245422364 35.226648330688484 0.11661116778850557 5.7223124504089364 5.4606785774230966 0.097486957907676711 0.26788954436779028 0.14447193592786792 5.7461645603179941 0.22287920117378238 0.40738940238952642 59.878282546997077 64.256637573242202 5.5081737041473398 158.48643493652347 0.32895047962665563 24.787687301635746 48.140331268310554 35.846841812133796 224.769645690918 5.4755244255065927 5.6318564414978036 40.832118988037116 224.769645690918 176.00778961181643 0.34920318424701696 0.98280456662178051 24.557808876037601 27.819863319396976
decision_type=2 2 2 2 2 2 2 2 2 2 2 2 2 2 2 2 2 2 2 2 2 2 2 2 2 2 2 2 2 2
left_child=2 4 3 5 8 29 21 12 15 22 -8 13 16 23 -7 20 -5 28 -17 25 -2 -4 -3 -6 -15 -11 27 -9 -10 -1
right_child=1 9 6 7 11 14 10 26 17 19 -12 -13 -14 24 -16 18 -18 -19 -20 -21 -22 -23 -24 -25 -26 -27 -28 -29 -30 -31
leaf_value=-0.0021445368131525278 0.0025892318102491482 -0.00040581253280788014 0.0003313863048400984 -0.0052709317078959827 0.0073693442519884621 -0.00066354768878056775 0.00078491027511773848 -0.0068733105176232547 0.0034661465881677409 -0.0014834867906177518 0.0017324045182739425 0.00818893421373257 -0.0034261763183492037 0.0047529336907357498 0.00033065239245046987 -0.0016057170623285232 -0.0024439524861605811 0.0046053753602566345 0.0018613474634856489 -0.0016769297165613877 -0.00016615525149384807 -7.5247861550535917e-05 -0.00085792284367985385 0.0059281861623532205 0.00033216418225282256 0.0047889636905100955 -0.0082781517222478302 -0.002980112635618066 0.00063176708972312496 -0.0036691838160998118
leaf_weight=1747 1898 5302 5671 1742 369 1397 5227 377 586 20 1736 251 421 230 1723 85 102 914 153 2379 84 8252 5660 1027 31 27 279 39 62 209
leaf_count=1747 1898 5302 5671 1742 369 1397 5227 377 586 20 1736 251 421 230 1723 85 102 914 153 2379 84 8252 5660 1027 31 27 279 39 62 209
internal_value=0 0.00065108 -0.000429467 -0.00258831 0.00410073 -0.000960628 0.000400927 -0.00537774 0.0029982 -0.000814694 0.00102188 0.00628326 -0.00480543 0.0059911 -0.000112912 0.00227196 -0.00511741 0.00402696 0.000601956 -0.00160324 0.00246993 9.0021e-05 -0.000639712 0.0063132 0.00424734 0.0020162 -0.00723476 -0.00652114 0.00320281 -0.00231018
internal_weight=48000 19078 28922 8036 5690 5076 20886 2960 3782 13388 6963 1908 2265 1657 3120 2220 1844 1562 238 2426 1982 13923 10962 1396 261 47 695 416 648 1956
internal_count=48000 19078 28922 8036 5690 5076 20886 2960 3782 13388 6963 1908 2265 1657 3120 2220 1844 1562 238 2426 1982 13923 10962 1396 261 47 695 416 648 1956
is_linear=0
shrinkage=0.05


Tree=2
num_leaves=31
num_cat=0
split_feature=4 3 3 16 4 4 16 16 16 16 16 3 16 4 2 3 1 4 4 17 0 6 4 0 16 4 6 6 6 17
split_gain=4.84631 34.8363 18.7246 13.1621 4.92921 2.0923 1.45837 1.27605 1.16069 0.663648 0.397385 0.322769 0.321284 0.315674 0.306875 0.281544 0.328454 0.276377 0.26527 0.346518 0.25229 0.230119 0.195757 0.186543 0.173976 0.173661 0.172927 0.172251 0.166338 0.161554
threshold=5.5646476745605478 34.51831245422364 35.226648330688484 0.11661116778850557 5.7417724132537851 5.4606785774230966 0.12604321539402011 0.14447193592786792 0.20114284753799441 0.18170697242021563 0.33450822532176977 35.612251281738288 0.27893126010894781 5.4523131847381601 238.23350524902347 30.920001029968265 59.372482299804695 5.5129668712615976 5.6022613048553476 1.108383893966675 148.52382659912112 24.787687301635746 5.7762746810913095 103.8956642150879 0.17391376197338107 5.7022480964660653 22.310106277465824 23.753438949584964 25.539849281311039 0.93074676394462597
decision_type=2 2 2 2 2 2 2 2 2 2 2 2 2 2 2 2 2 2 2 2 2 2 2 2 2 2 2 2 2 2
left_child=2 4 3 5 7 -1 13 18 15 -3 23 27 -8 -4 20 16 -5 26 29 -20 -6 25 -13 -10 -17 -9 -7 -11 -19 -2
right_child=1 9 6 8 14 17 12 21 10 11 -12 22 -14 -15 -16 24 -18 28 19 -21 -22 -23 -24 -25 -26 -27 -28 -29 -30 -31
leaf_value=-0.0021948154097556007 0.0017911992820017729 -0.00050018736056419821 0.00044849913123434543 -0.0046952228447081513 0.0067929581678359196 -0.0021261104156483379 0.000937465508703015 0.0027085762218501158 -0.0074755627438863968 -0.0011705180656570958 -0.0076360027572307315 -0.0010476626379971618 0.0020439640335756103 -2.3409207638770492e-05 0.0021946887204958442 -0.0030663729381736568 -0.0027684821137701357 0.00078963904192403019 0.0028169454045023287 -0.003705602725597089 0.0052932922432719996 0.0044322140672159666 -0.0017218963848795227 -0.0053734039357476735 0.0014664506667020683 0.0043120245691001769 -0.00039740883717436859 0.0042360757128618786 -0.00024719035673166574 -0.00019818907348329408
leaf_weight=1956 973 8365 5400 1143 1118 164 4448 523 136 21 353 3300 782 10256 49 54 293 923 1118 20 430 1071 1661 948 33 279 1377 41 656 109
leaf_count=1956 973 8365 5400 1143 1118 164 4448 523 136 21 353 3300 782 10256 49 54 293 923 1118 20 430 1071 1661 948 33 279 1377 41 656 109
internal_value=0 0.000618588 -0.000408043 -0.00245913 0.00389604 -0.000912652 0.000380893 0.00297433 -0.00510933 -0.000773997 -0.00613612 -0.00122897 0.0011039 0.000139042 0.00625484 -0.00413689 -0.00430579 -0.000107186 0.00215825 0.0026976 0.00637998 0.00393876 -0.00127444 -0.00564242 -0.00128991 0.00327309 -0.000584755 0.00232536 0.000355731 0.00158617
internal_weight=48000 19078 28922 8036 5690 5076 20886 4093 2960 13388 1437 5023 5230 15656 1597 1523 1436 3120 2220 1138 1548 1873 4961 1084 87 802 1541 62 1579 1082
internal_count=48000 19078 28922 8036 5690 5076 20886 4093 2960 13388 1437 5023 5230 15656 1597 1523 1436 3120 2220 1138 1548 1873 4961 1084 87 802 1541 62 1579 1082
is_linear=0
shrinkage=0.05


Tree=3
num_leaves=31
num_cat=0
split_feature=4 3 15 16 4 4 16 16 4 4 4 19 16 19 4 19 16 16 17 16 3 17 16 18 4 19 17 16 5 0
split_gain=4.37452 31.4438 16.9032 11.9458 4.45038 1.92798 1.32952 1.01704 0.923792 0.603002 0.486638 0.39623 0.350236 0.276596 0.248636 0.23373 0.231053 0.22831 0.216558 0.216367 0.215173 0.209018 0.195574 0.193731 0.188847 0.182446 0.164147 0.141221 0.189596 0.134456
threshold=5.5646476745605478 34.51831245422364 0.37419329583644872 0.11661116778850557 5.7223124504089364 5.4606785774230966 0.18015968054533008 0.20114284753799441 5.616452932357789 5.7461645603179941 5.4523131847381601 0.20148194581270221 0.34920318424701696 0.20148194581270221 5.5129668712615976 0.20895212143659594 0.25874403119087225 0.35751318931579595 0.93740680813789379 0.16091510653495791 35.846841812133796 1.0432413816452029 0.34113445878028875 1923.036560058594 5.6318564414978036 0.22360044717788699 1.0088521838188174 0.066116038709878935 92.654705047607436 103.8956642150879
decision_type=2 2 2 2 2 2 2 2 2 2 2 2 2 2 2 2 2 2 2 2 2 2 2 2 2 2 2 2 2 2
left_child=2 4 3 5 8 27 10 13 18 24 -4 16 29 23 15 -7 -6 -13 25 21 -11 -10 -8 -5 -3 -2 -20 28 -1 -9
right_child=1 9 6 7 11 14 22 12 19 20 -12 17 -14 -15 -16 -17 -18 -19 26 -21 -22 -23 -24 -25 -26 -27 -28 -29 -30 -31
leaf_value=5.0069083645174884e-05 0.0020259511343475064 -0.0003605133848326669 0.00050029012646052556 -0.0047686250897832662 0.0051090987152536058 -0.00076961664598512443 0.0012054533869411623 -0.0069468408659667802 0.0029523506678444714 0.0018497801830719232 -2.5341390111283169e-05 0.004027666035102245 -0.007461479720810839 -0.0028556446330543182 0.00034773901677530777 0.0011426972810310036 0.0066790214219366352 0.0061504689494957833 -0.0019260267799558796 0.0038243713807391542 -0.0015173538012446365 -0.00071371398362626869 0.0025670597467384059 -0.0031022229027263945 -0.00077833253888795082 -0.00090256961914947473 0.0016491579321409094 -0.0024332721246572171 -0.0019294729318406316 -0.0051971425315958794
leaf_weight=146 1290 5302 7694 828 373 1363 2640 147 1109 47 10256 471 280 438 1578 179 870 194 68 1164 2379 38 302 248 5660 53 60 1219 590 1014
leaf_count=146 1290 5302 7694 828 373 1363 2640 147 1109 47 10256 471 280 438 1578 179 870 194 68 1164 2379 38 302 248 5660 53 60 1219 590 1014
internal_value=0 0.000587692 -0.000387689 -0.00233748 0.00370148 -0.000864674 0.000361496 -0.00486511 0.00270562 -0.000735334 0.000199686 0.00567259 -0.00582351 -0.00394929 -9.15485e-05 -0.000544327 0.00621239 0.0046553 0.00171892 0.00333141 -0.00144999 0.00282648 0.00134701 -0.00438952 -0.000576707 0.0019066 -0.000211148 -0.00209589 -0.00153005 -0.00542357
internal_weight=48000 19078 28922 8030 5690 5075 20892 2955 3782 13388 17950 1908 1441 1514 3120 1542 1243 665 1471 2311 2426 1147 2942 1076 10962 1343 128 1955 736 1161
internal_count=48000 19078 28922 8030 5690 5075 20892 2955 3782 13388 17950 1908 1441 1514 3120 1542 1243 665 1471 2311 2426 1147 2942 1076 10962 1343 128 1955 736 1161
is_linear=0
shrinkage=0.05


Tree=4
num_leaves=31
num_cat=0
split_feature=4 3 3 16 4 4 16 16 4 16 16 16 19 1 3 15 3 16 16 0 3 16 6 2 4 6 4 19 0 1
split_gain=3.94856 28.3946 15.2681 10.728 3.99756 1.7052 1.20757 0.944287 0.858245 0.576458 0.360686 0.32685 0.320988 0.246634 0.282187 0.22082 0.239792 0.207481 0.20606 0.198144 0.190238 0.173835 0.217578 0.206406 0.172342 0.302448 0.170731 0.169658 0.152107 0.145696
threshold=5.5646476745605478 35.226648330688484 35.226648330688484 0.11661116778850557 5.7223124504089364 5.4672372341156015 0.095501430332660689 0.20114284753799441 5.616452932357789 0.20823647081851962 0.22287920117378238 0.33450822532176977 0.20148194581270221 59.372482299804695 30.920001029968265 0.035197077319026 3.4089337587356572 0.35751318931579595 0.25874403119087225 145.41015625000003 3.6899654865264897 0.16091510653495791 24.764349937438968 224.769645690918 5.4174561500549325 28.065939903259281 5.5129668712615976 0.21381787210702899 103.8956642150879 70.243827819824233
decision_type=2 2 2 2 2 2 2 2 2 2 2 2 2 2 2 2 2 2 2 2 2 2 2 2 2 2 2 2 2 2
left_child=2 4 3 5 8 24 26 13 19 -3 -8 28 18 14 -5 -7 -17 -14 -6 27 -15 23 -23 -10 25 -1 -4 -2 -9 -21
right_child=1 9 6 7 12 15 10 11 21 -11 -12 -13 17 20 -16 16 -18 -19 -20 29 -22 22 -24 -25 -26 -27 -28 -29 -30 -31
leaf_value=-0.0021772156011020463 0.00207387619862696 -0.00050498771644364067 0.00020094687367412309 -0.0042561293110428972 0.0047945084926777851 -0.0027572597908276548 0.00066982562105834123 -0.0067549723199430804 0.0028413158717775946 -0.0012409607390067615 0.0015033468382576192 -0.006903764250407618 0.0038284267981153215 -0.0067763789423598416 -0.00099882943553852551 0.0037268368077838228 -3.0157053917062644e-05 0.0058470198029152622 0.0062675881950181173 0.0008352780711392637 -0.0020288433931107261 0.0027258603795169748 0.0041592473051982378 -0.00035504073410215021 -0.0015537116864003551 -0.0056150034968849537 -0.00016712352846174141 -0.00080809943430825565 -0.0048459452936240668 -0.0034104355395731833
leaf_weight=696 1072 9613 8955 1143 380 73 5347 136 1109 3704 1736 353 473 24 75 43 2829 196 884 345 281 470 710 50 1362 73 4848 51 948 21
leaf_count=696 1072 9613 8955 1143 380 73 5347 136 1109 3704 1736 353 473 24 75 43 2829 196 884 345 281 470 710 50 1362 73 4848 51 948 21
internal_value=0 0.000558341 -0.000368336 -0.00222047 0.00349121 -0.000824171 0.00034405 -0.00461313 0.00255266 -0.000710075 0.000874841 -0.00553998 0.00534706 -0.00373502 -0.00405976 -4.28666e-05 2.44801e-05 0.00442808 0.0058291 0.00160728 -0.00242091 0.00315225 0.00359284 0.00269909 -0.00190152 -0.00251075 7.13077e-05 0.00193848 -0.00509067 0.000577149
internal_weight=48000 19078 28922 8036 5761 5076 20886 2960 3828 13317 7083 1437 1933 1523 1218 2945 2872 669 1264 1489 305 2339 1180 1159 2131 769 13803 1123 1084 366
internal_count=48000 19078 28922 8036 5761 5076 20886 2960 3828 13317 7083 1437 1933 1523 1218 2945 2872 669 1264 1489 305 2339 1180 1159 2131 769 13803 1123 1084 366
is_linear=0
shrinkage=0.05


Tree=5
num_leaves=31
num_cat=0
split_feature=4 13 13 4 4 4 4 4 4 4 4 19 4 19 4 4 13 0 19 1 15 4 1 4 1 19 2 17 4 1
split_gain=3.56456 25.6421 13.7835 9.65507 3.65835 1.55026 1.09277 0.935409 0.765487 0.509702 0.331377 0.287015 0.274885 0.273198 0.249538 0.237257 0.232208 0.22112 0.282127 0.242087 0.199315 0.222982 0.176248 0.167059 0.161415 0.173305 0.141923 0.148885 0.13313 0.132118
threshold=5.5646476745605478 34.51831245422364 35.226648330688484 5.4174561500549325 5.7417724132537851 5.3006434440612802 5.3759570121765146 5.6436970233917245 5.4672372341156015 5.6751341819763192 5.3707828521728525 0.20204912871122363 5.1538591384887704 0.20148194581270221 5.2156641483306894 5.4703624248504648 35.612251281738288 158.48643493652347 0.21381787210702899 48.140331268310554 0.035197077319026 5.546093463897706 38.681438446044929 5.789248228073121 39.462110519409187 0.19489214569330218 238.23350524902347 0.63374301791191112 5.9285230636596689 65.679515838623061
decision_type=2 2 2 2 2 2 2 2 2 2 2 2 2 2 2 2 2 2 2 2 2 2 2 2 2 2 2 2 2 2
left_child=2 4 3 5 7 12 14 17 29 -3 13 28 -1 -7 -4 -8 -11 18 -2 -19 -10 -22 -12 -18 25 -9 27 -13 -6 -5
right_child=1 9 6 8 11 10 15 24 20 16 22 26 -14 -15 -16 -17 23 19 -20 -21 21 -23 -24 -25 -26 -27 -28 -29 -30 -31
leaf_value=-0.0066732591942384196 0.0021549512730932698 -0.0004115582290315006 0.0018137381544777746 -0.0016265480759181769 0.0056299160683312916 -0.0041985063013136427 0.00033430458451182013 0.0025309814304604796 -0.0026195852689205501 0.0018974702808499545 -0.0039113660772988196 0.0059370824582650923 -0.0048901093920526847 -0.0025250504063926375 0.00080712232877241735 -5.8570334850148779e-05 -0.0009067787460751613 -0.0017353746571088895 -0.00054425946615380735 0.0015844188305291545 -0.00018584169882177308 0.00094541802320008373 -0.0021564580298486487 -0.0015494764469786869 0.0031314228689536907 0.0050872521961799816 0.0016256962357754695 0.0039205358915952873 0.0075585804846822757 9.7662369096647656e-05
leaf_weight=292 1863 8039 723 1246 972 875 6871 103 73 65 184 158 1164 365 4611 8681 3866 85 99 152 2337 535 849 1418 1538 253 49 299 119 116
leaf_count=292 1863 8039 723 1246 972 875 6871 103 73 65 184 158 1164 365 4611 8681 3866 85 99 152 2337 535 849 1418 1538 253 49 299 119 116
internal_value=0 0.00053047 -0.000349995 -0.00210978 0.00334237 -0.00397253 0.00032686 0.002548 -0.000495793 -0.00066425 -0.00315082 0.00537485 -0.00525159 -0.00371019 0.000944533 0.000114685 -0.00104307 0.00184133 0.00201618 0.000372458 -4.07216e-05 2.31756e-05 -0.00247423 -0.00108022 0.0033657 0.00436262 0.00434915 0.00462981 0.00584554 -0.00147603
internal_weight=48000 19078 28922 8036 5690 3729 20886 4093 4307 13388 2273 1597 1456 1240 5334 15552 5349 2199 1962 237 2945 2872 1033 5284 1894 356 506 457 1091 1362
internal_count=48000 19078 28922 8036 5690 3729 20886 4093 4307 13388 2273 1597 1456 1240 5334 15552 5349 2199 1962 237 2945 2872 1033 5284 1894 356 506 457 1091 1362
is_linear=0
shrinkage=0.05


Tree=6
num_leaves=31
num_cat=0
split_feature=4 3 15 16 4 4 16 16 16 16 4 1 19 19 4 4 17 16 3 6 6 16 2 1 6 16 2 1 16 0
split_gain=3.21789 23.1464 12.4488 8.80621 3.30242 1.43383 1.01242 0.850244 0.769617 0.462215 0.367624 0.291591 0.279431 0.257689 0.219658 0.205551 0.293887 0.192195 0.192636 0.192012 0.164273 0.160323 0.159775 0.153026 0.150531 0.171564 0.171509 0.147924 0.137501 0.133004
threshold=5.5646476745605478 34.51831245422364 0.37419329583644872 0.11661116778850557 5.7417724132537851 5.4590008258819589 0.18015968054533008 0.14447193592786792 0.26788954436779028 0.15968117862939837 5.4434163570404062 59.878282546997077 0.20130420476198199 0.20204912871122363 5.5081737041473398 5.6022613048553476 0.52019524574279796 0.32736775279045111 35.612251281738288 24.787687301635746 23.616908073425297 0.34113445878028875 193.85089111328128 32.681364059448249 26.199909210205082 0.33450822532176977 233.86307525634768 61.746791839599616 0.42568072676658636 170.92713165283206
decision_type=2 2 2 2 2 2 2 2 2 2 2 2 2 2 2 2 2 2 2 2 2 2 2 2 2 2 2 2 2 2
left_child=2 4 3 5 7 -1 10 15 11 -3 -4 12 -5 28 22 23 -17 18 20 27 -11 -8 -7 -2 26 -26 -15 -9 -6 -10
right_child=1 9 6 8 13 14 21 19 29 17 -12 -13 -14 24 -16 16 -18 -19 -20 -21 -22 -23 -24 -25 25 -27 -28 -29 -30 -31
leaf_value=-0.0018248882503758891 -0.0010030259984605584 -0.00035477048027976346 0.00045205562209972686 -0.0043917015652241665 0.0053329253328933774 -0.00018523425322834123 0.0010419702562391576 0.0029233118131973025 -0.0058558082714754399 -0.0014278221105374557 -1.1404535908430261e-05 -0.0024979117699433003 -0.0029808621326833712 0.0051398849938860229 0.00029179611369034591 -0.00032996773014012373 0.0024771506149306806 -0.0016511333533286744 -0.00086739230893333272 0.0036586409745081264 0.0036802497251054358 0.002275746081165968 -0.0013294405443945887 0.0014055541300143047 0.0012766686728643822 0.0044338172479365901 0.00050452404242024376 0.0010919960681833767 0.0072591554617583987 -0.0031432291817620537
leaf_weight=1906 68 7132 7003 1317 969 998 2640 658 642 23 10947 420 518 298 1723 99 1039 848 5342 1071 43 302 448 1014 90 94 24 144 122 58
leaf_count=1906 68 7132 7003 1317 969 998 2640 658 642 23 10947 420 518 298 1723 99 1039 848 5342 1071 43 302 448 1014 90 94 24 144 122 58
internal_value=0 0.000504022 -0.000332534 -0.00200582 0.00317559 -0.000741115 0.000310373 0.00242074 -0.00417607 -0.000631056 0.000169132 -0.0037196 -0.00399635 0.00510681 -8.76623e-05 0.00175369 0.00222855 -0.000945219 -0.000833576 0.00320856 0.00182505 0.00117039 -0.000543257 0.00124948 0.0041328 0.00291825 0.00481018 0.00260091 0.00555355 -0.00563867
internal_weight=48000 19078 28922 8030 5690 5075 20892 4093 2955 13388 17950 2255 1835 1597 3169 2220 1138 6256 5408 1873 66 2942 1446 1082 506 184 322 802 1091 700
internal_count=48000 19078 28922 8030 5690 5075 20892 4093 2955 13388 17950 2255 1835 1597 3169 2220 1138 6256 5408 1873 66 2942 1446 1082 506 184 322 802 1091 700
is_linear=0
shrinkage=0.05


Tree=7
num_leaves=31
num_cat=0
split_feature=16 18 17 17 18 19 1 16 17 19 1 18 3 19 6 19 19 18 16 15 1 6 19 5 0 18 0 6 15 6
split_gain=0.31575 1.54224 0.283422 0.232358 0.274625 0.161162 0.15018 0.132679 0.131704 0.0905921 0.0761943 0.134252 0.207001 0.126801 0.230439 0.13 0.133696 0.115304 0.179881 0.210207 0.200722 0.171602 0.138014 0.476857 0.193152 0.107946 0.176039 0.0964696 0.0793158 0.0685851
threshold=0.24180648475885394 3261.266967773438 0.46732176840305334 0.65306976437568676 731.15264892578136 0.20148194581270221 51.980930328369148 0.49841226637363439 0.6072940230369569 0.20651620626449588 68.389644622802749 2688.335327148438 35.226648330688484 0.25534293055534368 24.629142761230472 0.18988855183124545 0.20159539580345157 2493.043334960938 0.090026710182428374 0.21754048019647601 34.877656936645515 26.346348762512211 0.18580324947834018 92.738365173339858 100.73342514038087 2688.335327148438 117.58113098144533 22.545633316040043 0.38717223703861242 24.557808876037601
decision_type=2 2 2 2 2 2 2 2 2 2 2 2 2 2 2 2 2 2 2 2 2 2 2 2 2 2 2 2 2 2
left_child=10 2 9 7 5 -5 -6 8 -4 -2 17 13 29 15 -15 -12 -17 18 22 21 -21 -20 24 -24 -1 26 -19 -28 -14 -13
right_child=1 -3 3 4 6 -7 -8 -9 -10 -11 11 12 28 14 -16 16 -18 25 19 20 -22 -23 23 -25 -26 -27 27 -29 -30 -31
leaf_value=-0.0043737074643158732 -0.0030489176412365829 -0.00029984904761488971 0.0015268295509662652 0.0023584774089072439 -7.5221607354490394e-05 0.0007953694387711534 0.001169651029430163 0.0056067232062436932 0.0030532866202704323 0 -0.0023297461282420643 -0.00069004711647009111 0.0027077656706589607 -0.0055697048780336197 0.00154669579336202 0.0032349146930461016 0.00087048423014831396 0.0028611055001852869 -9.6696791842081824e-05 -0.0038700132330796938 -0.00061767652994753806 0.0005857779729681506 0.001280805765006496 -0.0005363564405026491 -0.00090753607572823566 -2.4422568550568097e-05 0.0025031046563112032 -0.00038239846598879567 -3.8451422925687135e-05 -0.0040961696127000445
leaf_weight=45 43 3879 501 467 515 273 446 28 214 54 27 29 28 21 23 70 527 85 3194 54 456 1290 402 3437 478 30811 35 161 365 42
leaf_count=45 43 3879 501 467 515 273 446 28 214 54 27 29 28 21 23 70 527 85 3194 54 456 1290 402 3437 478 30811 35 161 365 42
internal_value=0 0.000326328 0.00128417 0.00139039 0.00106219 0.00178876 0.000497383 0.00213478 0.00199105 -0.00133931 -5.04194e-05 0.000353495 -0.000291919 0.000809267 -0.00174132 0.000997378 0.00115659 -6.1848e-05 -0.000215783 -9.85904e-06 -0.000972535 9.85377e-05 -0.00045039 -0.000344742 -0.00121611 -1.53657e-05 0.000959568 0.000108386 0.000145127 -0.00277819
internal_weight=48000 6420 2541 2444 1701 740 961 743 715 97 41580 1132 464 668 44 624 597 40448 9356 4994 510 4484 4362 3839 523 31092 281 196 393 71
internal_count=48000 6420 2541 2444 1701 740 961 743 715 97 41580 1132 464 668 44 624 597 40448 9356 4994 510 4484 4362 3839 523 31092 281 196 393 71
is_linear=0
shrinkage=0.05


Tree=8
num_leaves=31
num_cat=0
split_feature=16 18 17 2 1 1 1 0 2 19 1 18 3 19 19 0 3 18 16 15 1 19 5 0 2 18 17 2 16 15
split_gain=0.285159 1.39257 0.256014 0.212065 0.207111 0.19899 0.140091 0.116403 0.137572 0.0818485 0.0686215 0.121354 0.187314 0.114148 0.119072 0.12639 0.11749 0.104152 0.162308 0.189893 0.181008 0.124653 0.430438 0.17414 0.102716 0.0974428 0.161929 0.190117 0.0776137 0.0716364
threshold=0.24180648475885394 3261.266967773438 0.46732176840305334 150.22221374511722 39.336233139038093 53.715135574340827 31.006114006042484 107.94463348388673 132.37756347656253 0.20651620626449588 68.389644622802749 2688.335327148438 35.226648330688484 0.25534293055534368 0.18756268918514254 131.50624084472659 7.7945156097412118 2493.043334960938 0.090026710182428374 0.21754048019647601 34.877656936645515 0.18580324947834018 92.738365173339858 100.73342514038087 246.19746398925784 2688.335327148438 0.62396207451820385 200.9824142456055 0.020110390149056915 0.38717223703861242
decision_type=2 2 2 2 2 2 2 2 2 2 2 2 2 2 2 2 2 2 2 2 2 2 2 2 2 2 2 2 2 2
left_child=10 2 9 7 6 -6 -5 -4 -9 -2 17 13 -13 14 -12 -16 -15 18 21 24 -21 23 -23 -1 -20 26 27 -19 -28 -14
right_child=1 -3 3 4 5 -7 -8 8 -10 -11 11 12 29 16 15 -17 -18 25 19 20 -22 22 -24 -25 -26 -27 28 -29 -30 -31
leaf_value=-0.0041555069391089111 -0.0028968254659592829 -0.00028485699824617355 -0.0033661364287316687 0.00078982067462436277 0.00068986153367770397 0.0017396698453331532 0.0029846540302707297 -0.0035058866418297818 0.00084858645411473943 0 -0.0027701108294784726 -0.0026431306159194513 0.002572859224972723 -0.0042617148964147486 0.0018943867363044016 0.00041399424542969143 0.00074485481139356744 0.0051321136808319297 6.8274258368550544e-05 -0.0036768702224633772 -0.00058679951030220516 0.001216781408683733 -0.00050953935717241213 -0.00086216877150668597 0.0024708724021472806 -2.3201445983878283e-05 0.0027151699523152461 0 -0.00019078901149569125 -3.6529382376057808e-05
leaf_weight=45 43 3879 27 103 927 923 319 21 124 54 20 71 28 22 268 336 22 42 4439 54 456 402 3437 478 45 30811 26 34 179 365
leaf_count=45 43 3879 27 103 927 923 319 21 124 54 20 71 28 22 268 336 22 42 4439 54 456 402 3437 478 45 30811 26 34 179 365
internal_value=0 0.000310108 0.0012203 0.00132131 0.00144989 0.0012164 0.00246111 -0.000347977 0.000181498 -0.0012718 -4.79234e-05 0.00033536 -0.000277884 0.000768787 0.000947523 0.00107934 -0.00164904 -5.87746e-05 -0.000205078 -9.42018e-06 -0.000924442 -0.000427933 -0.000327439 -0.00115583 9.35556e-05 -1.45886e-05 0.000911679 0.00288538 0.000154537 0.000137269
internal_weight=48000 6420 2541 2444 2272 1850 422 172 145 97 41580 1132 464 668 624 604 44 40448 9356 4994 510 4362 3839 523 4484 31092 281 76 205 393
internal_count=48000 6420 2541 2444 2272 1850 422 172 145 97 41580 1132 464 668 624 604 44 40448 9356 4994 510 4362 3839 523 4484 31092 281 76 205 393
is_linear=0
shrinkage=0.05


Tree=9
num_leaves=31
num_cat=0
split_feature=4 3 3 16 16 4 16 4 4 16 16 4 0 16 15 2 4 16 4 2 17 0 5 1 2 15 17 16 1 1
split_gain=2.83342 20.3976 11.2364 8.20891 2.76656 1.27834 0.919352 0.792589 0.478365 0.431378 0.329872 0.23922 0.217253 0.213166 0.208023 0.207139 0.198748 0.196535 0.186906 0.171616 0.171621 0.168683 0.211133 0.16236 0.154808 0.150708 0.14522 0.125595 0.124387 0.118189
threshold=5.5646476745605478 35.612251281738288 35.226648330688484 0.11661116778850557 0.20114284753799441 5.4590008258819589 0.14218323677778247 5.281170368194581 5.616452932357789 0.18170697242021563 0.27893126010894781 5.4755244255065927 163.28694152832034 0.35751318931579595 0.35582526028156286 137.21060943603518 5.5081737041473398 0.34113445878028875 5.9767754077911386 238.23350524902347 1.0245803594589236 145.41015625000003 92.738365173339858 59.878282546997077 193.85089111328128 0.075505889952182784 0.78744846582412731 0.32736775279045111 33.130037307739265 66.870925903320327
decision_type=2 2 2 2 2 2 2 2 2 2 2 2 2 2 2 2 2 2 2 2 2 2 2 2 2 2 2 2 2 2
left_child=2 4 3 5 8 29 11 13 21 -3 23 -4 18 -5 15 -9 24 -8 -12 20 -10 28 -23 25 -7 -6 -25 -11 -2 -1
right_child=1 9 6 7 10 16 17 14 19 27 12 -13 -14 -15 -16 -17 -18 -19 -20 -21 -22 22 -24 26 -26 -27 -28 -29 -30 -31
leaf_value=-0.0018188946883115555 -0.00025006086309786073 -0.00039053484559240675 0.00031807255275224022 -0.0046276302308270343 0.0048581855658669723 -0.00014205473346053611 0.00084808363909141783 0.00044085214485619598 0.0027287956561639561 -0.00086561555588398524 0.0049387288604225976 -6.2504519028060707e-05 0.0029994852106235725 -0.0063356293612268398 -9.5722792739845843e-05 -0.0034828305176607269 0.00029852249627771316 0.0021801664087119726 0.0074619281555336802 -0.00066332890755396701 0.00046164943380471406 0.0028963708427379954 -0.00014086310803705198 0.0015848105957305657 -0.0012656530002785491 0.0034612103373460935 0.0040931666375277429 -0.0015475399933504732 0.0018110311183688506 -0.00031949159871257304
leaf_weight=1755 74 8278 8229 940 348 996 4102 32 1882 4123 904 8252 144 255 52 1681 1723 303 90 38 93 70 298 167 451 558 98 838 1075 151
leaf_count=1755 74 8278 8229 940 348 996 4102 32 1882 4123 904 8252 144 255 52 1681 1723 303 90 38 93 70 298 167 451 558 98 838 1075 151
internal_value=0 0.000472955 -0.000312037 -0.00190094 0.00293487 -0.000679394 0.000299069 -0.00399394 0.00205182 -0.000612496 0.00428255 0.000127216 0.0049026 -0.00499678 -0.00331189 -0.00340659 -6.24752e-05 0.000940894 0.00517294 0.00256002 0.0026246 0.00137404 0.000423918 0.00367535 -0.000495776 0.00400379 0.00253248 -0.000981841 0.00167393 -0.00170275
internal_weight=48000 19078 28922 8036 5839 5076 20886 2960 3530 13239 2309 16481 1138 1195 1765 1713 3170 4405 994 2013 1975 1517 368 1171 1447 906 265 4961 1149 1906
internal_count=48000 19078 28922 8036 5839 5076 20886 2960 3530 13239 2309 16481 1138 1195 1765 1713 3170 4405 994 2013 1975 1517 368 1171 1447 906 265 4961 1149 1906
is_linear=0
shrinkage=0.05


Tree=10
num_leaves=31
num_cat=0
split_feature=4 3 18 4 16 16 16 4 4 16 16 16 4 17 2 19 19 3 3 1 3 16 1 17 1 16 4 4 1 4
split_gain=2.55778 18.4361 10.1749 7.42058 2.48083 1.23887 0.812172 0.631481 0.560274 0.36989 0.351098 0.248474 0.223884 0.244784 0.2544 0.215093 0.206846 0.192158 0.178294 0.176915 0.164233 0.158987 0.154443 0.161855 0.160999 0.153516 0.149115 0.133427 0.123288 0.123192
threshold=5.5646476745605478 34.51831245422364 3207.105102539063 5.4174561500549325 0.16091510653495791 0.16091510653495791 0.097486957907676711 5.7417724132537851 5.4849789142608651 0.15968117862939837 0.28277952969074255 0.22287920117378238 5.6022613048553476 1.108383893966675 224.769645690918 0.20148194581270221 0.20089161396026614 32.05546951293946 35.846841812133796 55.851633071899421 36.40858459472657 0.15826334059238437 61.746791839599616 0.78575778007507335 32.681364059448249 0.2872022837400437 5.3707828521728525 5.5174217224121103 45.58398628234864 5.8637971878051767
decision_type=2 2 2 2 2 2 2 2 2 2 2 2 2 2 2 2 2 2 2 2 2 2 2 2 2 2 2 2 2 2
left_child=2 4 3 5 12 21 27 28 -5 -3 16 -8 22 14 -14 -9 -7 19 -13 -10 -11 26 24 -24 -2 -22 -1 -4 -6 -17
right_child=1 9 6 8 7 10 11 15 17 20 -12 18 13 -15 -16 29 -18 -19 -20 -21 25 -23 23 -25 -26 -27 -28 -29 -30 -31
leaf_value=-0.00319476643955822 -0.00092108857485625724 -0.00031634510894921959 0.00016492174239657317 -0.0010546815322638825 0.0036845805344808032 -0.0043661502739555077 0.00054585162841841927 0.0049326792604409671 -9.2672734557632409e-05 0.00036463704388463444 -0.0053187804976195111 -0.0018190436743555007 0.0023099497683198816 -0.0031636948674647978 -0.00074325976178977321 0.0031100077731537304 -0.0031043571096405283 -0.0023307856432655317 0.0013220572182492504 0.00085816609923515552 -0.000756350034232111 0.00020145542690380263 0.0008510593094976321 -0.0026070318282215414 0.0015606238460416041 -0.0013612781030439126 -0.0021463112839802188 -0.00016632064752465422 0.0026821513989614063 0.004800972082158122
leaf_weight=561 68 7132 9546 1830 524 847 5253 1042 1639 263 606 45 1446 21 69 377 596 78 1702 693 4592 52 94 52 868 1401 1025 4449 951 178
leaf_count=561 68 7132 9546 1830 524 847 5253 1042 1639 263 606 45 1446 21 69 377 596 78 1702 693 4592 52 94 52 868 1401 1025 4449 951 178
internal_value=0 0.000449368 -0.000296463 -0.00182278 0.00283367 -0.00346344 0.00027959 0.00379879 -0.000394876 -0.000563619 -0.00428617 0.000719368 0.00169918 0.00209121 0.00216755 0.00449451 -0.00384871 0.000104087 0.00123819 0.000187769 -0.000844709 -0.00243103 0.00113789 -0.000347308 0.00137491 -0.00089862 -0.0025205 5.92623e-05 0.00304188 0.00366211
internal_weight=48000 19078 28922 7927 5690 3687 20995 3072 4240 13388 2049 7000 2618 1536 1515 1597 1443 2410 1747 2332 6256 1638 1082 146 936 5993 1586 13995 1475 555
internal_count=48000 19078 28922 7927 5690 3687 20995 3072 4240 13388 2049 7000 2618 1536 1515 1597 1443 2410 1747 2332 6256 1638 1082 146 936 5993 1586 13995 1475 555
is_linear=0
shrinkage=0.05


Tree=11
num_leaves=31
num_cat=0
split_feature=4 3 18 4 16 16 16 4 4 16 16 16 6 2 4 2 2 3 19 15 6 0 6 19 3 1 1 4 18 1
split_gain=2.30875 16.6404 9.18448 6.69749 2.23966 1.11775 0.736096 0.569326 0.507419 0.335168 0.315977 0.263831 0.207836 0.203106 0.20169 0.218091 0.187461 0.186458 0.185947 0.18591 0.176995 0.176633 0.168246 0.191271 0.161167 0.139773 0.150941 0.130719 0.118243 0.141001
threshold=5.5646476745605478 34.51831245422364 3207.105102539063 5.4174561500549325 0.16091510653495791 0.16091510653495791 0.077277112752199187 5.7417724132537851 5.4672372341156015 0.25554433465003973 0.28277952969074255 0.22287920117378238 23.053222656250004 238.23350524902347 5.6022613048553476 224.769645690918 187.3650817871094 32.05546951293946 0.20089161396026614 0.035197077319026 26.398838043212894 148.52382659912112 27.819863319396976 0.20130420476198199 35.846841812133796 59.643760681152351 32.681364059448249 5.6318564414978036 329.81143188476568 65.679515838623061
decision_type=2 2 2 2 2 2 2 2 2 2 2 2 2 2 2 2 2 2 2 2 2 2 2 2 2 2 2 2 2 2
left_child=2 4 3 5 14 22 -4 12 28 27 18 -8 16 21 25 -16 -6 19 -7 -10 -19 -9 23 -1 -13 26 -2 -3 -5 -30
right_child=1 9 6 8 7 10 11 13 17 -11 -12 24 -14 -15 15 -17 -18 20 -20 -21 -22 -23 -24 -25 -26 -27 -28 -29 29 -31
leaf_value=-0.0025267824638973541 -0.00087510187988458054 -0.00024266865849870806 2.2672834280869885e-05 0.00072061175024250019 0.0027855254291843483 -0.0041478685610837496 0.0004827642610585945 0.0047158700667052399 -0.0024170368357380617 -0.0011049206776102582 -0.0050528853488509239 -0.0017282931571888289 0.0031752852562096975 0.00096490221449445238 0.0021164044085188595 -0.00070615060595113541 9.2093036054867358e-05 -0.0038489878935622788 -0.0029491652769603805 0.00013604543074222957 0.00084674552437647181 0.0034634880349505587 -0.0038020193585226732 -0.0012774915921554757 0.0012559582370138633 -0.00013445681496052956 0.0015305343272125124 -0.00058682734993834127 -0.0014581166249518192 0.00036509275614711012
leaf_weight=987 68 5302 12564 74 149 847 6684 1118 73 2175 606 45 1205 49 1467 69 121 59 596 2737 28 430 177 474 1702 188 826 5911 1157 112
leaf_count=987 68 5302 12564 74 149 847 6684 1118 73 2175 606 45 1205 49 1467 69 121 59 596 2737 28 430 177 474 1702 188 826 5911 1157 112
internal_value=0 0.000426917 -0.000281678 -0.00173181 0.00269214 -0.0032905 0.000265611 0.00360921 -0.000375194 -0.000535458 -0.00407213 0.000627043 0.00288998 0.00427014 0.00161402 0.00198632 0.00159746 -1.03451e-06 -0.00365647 6.78569e-05 -0.00228108 0.00437146 -0.00230949 -0.00212501 0.00117613 0.00108076 0.00134189 -0.000424543 -0.00117851 -0.00129325
internal_weight=48000 19078 28922 7927 5690 3687 20995 3072 4240 13388 2049 8431 1475 1597 2618 1536 270 2897 1443 2810 87 1548 1638 1461 1747 1082 894 11213 1343 1269
internal_count=48000 19078 28922 7927 5690 3687 20995 3072 4240 13388 2049 8431 1475 1597 2618 1536 270 2897 1443 2810 87 1548 1638 1461 1747 1082 894 11213 1343 1269
is_linear=0
shrinkage=0.05


Tree=12
num_leaves=31
num_cat=0
split_feature=4 3 15 4 4 4 16 16 4 16 4 2 16 1 16 1 2 4 0 3 0 5 0 0 16 6 6 4 3 7
split_gain=2.08389 15.0483 8.2989 6.12203 2.05933 0.874078 0.724051 0.675625 0.450488 0.325491 0.254537 0.244578 0.212889 0.264761 0.199889 0.19676 0.166409 0.15987 0.173386 0.15473 0.144947 0.18887 0.134094 0.127893 0.127815 0.118064 0.183046 0.155062 0.117512 0.113978
threshold=5.5646476745605478 35.612251281738288 0.37419329583644872 5.3901274204254159 5.7223124504089364 5.4606785774230966 0.18015968054533008 0.20114284753799441 5.616452932357789 0.18170697242021563 5.4538872241973886 137.21060943603518 0.40738940238952642 61.371253967285163 0.34920318424701696 65.679515838623061 205.51391601562503 5.546093463897706 143.64948272705081 3.519709706306458 145.41015625000003 92.738365173339858 149.79035949707034 147.27148437500003 0.37786263227462774 24.719030380249027 24.557808876037601 5.6587278842926034 3.4089337587356572 1.5000000000000002
decision_type=2 2 2 2 2 2 2 2 2 2 2 2 2 2 2 2 2 2 2 2 2 2 2 2 2 2 2 2 2 2
left_child=2 4 3 7 8 29 10 11 20 -3 -4 -1 13 22 -9 -13 -15 18 -7 -19 28 -22 -6 -16 -8 26 -10 -27 -2 -5
right_child=1 9 6 5 12 17 24 14 25 -11 -12 15 -14 16 23 -17 -18 19 -20 -21 21 -23 -24 -25 -26 27 -28 -29 -30 -31
leaf_value=0.0016889542558785849 -0.00090373834576206033 -0.0003337588290599641 0.00035177692431229276 -0.004707275614841769 0.004259782316115796 -0.00044262761779158939 0.00090285800218869972 -0.0038672005726870526 0.0020403491982586477 -0.00084759395709947086 -2.7457861121332733e-05 -0.002931889112394356 0.0052408734501117847 0.0031353441487243453 -0.0062168229893031605 -0.00092288716696202759 0.00075972873409826383 -0.0033071665759135151 0.0004875429403656348 0.00092202076730943112 0.0026341866375014893 -0.00024106059080696327 0.0030042247120945246 -0.0037550617263239247 0.0023824642197533951 0.0019925696151908349 -0.00054017962362622499 0.0030896583033634289 0.0015587152078146147 -0.001359051321940548
leaf_weight=30 48 8278 7834 27 1017 1893 2783 1161 918 4961 10116 1491 256 247 187 141 114 22 677 528 70 298 312 93 159 633 71 754 1101 1780
leaf_count=30 48 8278 7834 27 1017 1893 2783 1161 918 4961 10116 1491 256 247 187 141 114 22 677 528 70 298 312 93 159 633 71 754 1101 1780
internal_value=0 0.000405588 -0.000267616 -0.00163384 0.00252021 -0.000536991 0.000257269 -0.00337375 0.00185376 -0.000526689 0.000137776 -0.00267801 0.00385071 0.00363687 -0.00417249 -0.00276145 0.00239941 -2.85222e-05 -0.000195643 0.000743194 0.0011737 0.000292845 0.00396903 -0.00541865 0.000984601 0.00228578 0.00185 0.00259275 0.00145142 -0.0014121
internal_weight=48000 19078 28922 8030 5839 4927 20892 3103 3893 13239 17950 1662 1946 1690 1441 1632 361 3120 2570 550 1517 368 1329 280 2942 2376 989 1387 1149 1807
internal_count=48000 19078 28922 8030 5839 4927 20892 3103 3893 13239 17950 1662 1946 1690 1441 1632 361 3120 2570 550 1517 368 1329 280 2942 2376 989 1387 1149 1807
is_linear=0
shrinkage=0.05


Tree=13
num_leaves=31
num_cat=0
split_feature=4 3 18 16 16 4 16 16 4 4 16 19 16 3 4 0 0 0 6 4 3 2 18 0 5 19 16 6 0 4
split_gain=1.88123 13.584 7.49705 5.49763 1.86068 0.85394 0.610026 0.495269 0.319211 0.30581 0.238296 0.198596 0.185888 0.206063 0.165437 0.189709 0.148102 0.144945 0.198184 0.148665 0.143294 0.138704 0.136421 0.130699 0.170535 0.128275 0.120395 0.11495 0.114497 0.112443
threshold=5.5646476745605478 35.612251281738288 3207.105102539063 0.11661116778850557 0.20114284753799441 5.4590008258819589 0.097486957907676711 0.26788954436779028 5.616452932357789 5.7461645603179941 0.40738940238952642 0.20130420476198199 0.23898534476757052 35.846841812133796 5.546093463897706 134.31805419921878 97.893783569335952 147.70458984375003 26.224079132080082 5.7417724132537851 3.519709706306458 238.23350524902347 1712.0323486328127 145.41015625000003 92.738365173339858 0.21381787210702899 0.11760424077510835 29.052865982055668 96.211608886718764 5.5174217224121103
decision_type=2 2 2 2 2 2 2 2 2 2 2 2 2 2 2 2 2 2 2 2 2 2 2 2 2 2 2 2 2 2
left_child=2 4 3 5 8 27 29 11 23 -3 17 22 -8 -14 15 -7 -13 19 -19 -6 -16 26 -5 25 -25 -2 -10 -1 -9 -4
right_child=1 9 6 7 10 14 12 28 21 -11 -12 16 13 -15 20 -17 -18 18 -20 -21 -22 -23 -24 24 -26 -27 -28 -29 -30 -31
leaf_value=-0.0013157275385128977 0.001494378290152306 -0.00038668632065301073 0.00014620469078436071 -0.0035793492714995333 0.0028582625178675517 -0.00057323771244793625 0.00049079040131913207 -0.0070041615474318586 0.0057048165599307213 -0.0010129988868713676 0.0049789320972125524 -0.0044812322638067992 -0.0025987788469681882 0.0012384277999484001 -0.0031425564718428507 0.00029646050286714399 -0.0019940915316987834 0.0032534189375347938 0.0012201178903453263 0.0039652401096464517 0.00092587028461096519 -0.00081094881969447834 -0.0024728410995620009 0.0025026652060539467 -0.00022901158245241409 -0.0010133779283071668 0.0020952490696507522 -0.0034439590535842307 -0.0042761256035980764 -0.00015788009626680553
leaf_weight=1818 1098 10844 9546 1055 510 1522 5598 48 25 2395 256 70 35 1367 22 1058 679 393 186 964 515 38 431 70 298 51 1950 69 640 4449
leaf_count=1818 1098 10844 9546 1055 510 1522 5598 48 25 2395 256 70 35 1367 22 1058 679 393 186 964 515 38 431 70 298 51 1950 69 640 4449
internal_value=0 0.000385367 -0.000254265 -0.00156444 0.00239447 -0.000556839 0.000240179 -0.0032876 0.00166981 -0.000500374 0.00350005 -0.00291975 0.000621324 0.00113889 -4.69587e-05 -0.000214658 -0.00223378 0.00331298 0.00260919 0.00358584 0.00074933 0.00208546 -0.00326197 0.00111486 0.000277556 0.00137864 0.00214376 -0.00139638 -0.00447471 4.91787e-05
internal_weight=48000 19078 28922 7927 5839 5004 20995 2923 3530 13239 2309 2235 7000 1402 3117 2580 749 2053 579 1474 537 2013 1486 1517 368 1149 1975 1887 688 13995
internal_count=48000 19078 28922 7927 5839 5004 20995 2923 3530 13239 2309 2235 7000 1402 3117 2580 749 2053 579 1474 537 2013 1486 1517 368 1149 1975 1887 688 13995
is_linear=0
shrinkage=0.05


Tree=14
num_leaves=31
num_cat=0
split_feature=4 13 18 4 16 16 16 4 4 16 16 16 6 17 2 19 1 4 6 16 1 1 6 16 13 17 16 6 2 13
split_gain=1.69839 12.2818 6.76803 4.98658 1.67327 0.851561 0.55323 0.421795 0.398413 0.267961 0.237983 0.19833 0.182718 0.17748 0.172791 0.165461 0.161075 0.157963 0.151691 0.162076 0.151397 0.147383 0.142166 0.129175 0.123729 0.121985 0.121483 0.119712 0.122509 0.119384
threshold=5.5646476745605478 34.51831245422364 3207.105102539063 5.4174561500549325 0.16091510653495791 0.16091510653495791 0.077277112752199187 5.7417724132537851 5.5081737041473398 0.15968117862939837 0.33450822532176977 0.22287920117378238 23.053222656250004 0.74563622474670421 238.23350524902347 0.24039271473884585 59.878282546997077 5.6022613048553476 27.819863319396976 0.15826334059238437 81.224212646484389 40.832118988037116 22.721220970153812 0.040405930951237685 36.40858459472657 1.0432413816452029 0.32736775279045111 23.725957870483402 199.68442535400393 35.846841812133796
decision_type=2 2 2 2 2 2 2 2 2 2 2 2 2 2 2 2 2 2 2 2 2 2 2 2 2 2 2 2 2 2
left_child=2 4 3 5 15 18 -4 12 20 -3 16 -8 13 -6 21 17 -7 22 19 -1 23 -9 -2 -5 27 -19 -26 -11 -29 -13
right_child=1 9 6 8 7 10 11 14 -10 24 -12 29 -14 -15 -16 -17 -18 25 -20 -21 -22 -23 -24 -25 26 -27 -28 28 -30 -31
leaf_value=-0.0018965646814179432 0.002281933684984735 -0.00024999748194933771 1.7505731352804529e-05 -0.00042116502720576188 0.00013462215145076503 -0.0035003570663127339 0.00041624939608964832 0.0047280111607553169 0.00027491017903531002 -0.00085365424249970198 -0.0047299673495133365 -0.0014751614494499092 0.002751682689568765 0.0027631841136909682 0.00062533915540783876 -0.001236064065530759 -0.002205794809882975 0.0018511192855148206 -0.0033893208422320509 0.0010191366048292465 0.0032770096949297626 0.0034914068183604062 0.0006980414256249366 -0.0011493110094647108 -0.00065592218347319527 -0.00083078080295401549 -0.0013231224714835886 0.00064795033964524769 0.0047627924638062851 0.0010867698930836385
leaf_weight=1414 174 7132 12564 1384 155 1376 6684 342 1699 113 352 45 1205 115 49 57 321 1459 177 47 23 1206 887 1134 5185 41 808 128 22 1702
leaf_count=1414 174 7132 12564 1384 155 1376 6684 342 1699 113 352 45 1205 115 49 57 321 1459 177 47 23 1206 887 1134 5185 41 808 128 22 1702
internal_value=0 0.000366145 -0.000241609 -0.00148646 0.00231224 -0.00283142 0.00022817 0.00310508 -0.000315693 -0.000460598 -0.003514 0.000541509 0.00248456 0.00127332 0.00367487 0.00137992 -0.00325857 0.00144014 -0.00197435 -0.00179928 -0.000712553 0.00376813 0.000962696 -0.000751109 -0.000699881 0.00177443 -0.000746732 0.000348582 0.00128754 0.00101784
internal_weight=48000 19078 28922 7927 5690 3687 20995 3072 4240 13388 2049 8431 1475 270 1597 2618 1697 2561 1638 1461 2541 1548 1061 2518 6256 1500 5993 263 150 1747
internal_count=48000 19078 28922 7927 5690 3687 20995 3072 4240 13388 2049 8431 1475 270 1597 2618 1697 2561 1638 1461 2541 1548 1061 2518 6256 1500 5993 263 150 1747
is_linear=0
shrinkage=0.05


Tree=15
num_leaves=31
num_cat=0
split_feature=4 13 15 4 16 4 16 16 16 16 2 15 4 6 17 0 19 0 4 4 0 0 4 19 6 6 13 17 16 6
split_gain=1.53316 11.0869 6.12154 4.5348 1.51047 0.834077 0.566986 0.384162 0.380423 0.241744 0.239035 0.250936 0.203201 0.158135 0.218844 0.156627 0.149615 0.144791 0.14213 0.137328 0.133746 0.161425 0.132039 0.177693 0.148368 0.128133 0.111826 0.110437 0.109499 0.108543
threshold=5.5646476745605478 34.51831245422364 0.3777767568826676 5.3707828521728525 0.16091510653495791 5.4590008258819589 0.18015968054533008 0.26788954436779028 0.27893126010894781 0.15968117862939837 137.21060943603518 0.35582526028156286 5.4755244255065927 23.053222656250004 0.75338983535766613 163.28694152832034 0.24039271473884585 148.10752868652347 5.6022613048553476 5.9767754077911386 169.07521820068362 176.25382995605472 5.5146360397338876 0.20895212143659594 24.852163314819339 22.721220970153812 36.40858459472657 1.0432413816452029 0.32736775279045111 23.616908073425297
decision_type=2 2 2 2 2 2 2 2 2 2 2 2 2 2 2 2 2 2 2 2 2 2 2 2 2 2 2 2 2 2
left_child=2 4 3 7 16 -5 12 10 13 -3 -1 -12 -4 14 -6 19 18 -15 25 -10 -9 -22 23 -7 -24 -2 29 -20 -28 -11
right_child=1 9 6 5 8 22 -8 20 15 26 11 -13 -14 17 -16 -17 -18 -19 27 -21 21 -23 24 -25 -26 -27 28 -29 -30 -31
leaf_value=0.0015585877499138859 0.0021679025252779229 -0.00023749777576227306 0.00027586088934375213 -0.0013012396653587768 0.00044933461208328696 -0.00053315714873521309 0.00087296878520272132 -0.0042980429614039072 0.0037231775226648821 -0.00086804211712951038 -0.0028851490385831038 -0.00018119711695052391 -6.2129967023684301e-05 0.003022059044501502 0.0030144706246473217 0.0020659170662728648 -0.0011743690010139615 0.0018914108756251527 0.0017585696429979374 0.0059012402067489846 0.00086146892269247592 -0.0039721369736013916 0.00081002326555684723 0.0010808226585295956 -0.00016697512720704758 0.0006631433668078618 -0.00062312670550289623 -0.00078934284491881444 -0.0012569745200090869 0.0011858831498445109
leaf_weight=31 174 7132 9642 2197 206 1477 2913 638 887 107 1910 94 8217 1192 146 142 57 410 1459 89 29 38 737 191 808 887 5185 41 808 156
leaf_count=31 174 7132 9642 2197 206 1477 2913 638 887 107 1910 94 8217 1192 146 142 57 410 1459 89 29 38 737 191 808 887 5185 41 808 156
internal_value=0 0.000347895 -0.000229539 -0.00139092 0.00219691 -0.000550415 0.000225899 -0.00304856 0.00295026 -0.000437586 -0.0026925 -0.00276083 0.00012007 0.002521 0.00152804 0.00369573 0.00131093 0.00273595 0.00136824 0.0039275 -0.00406871 -0.0018073 -3.54317e-05 -0.000345292 0.000295861 0.000914811 -0.000664885 0.00168555 -0.000709438 0.000331239
internal_weight=48000 19078 28922 8150 5690 5410 20772 2740 3072 13388 2035 2004 17859 1954 352 1118 2618 1602 2561 976 705 67 3213 1668 1545 1061 6256 1500 5993 263
internal_count=48000 19078 28922 8150 5690 5410 20772 2740 3072 13388 2035 2004 17859 1954 352 1118 2618 1602 2561 976 705 67 3213 1668 1545 1061 6256 1500 5993 263
is_linear=0
shrinkage=0.05


Tree=16
num_leaves=31
num_cat=0
split_feature=4 3 15 16 4 16 16 4 16 4 17 4 19 1 4 16 6 1 5 19 1 14 4 1 14 16 17 6 1 1
split_gain=1.38402 10.0116 5.52522 4.0956 1.39157 0.750928 0.511684 0.322604 0.302959 0.235511 0.189958 0.185924 0.176253 0.171658 0.188989 0.164323 0.161665 0.156995 0.155688 0.185195 0.144753 0.143965 0.143766 0.130036 0.128456 0.125028 0.123401 0.193047 0.176081 0.117764
threshold=5.5646476745605478 35.612251281738288 0.3777767568826676 0.081905044615268721 5.7223124504089364 0.18963271379470828 0.18015968054533008 5.4849789142608651 0.14447193592786792 5.7461645603179941 0.93074676394462597 5.4434163570404062 0.20130420476198199 61.371253967285163 5.9285230636596689 0.35751318931579595 24.787687301635746 33.130037307739265 94.360042572021499 0.18419826030731204 50.565677642822273 133.45573425292972 5.6458382606506357 54.11189270019532 158.48643493652347 0.016923765651881698 0.74349859356880199 21.212499618530277 26.763827323913578 67.608566284179702
decision_type=2 2 2 2 2 2 2 2 2 2 2 2 2 2 2 2 2 2 2 2 2 2 2 2 2 2 2 2 2 2
left_child=2 4 3 7 8 10 11 18 17 -3 12 -4 -5 -6 -15 -7 21 24 19 -1 -19 -10 -18 -12 -2 -20 28 -28 -9 -17
right_child=1 9 6 5 13 15 -8 26 16 -11 23 -13 -14 14 -16 29 22 20 25 -21 -22 -23 -24 -25 -26 -27 27 -29 -30 -31
leaf_value=-0.0017388388275318756 0.00015812574018957609 -0.00032995240161412141 0.00031596484128110865 -0.0023736418931222044 0.0034092678936473893 -0.0031023367968229664 0.00082932184600402665 0.00412661586787342 0.0020802046414231637 -0.00087978870199402731 0.00050248187503981105 -1.442900236334078e-05 -0.0013149761098103022 0.0017871378940021278 0.0047765565016085199 -0.0048933538577055104 0.0067929788216929965 0.0016475542313115416 -0.0042270335449001491 0.00017792395507590668 0.00080749409043855873 0.00058410700859277953 0.0023701410617810517 -0.0020113600086762314 -0.0040095270562793403 -0.0010493129523628875 -0.0028971038692061552 0.00066592135273533235 -0.00026415781943492025 -0.0010092814641599302
leaf_weight=158 136 10844 6960 1369 1508 1381 2913 23 381 2395 130 10899 589 373 65 232 20 1100 33 607 1025 298 912 83 21 1066 39 982 1433 25
leaf_count=158 136 10844 6960 1369 1508 1381 2913 23 381 2395 130 10899 589 373 65 232 20 1100 33 607 1025 298 912 83 21 1066 39 982 1433 25
internal_value=0 0.000330558 -0.000218072 -0.00132144 0.00205539 -0.00251815 0.000214604 -0.000270207 0.00150713 -0.000429804 -0.0019028 0.000114053 -0.00205781 0.00314951 0.00224318 -0.00333052 0.00203602 0.00113148 -0.000767384 -0.000211597 0.00124476 0.00143114 0.00247113 -0.000454111 -0.000369702 -0.00114966 0.000101928 0.000524654 -0.000191086 -0.00453551
internal_weight=48000 19078 28922 8150 5839 3809 20772 4341 3893 13239 2171 17859 1958 1946 438 1638 1611 2282 1864 765 2125 679 932 213 157 1099 2477 1021 1456 257
internal_count=48000 19078 28922 8150 5839 3809 20772 4341 3893 13239 2171 17859 1958 1946 438 1638 1611 2282 1864 765 2125 679 932 213 157 1099 2477 1021 1456 257
is_linear=0
shrinkage=0.05


Tree=17
num_leaves=31
num_cat=0
split_feature=4 3 3 4 16 16 16 4 16 16 15 19 4 19 6 17 6 16 6 17 19 19 6 4 4 17 17 6 6 17
split_gain=1.2497 9.05252 4.99562 3.73497 1.24199 0.653954 0.454736 0.32258 0.303704 0.207891 0.200151 0.217005 0.190843 0.157219 0.143768 0.149416 0.143732 0.143477 0.13772 0.136486 0.133007 0.128816 0.127339 0.125758 0.123661 0.12371 0.119921 0.134061 0.109844 0.0986578
threshold=5.5646476745605478 34.51831245422364 35.612251281738288 5.3707828521728525 0.16091510653495791 0.064279846847057356 0.14218323677778247 5.7417724132537851 0.26788954436779028 0.15968117862939837 0.35582526028156286 0.20148194581270221 5.5129668712615976 0.20148194581270221 23.053222656250004 0.74563622474670421 28.065939903259281 0.34113445878028875 26.199909210205082 1.0245803594589236 0.24039271473884585 0.20895212143659594 24.852163314819339 5.5129668712615976 5.6022613048553476 0.54495510458946239 1.0088521838188174 23.934220314025882 24.651058197021488 1.0432413816452029
decision_type=2 2 2 2 2 2 2 2 2 2 2 2 2 2 2 2 2 2 2 2 2 2 2 2 2 2 2 2 2 2
left_child=2 4 3 8 20 12 23 14 10 -3 11 -1 21 -9 15 -6 19 -8 -15 -7 24 -5 -14 -4 25 -2 -10 -28 -12 -26
right_child=1 9 6 5 7 16 17 13 26 -11 28 -13 22 18 -16 -17 -18 -19 -20 -21 -22 -23 -24 -25 29 -27 27 -29 -30 -31
leaf_value=-0.0029027045321051649 0.0025019085935463984 -0.0002100113643050337 0.00017251382661628126 -0.0005756078785696168 1.324579866661861e-06 -0.0013118440476587679 0.00057800680560878817 0.0035405783719654501 -0.0038716500407236284 -0.00060641798639394129 0.0013615428497084155 -0.0017243618847418156 0.00074227920079387218 0.0030473851362299285 0.002361436446063141 0.0024122214249510613 -0.0029404049941107995 0.0017247871851809775 0.0013387743406409953 0.001080105803401741 -0.0011613511429421095 0.00061290025610696776 -0.00014868844819719999 -0.00013093316719714086 0.001600555148024955 0.00063068768174994046 0.0013571433711379642 -0.0034136279107513908 -0.0023550045764294228 -0.00080620659112481648
leaf_weight=1354 100 7132 11579 2016 155 1357 4074 1042 648 6256 52 587 758 360 1205 115 136 298 195 60 57 253 836 4824 1459 961 24 34 32 41
leaf_count=1354 100 7132 11579 2016 155 1357 4074 1042 648 6256 52 587 758 360 1205 115 136 298 195 60 57 253 836 4824 1459 961 24 34 32 41
internal_value=0 0.000314114 -0.000207215 -0.00125665 0.00198491 -0.000495289 0.000204087 0.00266815 -0.00276464 -0.000395623 -0.0024456 -0.00254903 -0.000145467 0.00316711 0.00212434 0.00104721 -0.00136216 0.000657354 0.00245642 -0.00120696 0.00118121 -0.000440861 0.00027188 8.29673e-05 0.00123534 0.000811983 -0.00367216 -0.00135452 0 0.00153139
internal_weight=48000 19078 28922 8147 5690 5416 20775 3072 2731 13388 2025 1941 3863 1597 1475 270 1553 4372 555 1417 2618 2269 1594 16403 2561 1061 706 58 84 1500
internal_count=48000 19078 28922 8147 5690 5416 20775 3072 2731 13388 2025 1941 3863 1597 1475 270 1553 4372 555 1417 2618 2269 1594 16403 2561 1061 706 58 84 1500
is_linear=0
shrinkage=0.05


Tree=18
num_leaves=31
num_cat=0
split_feature=4 3 3 4 16 4 16 16 2 16 4 1 15 16 1 2 17 4 1 17 17 5 15 16 16 19 15 0 15 17
split_gain=1.12816 8.17472 4.50932 3.3712 1.14167 0.594435 0.413276 0.27352 0.212506 0.203265 0.198266 0.194951 0.191262 0.181098 0.194333 0.168663 0.137133 0.1365 0.121539 0.119614 0.184067 0.118189 0.115611 0.115092 0.11035 0.1365 0.116634 0.109708 0.10066 0.0892813
threshold=5.5646476745605478 35.612251281738288 35.612251281738288 5.3707828521728525 0.20114284753799441 5.4590008258819589 0.16516619920730594 0.26788954436779028 137.21060943603518 0.22742936760187152 5.616452932357789 66.870925903320327 0.35582526028156286 0.40738940238952642 64.256637573242202 184.87080383300784 0.49568608403205877 5.4434163570404062 77.059864044189467 1.0245803594589236 0.82164913415908825 92.654705047607436 0.12903724610805514 0.35751318931579595 0.049285475164651878 0.20373246818780902 0.055185377597808845 96.211608886718764 0.055185377597808845 1.0088521838188174
decision_type=2 2 2 2 2 2 2 2 2 2 2 2 2 2 2 2 2 2 2 2 2 2 2 2 2 2 2 2 2 2
left_child=2 4 3 7 10 11 17 8 -1 -3 18 21 -10 14 16 -13 -6 -4 28 20 -12 -5 -21 -8 26 -26 -7 -9 -2 -29
right_child=1 9 6 5 13 24 23 27 12 -11 19 15 -14 -15 -16 -17 -18 -19 -20 22 -22 -23 -24 -25 25 -27 -28 29 -30 -31
leaf_value=0.0016868243211059803 0.00017928241478693623 -0.00028282332330999187 0.00027670186640734454 -0.0004665928167142373 0.00086622370074164543 0.00042065213046532565 0.00061708178845550164 -0.0059060972320511482 -0.002491106309337679 -0.00075524298799548722 0.0014369610688472667 0.0023746082711173684 0 0.0040130421739427626 0.0013801664698891523 -0.00078461848395451346 0.0028785866564307486 -1.2974438394013487e-05 -0.0029547732935022949 0.0010767000383874934 0.0026472967442790277 -0.0014360762247633662 -0.0026821045963050321 0.0018009765121624701 0.00027760457445503035 0.0026084016116780517 -0.00033959806571609054 -0.0034865390529509165 0.0011423820386078655 -0.0012826671573796698
leaf_weight=31 375 10286 6460 411 97 659 3195 49 1910 2953 1504 71 84 256 313 101 1643 10895 20 63 416 1616 30 225 379 77 2102 599 1122 58
leaf_count=31 375 10286 6460 411 97 659 3195 49 1910 2953 1504 71 84 256 313 101 1643 10895 20 63 416 1616 30 225 379 77 2102 599 1122 58
internal_value=0 0.000298465 -0.000196865 -0.00119392 0.00185707 -0.000470527 0.000193896 -0.00262661 -0.00232346 -0.000388581 0.00128886 -0.00110416 -0.00238839 0.00272348 0.00256005 0.00049105 0.00276933 9.45638e-05 0.000850125 0.00161695 0.00170193 -0.001242 -8.36904e-05 0.000696482 -3.58303e-05 0.00068263 -0.000156321 -0.0034886 0.000904492 -0.00329982
internal_weight=48000 19078 28922 8147 5839 5416 20775 2731 2025 13239 3530 2199 1994 2309 2053 172 1740 17355 1517 2013 1920 2027 93 3420 3217 456 2761 706 1497 657
internal_count=48000 19078 28922 8147 5839 5416 20775 2731 2025 13239 3530 2199 1994 2309 2053 172 1740 17355 1517 2013 1920 2027 93 3420 3217 456 2761 706 1497 657
is_linear=0
shrinkage=0.05


Tree=19
num_leaves=31
num_cat=0
split_feature=4 3 18 4 16 16 16 16 4 1 15 16 0 16 16 16 19 18 0 1 19 4 19 6 6 16 19 15 2 19
split_gain=1.01844 7.39105 4.07511 3.04366 1.02508 0.539884 0.35094 0.278021 0.253077 0.200259 0.196732 0.177422 0.163997 0.151345 0.146479 0.143292 0.13682 0.164922 0.134048 0.126334 0.117553 0.113264 0.113166 0.110839 0.130528 0.107456 0.169619 0.13058 0.101719 0.101592
threshold=5.5646476745605478 34.51831245422364 3207.105102539063 5.4174561500549325 0.16091510653495791 0.16091510653495791 0.077277112752199187 0.27893126010894781 5.509747028350831 40.832118988037116 0.32895047962665563 0.15968117862939837 135.22769165039065 0.35751318931579595 0.15826334059238437 0.29131433367729193 0.20895212143659594 471.47122192382818 163.28694152832034 38.681438446044929 0.24039271473884585 5.9767754077911386 0.19810571521520617 20.169959068298343 24.852163314819339 0.071188714355230345 0.18703145533800128 0.055185377597808845 173.72331237792972 0.18504174053668979
decision_type=2 2 2 2 2 2 2 2 2 2 2 2 2 2 2 2 2 2 2 2 2 2 2 2 2 2 2 2 2 2
left_child=2 4 3 5 20 14 -4 9 16 12 13 -3 -6 -7 19 -8 22 -18 21 -1 25 -9 -5 -10 -25 26 -2 -27 -11 -12
right_child=1 11 6 8 7 10 15 18 23 28 29 -13 -14 -15 -16 -17 17 -19 -20 -21 -22 -23 -24 24 -26 27 -28 -29 -30 -31
leaf_value=-0.002602689678264292 -0.0035279573149390232 -0.00018614320530478944 9.5874464212871353e-06 -0.0002937825938491899 0.0038662040216563363 -0.0026689708693991929 0.00036622824175758641 0.0030800087447513105 -0.0027461779816694977 0.002317740783595815 0.0020121814123048535 -0.00055243171713504301 0.001850141205429548 -0.004042104055304056 0.001031705792886053 0.0011408214343743295 0.0025294009243472691 -0.0001869372642103729 0.0015469966597801454 -0.0013940963154974667 -0.0011385062062260025 0.0050582406087412678 -0.0010087933655174668 0.00079263624853156988 -0.00010410850789249436 0.00057888785260655701 0.00060125915739143163 0.0014346795756347106 0.0014379719242665534 -0.001724290340894135
leaf_weight=275 29 7132 12564 1051 249 1727 7776 887 30 556 30 6256 192 247 52 655 72 237 142 1311 57 89 1230 740 880 631 171 1730 957 45
leaf_count=275 29 7132 12564 1051 249 1727 7776 887 30 556 30 6256 192 247 52 655 72 237 142 1311 57 89 1230 740 880 631 171 1730 957 45
internal_value=0 0.000283596 -0.00018703 -0.001153 0.00179331 -0.0022038 0.000177453 0.00241413 -0.000238042 0.00204629 -0.00274783 -0.00035768 0.00300042 -0.00284352 -0.00152008 0.000427012 -0.000546954 0.000430433 0.00305231 -0.00160696 0.00106286 0.00326602 -0.000681562 0.00024383 0.000302453 0.00111385 0 0.00120811 0.00176471 -0.000162435
internal_weight=48000 19078 28922 7927 5690 3687 20995 3072 4240 1954 2049 13388 441 1974 1638 8431 2590 309 1118 1586 2618 976 2281 1650 1620 2561 200 2361 1513 75
internal_count=48000 19078 28922 7927 5690 3687 20995 3072 4240 1954 2049 13388 441 1974 1638 8431 2590 309 1118 1586 2618 976 2281 1650 1620 2561 200 2361 1513 75
is_linear=0
shrinkage=0.05


Tree=20
num_leaves=31
num_cat=0
split_feature=4 3 15 4 16 4 16 4 4 4 19 1 1 16 3 15 3 4 18 1 1 3 15 17 17 3 17 1 1 1
split_gain=0.919505 6.68377 3.68258 2.77184 0.95207 0.518278 0.360375 0.240431 0.19741 0.181947 0.17258 0.276912 0.170783 0.169885 0.149185 0.14714 0.228856 0.136804 0.133247 0.13232 0.12225 0.174757 0.145371 0.112874 0.137754 0.13285 0.108156 0.101905 0.124398 0.11433
threshold=5.5646476745605478 35.846841812133796 0.3777767568826676 5.3707828521728525 0.22517887502908709 5.4672372341156015 0.18015968054533008 5.2156641483306894 5.616452932357789 5.76062035560608 0.20142564177513125 60.13903999328614 40.832118988037116 0.40738940238952642 3.7799216508865361 0.035197077319026 3.4089337587356572 5.4865026473999032 329.81143188476568 31.006114006042484 66.870925903320327 10.870288848876955 0.26222878694534307 0.93740680813789379 1.0088521838188174 21.872735977172855 0.50997447967529308 31.006114006042484 39.336233139038093 23.716965675354007
decision_type=2 2 2 2 2 2 2 2 2 2 2 2 2 2 2 2 2 2 2 2 2 2 2 2 2 2 2 2 2 2
left_child=2 4 3 7 8 20 17 -1 23 -3 11 -9 18 14 -14 -7 -17 -4 -6 -20 22 -22 -5 25 -25 -2 -12 29 -29 -10
right_child=1 9 6 5 12 15 -8 10 27 -11 26 -13 13 -15 -16 16 -18 -19 19 -21 21 -23 -24 24 -26 -27 -28 28 -30 -31
leaf_value=-0.003269064105182528 0.001146911384863116 -0.00027680443928773711 0.00020504801053379884 -0.0012374026303618663 0 -0.0021948545121380147 0.00069141496557547949 -0.0026656643937513127 0.0033596512847649516 -0.00079421453716664895 -0.0031839574828160266 -0.00044849231222129129 0.0038606973707620918 0.0036603734787261674 0.0019214428680183521 0.0036928076217093626 1.9682770960629137e-05 -7.6630154412300495e-05 0.0018923611802013286 0.0042372278665022351 0.0017185627476660637 -0.0013587438483975622 -0.00010265636255316429 -0.0021454059667672734 0.0010869505960484983 -5.4018134870927194e-05 -0.0011717257065645412 0.0024392498432418567 0.0014092171569280258 -0.00083723726151367119
leaf_weight=606 1120 11152 10650 1899 28 73 2913 1313 20 2023 80 164 115 214 1179 43 2868 7209 86 306 98 86 343 70 60 280 577 365 1976 84
leaf_count=606 1120 11152 10650 1899 28 73 2913 1313 20 2023 80 164 115 214 1179 43 2868 7209 86 306 98 86 343 70 60 280 577 365 1976 84
internal_value=0 0.000269486 -0.000177698 -0.0010785 0.00166777 -0.000421138 0.0001755 -0.00237455 0.00122309 -0.000356637 -0.00211804 -0.00242291 0.00258187 0.00232321 0.00209794 1.84874e-05 7.57831e-05 9.10655e-05 0.00349794 0.00373616 -0.000963921 0.00025314 -0.00106604 0.000770837 -0.000615428 0.000903168 -0.0014248 0.001504 0.00157205 0
internal_weight=48000 19078 28922 8150 5903 5410 20772 2740 3975 13175 2134 1477 1928 1508 1294 2984 2911 17859 420 392 2426 184 2242 1530 130 1400 657 2445 2341 104
internal_count=48000 19078 28922 8150 5903 5410 20772 2740 3975 13175 2134 1477 1928 1508 1294 2984 2911 17859 420 392 2426 184 2242 1530 130 1400 657 2445 2341 104
is_linear=0
shrinkage=0.05


Tree=21
num_leaves=31
num_cat=0
split_feature=4 3 3 4 4 16 16 16 16 4 18 3 4 0 1 19 6 1 0 19 1 19 6 6 3 1 6 16 0 16
split_gain=0.830267 6.03489 3.32924 2.50576 0.852351 0.461447 0.316257 0.236878 0.216621 0.158825 0.152004 0.156923 0.137783 0.137236 0.212914 0.191945 0.1316 0.143787 0.131243 0.157692 0.130988 0.13047 0.126799 0.169019 0.126525 0.116545 0.114205 0.14983 0.142681 0.10807
threshold=5.5646476745605478 34.51831245422364 35.612251281738288 5.3707828521728525 5.7417724132537851 0.064279846847057356 0.14218323677778247 0.14447193592786792 0.20114284753799441 5.6318564414978036 809.55911254882824 9.2144856452941912 5.546093463897706 158.48643493652347 48.140331268310554 0.21381787210702899 28.065939903259281 26.763827323913578 97.893783569335952 0.20070797204971316 48.312019348144538 0.20148194581270221 26.199909210205082 27.013390541076664 22.718147277832035 45.349365234375007 24.787687301635746 0.23447360843420031 134.79922485351565 0.34113445878028875
decision_type=2 2 2 2 2 2 2 2 2 2 2 2 2 2 2 2 2 2 2 2 2 2 2 2 2 2 2 2 2 2
left_child=2 4 3 8 7 12 -4 13 10 -3 20 -12 25 15 -15 -2 17 -7 -10 -20 -1 -6 -23 -24 -14 -5 28 -28 -9 -8
right_child=1 9 6 5 21 16 29 26 18 -11 11 -13 24 14 -16 -17 -18 -19 19 -21 -22 22 23 -25 -26 -27 27 -29 -30 -31
leaf_value=-0.0032196831338488921 0.0011328092527542737 -0.00010943641292192395 6.5817055536559791e-05 -0.00061477889239308907 0.0029425768616576503 -0.0047799616755242365 0.00047582684301723365 0.0017685289185005856 -0.0044262607501144293 -0.00046299663920629214 0.0016908161734160571 -0.001445240046633807 0.00096752108324022704 -0.0022573826769990662 0.00085494422143861143 -0.0010903951777585313 -0.0026373045112738219 -0.00090944099645712956 -0.003026522618137881 -0.0018996958796772484 -0.0016693604890169408 0.0025195313135260404 -0.0010315639008375978 0.0020027075928794468 -0.0010525081582271835 0 0.0021336810655624857 -0.00051842773212172556 0.00039928437977042807 0.0014719910433834418
leaf_weight=264 1882 5302 16403 1236 1042 25 4074 457 108 8086 41 643 458 85 153 100 136 1392 762 585 328 360 70 125 91 2078 1018 53 345 298
leaf_count=264 1882 5302 16403 1236 1042 25 4074 457 108 8086 41 643 458 85 153 100 136 1392 762 585 328 360 70 125 91 2078 1018 53 345 298
internal_value=0 0.000256082 -0.000168849 -0.00102557 0.00162029 -0.000401758 0.000166881 0.00123566 -0.0022608 -0.000323353 -0.00177335 -0.00124973 -0.000107689 0.000881357 -0.000236083 0.00101807 -0.00112996 -0.000981589 -0.0026847 -0.00254103 -0.00236959 0.00260282 0.00195552 0.000887884 0.000623453 -0.000230334 0.00165285 0.00199773 0.00118587 0.000544902
internal_weight=48000 19078 28922 8147 5690 5416 20775 4093 2731 13388 1276 684 3863 2220 238 1982 1553 1417 1455 1347 592 1597 555 195 549 3314 1873 1071 802 4372
internal_count=48000 19078 28922 8147 5690 5416 20775 4093 2731 13388 1276 684 3863 2220 238 1982 1553 1417 1455 1347 592 1597 555 195 549 3314 1873 1071 802 4372
is_linear=0
shrinkage=0.05


Tree=22
num_leaves=31
num_cat=0
split_feature=4 3 18 4 16 16 16 4 15 16 4 1 16 3 16 3 19 15 19 4 18 3 1 16 1 6 6 2 19 6
split_gain=0.749569 5.46206 3.0131 2.26833 0.785962 0.407363 0.275975 0.200135 0.172108 0.166439 0.158672 0.15287 0.153534 0.146005 0.136049 0.13361 0.131974 0.120144 0.119909 0.154166 0.119579 0.119402 0.11812 0.1139 0.110474 0.109856 0.13729 0.11145 0.101007 0.100202
threshold=5.5646476745605478 35.846841812133796 3207.105102539063 5.4174561500549325 0.22517887502908709 0.16091510653495791 0.077277112752199187 5.509747028350831 0.32895047962665563 0.098572928458452239 5.76062035560608 40.832118988037116 0.40738940238952642 3.4089337587356572 0.15826334059238437 3.7799216508865361 0.20047648996114734 0.033775480464100845 0.20895212143659594 5.4849789142608651 329.81143188476568 3.6899654865264897 31.006114006042484 0.29131433367729193 66.870925903320327 26.321253776550297 26.504749298095707 150.94573974609378 0.19810571521520617 20.169959068298343
decision_type=2 2 2 2 2 2 2 2 2 2 2 2 2 2 2 2 2 2 2 2 2 2 2 2 2 2 2 2 2 2
left_child=2 4 3 5 9 14 -4 18 16 13 -3 20 15 17 24 -13 -7 -2 28 -20 -6 -15 -22 -8 -1 27 -27 -11 -5 -9
right_child=1 10 6 7 11 8 23 29 -10 25 -12 12 -14 21 -16 -17 -18 -19 19 -21 22 -23 -24 -25 -26 26 -28 -29 -30 -31
leaf_value=-0.001505384118125898 0.00013718091776832866 -0.00024810358583146462 4.0209929008838367e-06 -0.0002355604923424379 0 -0.0028642891895713889 0.00031993390704144835 -0.0026150772348046301 0 0.0024746766165171428 -0.00073135709000717898 0.0035467939782478277 0.0033640157756291132 0.0034801336401958025 0.0011595633577183603 0.0017116691248040981 -0.0020152618262593096 -0.004988976148667776 -0.00024557047759205707 0.0022135500072012156 0.0016853061448955751 0.00055576526324015629 0.0039037163495585108 0.0010109450025693127 5.0330005062874857e-05 0.0037358679433267985 0.0015572262069244525 0.00098564538764656551 -0.00091097843680437685 0.00028317088197861738
leaf_weight=1469 21 11152 12564 1051 28 1029 7776 30 75 140 2023 115 214 37 52 1179 945 21 221 88 86 941 306 655 117 84 800 1931 1230 1620
leaf_count=1469 21 11152 12564 1051 28 1029 7776 30 75 140 2023 115 214 37 52 1179 945 21 221 88 86 941 306 655 117 84 800 1931 1230 1620
internal_value=0 0.000243293 -0.000160459 -0.000991088 0.00150735 -0.00189825 0.000152923 -0.000201038 -0.00237117 0.00110311 -0.000322691 0.00233809 0.00209316 0.00054384 -0.00130349 0.00187888 -0.0024605 -0.00231289 -0.00047584 0.000439075 0.00320488 0.000671857 0.00343033 0.000374223 -0.00138747 0.00129444 0.0017703 0.00108883 -0.000601987 0.00022729
internal_weight=48000 19078 28922 7927 5903 3687 20995 4240 2049 3975 13175 1928 1508 1020 1638 1294 1974 42 2590 309 420 978 392 8431 1586 2955 884 2071 2281 1650
internal_count=48000 19078 28922 7927 5903 3687 20995 4240 2049 3975 13175 1928 1508 1020 1638 1294 1974 42 2590 309 420 978 392 8431 1586 2955 884 2071 2281 1650
is_linear=0
shrinkage=0.05


Tree=23
num_leaves=31
num_cat=0
split_feature=4 3 15 16 4 4 16 4 19 1 0 4 16 1 3 1 4 16 4 1 6 16 1 0 6 0 19 6 15 1
split_gain=0.67687 4.93224 2.72027 2.06102 0.710028 0.389515 0.279273 0.199668 0.153637 0.22841 0.163159 0.149127 0.147067 0.135299 0.129702 0.128187 0.136566 0.121221 0.113837 0.104027 0.101594 0.0989266 0.101974 0.0958729 0.131622 0.0943898 0.298436 0.131778 0.0913661 0.0806049
threshold=5.5646476745605478 35.846841812133796 0.3777767568826676 0.12850248068571093 5.7223124504089364 5.4590008258819589 0.18015968054533008 5.2156641483306894 0.20130420476198199 60.13903999328614 98.688899993896499 5.616452932357789 0.21415372937917712 66.870925903320327 10.870288848876955 61.371253967285163 5.9285230636596689 0.37786263227462774 5.4865026473999032 77.059864044189467 20.169959068298343 0.11760424077510835 31.006114006042484 169.07521820068362 23.835563659667972 100.2039031982422 0.18703145533800128 21.939728736877445 0.055185377597808845 70.243827819824233
decision_type=2 2 2 2 2 2 2 2 2 2 2 2 2 2 2 2 2 2 2 2 2 2 2 2 2 2 2 2 2 2
left_child=2 4 3 5 11 13 18 23 9 -9 -10 19 -3 20 -15 -6 17 -17 -4 28 -1 -13 -23 29 -25 26 -7 -27 -2 -5
right_child=1 12 6 7 15 25 -8 8 10 -11 -12 21 -14 14 -16 16 -18 -19 -20 -21 -22 22 -24 24 -26 27 -28 -29 -30 -31
leaf_value=-0.0041447334248444134 9.7776235625499394e-06 -0.00020694692698043204 0.00018073444025456609 -0.0032337342137032025 0.0024323679206919853 -0.0051966133509547662 0.00060528899128901414 -0.0023374160842254718 -0.003531383663898924 -0.00030703313843611995 -0.00093862706573991951 0.0043699789512215174 -0.00058972204430709292 0.0017978390779483549 -0.00095425468608481198 0.0013751949762038772 0.0035767880436848466 -0.0013945456579102856 -7.6209204525673756e-05 -0.0028755540315488081 -0.00094380756724063973 -0.00026088129479390166 0.0013220188524857431 0.0022118508683349847 -0.0025789122661426119 -0.0010088008206452319 -0.00025199242844778168 0.00018352357363900687 0.00092362474755450143 -0.00056924302863259606
leaf_weight=26 375 9759 10650 509 1526 35 2913 1269 69 162 651 27 3416 89 80 332 65 43 7209 20 1985 101 2279 21 41 253 256 2669 1135 35
leaf_count=26 375 9759 10650 509 1526 35 2913 1269 69 162 651 27 3416 89 80 332 65 43 7209 20 1985 101 2279 21 41 253 256 2669 1135 35
internal_value=0 0.000231242 -0.000152431 -0.000926656 0.00143244 -0.000357012 0.000151102 -0.00203908 -0.00180668 -0.00211109 -0.0011945 0.00104248 -0.000306576 -0.000872886 0.000465711 0.00221071 0.00143023 0.00104398 7.67362e-05 0.000649811 -0.000987882 0.00128996 0.00125274 -0.0028553 -0.00087477 -5.4219e-06 -0.000865463 7.85446e-05 0.000700003 -0.00307163
internal_weight=48000 19078 28922 8150 5903 5393 20772 2757 2151 1431 720 3937 13175 2180 169 1966 440 375 17859 1530 2011 2407 2380 606 62 3213 291 2922 1510 544
internal_count=48000 19078 28922 8150 5903 5393 20772 2757 2151 1431 720 3937 13175 2180 169 1966 440 375 17859 1530 2011 2407 2380 606 62 3213 291 2922 1510 544
is_linear=0
shrinkage=0.05


Tree=24
num_leaves=31
num_cat=0
split_feature=4 3 3 4 16 16 16 1 16 17 16 1 2 1 1 4 2 6 1 4 5 3 2 2 17 2 1 16 1 4
split_gain=0.61117 4.46235 2.4607 1.86259 0.659982 0.348661 0.24354 0.181111 0.22785 0.179127 0.176102 0.172633 0.142203 0.156271 0.140275 0.133294 0.1202 0.120061 0.12865 0.115871 0.126444 0.124574 0.112453 0.183084 0.137882 0.118531 0.118281 0.101951 0.0974784 0.0962229
threshold=5.5646476745605478 34.51831245422364 35.612251281738288 5.3707828521728525 0.16091510653495791 0.064279846847057356 0.16516619920730594 40.832118988037116 0.33450822532176977 0.46732176840305334 0.35751318931579595 31.006114006042484 137.21060943603518 51.201934814453132 29.364541053771976 5.8508794307708749 197.68603515625003 28.065939903259281 26.763827323913578 5.546093463897706 94.344409942626967 3.519709706306458 152.22986602783206 153.46973419189456 1.0245803594589236 147.54849243164065 64.256637573242202 0.1035585179924965 67.608566284179702 5.5174217224121103
decision_type=2 2 2 2 2 2 2 2 2 2 2 2 2 2 2 2 2 2 2 2 2 2 2 2 2 2 2 2 2 2
left_child=2 4 3 10 22 19 29 11 9 -9 12 -6 13 -1 -14 27 -10 18 -7 20 -5 -21 25 -24 -25 26 -2 -3 -12 -4
right_child=1 15 6 5 7 17 -8 8 16 -11 28 -13 14 -15 -16 -17 -18 -19 -20 21 -22 -23 23 24 -26 -27 -28 -29 -30 -31
leaf_value=0.0042590552570289045 0.0016208424289273439 0 0.00013630354099664874 0.00016911079307844979 0.0009956305623784298 -0.0044249631791000816 0.00052957112709531209 -0.00089657224220104133 0.0032458495188698883 0.0015251835489332279 -0.0035301430270862307 0.0030303457549070417 0.00022181347054938381 -0.0018159978996556234 -0.0019292249961375615 -0.0010025518062545206 0.00155705612693587 -0.0024147527188785969 -0.00076634673973550017 -0.0030512561827763171 -0.00045730332098412675 0.0007444944342607728 -0.0029595111289942282 0.00080742962325219608 -0.0021537904317081068 0.0035918850608004701 -0.002426436503617028 -0.00032498201920894235 -3.6186601899831411e-05 -0.00013374194271297405
leaf_weight=20 130 3191 12945 1352 139 25 3420 77 317 1816 234 543 74 21 2357 611 180 136 1392 22 1962 527 33 2324 39 72 20 9586 25 4410
leaf_count=20 130 3191 12945 1352 139 25 3420 77 317 1816 234 543 74 21 2357 611 180 136 1392 22 1962 527 33 2324 39 72 20 9586 25 4410
internal_value=0 0.000219695 -0.000144883 -0.000881435 0.0013928 -0.000343453 0.000143722 0.00189112 0.00168003 0.00142399 -0.00194646 0.00262318 -0.00181168 0.00102894 -0.00186168 -0.000278516 0.00264471 -0.000976464 -0.000834731 -8.76576e-05 -0.000200241 0.000582754 0.0008061 0.000702965 0.000756351 0.00189588 0.00104664 -0.000243493 -0.00321233 6.7395e-05
internal_weight=48000 19078 28922 8147 5690 5416 20775 3072 2390 1893 2731 682 2472 41 2431 13388 497 1553 1417 3863 3314 549 2618 2396 2363 222 150 12777 259 17355
internal_count=48000 19078 28922 8147 5690 5416 20775 3072 2390 1893 2731 682 2472 41 2431 13388 497 1553 1417 3863 3314 549 2618 2396 2363 222 150 12777 259 17355
is_linear=0
shrinkage=0.05


Tree=25
num_leaves=31
num_cat=0
split_feature=4 3 3 4 4 4 4 4 2 2 4 2 2 3 5 2 5 15 3 4 6 0 0 1 2 15 4 1 5 3
split_gain=0.551753 4.0297 2.2214 1.6808 0.590665 0.310398 0.223446 0.16759 0.228573 0.187085 0.1571 0.155003 0.241398 0.134396 0.134321 0.150556 0.128422 0.126954 0.212216 0.1255 0.118088 0.116688 0.112247 0.110372 0.18647 0.129245 0.104476 0.0891995 0.0865719 0.0768785
threshold=5.5646476745605478 35.846841812133796 35.612251281738288 5.3707828521728525 5.7417724132537851 5.4672372341156015 5.296072483062745 5.281170368194581 140.03730010986331 205.51391601562503 5.6436970233917245 152.22986602783206 153.98355865478518 21.141136169433597 91.539131164550795 238.23350524902347 92.654705047607436 0.035197077319026 3.4089337587356572 5.6318564414978036 24.787687301635746 97.893783569335952 132.15922546386722 66.870925903320327 184.87080383300784 0.26222878694534307 5.4434163570404062 53.56593322753907 88.830463409423842 43.026756286621101
decision_type=2 2 2 2 2 2 2 2 2 2 2 2 2 2 2 2 2 2 2 2 2 2 2 2 2 2 2 2 2 2
left_child=2 4 3 7 10 23 -4 21 -9 -10 11 13 -13 -2 28 16 -16 -7 -19 -3 22 -1 -12 25 -25 -5 -8 -23 -6 -21
right_child=1 19 6 5 14 17 26 8 9 -11 20 12 -14 -15 15 -17 -18 18 -20 29 -22 27 -24 24 -26 -27 -28 -29 -30 -31
leaf_value=-0.0041134762901323353 0.0014128280017601969 -8.5909327091486065e-05 0.00061664191524136882 -0.0010055909432538002 0.00012918620399827332 -0.0020428727112109133 0.00022111771404061738 0.0029161819606502389 -0.0018584006915315018 -0.00043821919768616659 0.0014006225578068684 -0.0033598419993851832 0.00063827171544867398 0.0050035604998874515 0.00058442667925663334 -0.00091057474489416711 0.0021809518867076366 0.0035492157723469413 1.2325389146983085e-05 -0.00045184624071174405 0.0016565003863212133 -0.0025194488858428484 0.00023965581404549182 0.0023061189204381951 -0.00089183212107067286 3.6386108971348553e-05 -1.9059587279008581e-05 -0.0015619143694718214 0.0036962570824580071 8.4894355494773718e-05
leaf_weight=88 168 5229 2173 1899 22 73 7707 28 1194 300 455 38 2045 33 150 43 1250 43 2873 7228 1111 682 406 77 109 342 10895 439 182 718
leaf_count=88 168 5229 2173 1899 22 73 7707 28 1194 300 455 38 2045 33 150 43 1250 43 2873 7228 1111 682 406 77 109 342 10895 439 182 718
internal_value=0 0.000208736 -0.000137666 -0.000837494 0.0012945 -0.000326382 0.000136536 -0.00184923 -0.00149049 -0.00157662 0.000981114 0.000694117 0.000562776 0.00202941 0.00210116 0.00192286 0.00201352 1.30639e-05 6.63157e-05 -0.000277361 0.00131093 -0.00229654 0.000859073 -0.000746474 0.000405711 -0.000844349 8.01802e-05 -0.0021491 0.00333632 -0.000402717
internal_weight=48000 19078 28922 8147 5903 5416 20775 2731 1522 1494 4256 2284 2083 201 1647 1443 1400 2989 2916 13175 1972 1209 861 2427 186 2241 18602 1121 204 7946
internal_count=48000 19078 28922 8147 5903 5416 20775 2731 1522 1494 4256 2284 2083 201 1647 1443 1400 2989 2916 13175 1972 1209 861 2427 186 2241 18602 1121 204 7946
is_linear=0
shrinkage=0.05


Tree=26
num_leaves=31
num_cat=0
split_feature=4 3 18 4 4 4 4 1 4 3 18 6 17 1 17 2 17 6 6 0 4 5 2 2 2 5 0 0 4 4
split_gain=0.498233 3.64658 2.01551 1.53994 0.539155 0.283078 0.196412 0.154741 0.185566 0.152072 0.165679 0.171049 0.163407 0.151269 0.150422 0.140613 0.128344 0.12677 0.142894 0.119637 0.118024 0.112123 0.0921526 0.123223 0.215585 0.180291 0.0925867 0.090529 0.0849614 0.0845665
threshold=5.5646476745605478 34.51831245422364 3207.105102539063 5.4174561500549325 5.660764455795289 5.3006434440612802 5.4013371467590341 40.832118988037116 5.9014346599578866 32.05546951293946 2493.043334960938 24.417815208435062 0.74454203248023998 31.006114006042484 0.46732176840305334 204.38110351562503 0.93074676394462597 26.424736022949222 24.305128097534183 97.893783569335952 5.8508794307708749 90.024909973144545 238.23350524902347 198.85427093505862 191.8019714355469 89.973369598388686 125.05058670043947 155.55946350097659 5.6038904190063485 5.0796315670013437
decision_type=2 2 2 2 2 2 2 2 2 2 2 2 2 2 2 2 2 2 2 2 2 2 2 2 2 2 2 2 2 2
left_child=2 4 3 5 22 19 29 13 14 10 12 -12 -5 -6 -9 16 -7 18 -11 -1 28 -17 23 24 -2 -25 -24 -15 -3 -4
right_child=1 20 6 9 7 15 -8 8 -10 17 11 -13 -14 27 -16 21 -18 -19 -20 -21 -22 -23 26 25 -26 -27 -28 -29 -30 -31
leaf_value=-0.0037873246841340111 0.00078009571495193724 1.8777156166319962e-06 0.0019814798667292226 -0.00046994762800036083 0.00085998050691963321 -0.0015524301587213972 1.7822978498023828e-05 -0.00062033502738098286 0.0028736290585246469 -0.00081458561830054536 0.002716738177364791 0.0001437517753475251 0.00019253428220932837 0.0030653422951706128 0.0014510872158324255 -0.004045304055997536 -0.0002173620038132648 0.00056734893078308165 -0.0049334923198495213 -0.0019733502256029951 -0.00093330405647712878 -0.00019682493637555575 0.0012446094459543627 -0.002757930767981343 -0.00076993750858254603 0.0015876593256696448 -0.0029110777748972611 0.0012408335257349911 -0.00029373437803358727 0.00032386337310132796
leaf_weight=105 1707 3214 79 2239 139 1593 14071 88 233 47 100 195 1580 452 2070 20 213 35 44 1336 611 420 20 24 255 576 34 92 9563 6845
leaf_count=105 1707 3214 79 2239 139 1593 14071 88 233 47 100 195 1580 452 2070 20 213 35 44 1336 611 420 20 24 255 576 34 92 9563 6845
internal_value=0 0.000198381 -0.000130793 -0.000810157 0.00125886 -0.00155763 0.000125477 0.00170906 0.00151357 -0.000158974 -0.000105259 0.00103352 -0.000194558 0.00238581 0.00136428 -0.00120141 -0.00139776 -0.00187169 -0.00286426 -0.00210925 -0.000251964 -0.000383996 0.000727886 0.000772208 0.000576062 0.00140507 -0.00128006 0.00276626 -0.000218984 0.000343527
internal_weight=48000 19078 28922 7927 5690 3687 20995 3074 2391 4240 4114 295 3819 683 2158 2246 1806 126 91 1441 13388 440 2616 2562 1962 600 54 544 12777 6924
internal_count=48000 19078 28922 7927 5690 3687 20995 3074 2391 4240 4114 295 3819 683 2158 2246 1806 126 91 1441 13388 440 2616 2562 1962 600 54 544 12777 6924
is_linear=0
shrinkage=0.05


Tree=27
num_leaves=31
num_cat=0
split_feature=18 6 6 1 19 2 1 6 14 2 14 14 15 2 2 1 18 5 5 19 17 17 1 16 1 19 5 2 3 19
split_gain=0.06034 0.188193 0.147495 0.116543 0.17607 0.243107 0.164899 0.136711 0.128509 0.109343 0.103371 0.0960833 0.0447018 0.205273 0.117564 0.0994536 0.0937754 0.0835195 0.162106 0.0790718 0.0696365 0.16133 0.0970158 0.0489096 0.0481156 0.0428701 0.298479 0.237029 0.131191 0.088297
threshold=345.84574890136724 29.480275154113773 21.5341329574585 45.504686355590827 0.19443243741989139 158.795768737793 60.729465484619148 22.931443214416507 130.11508941650393 168.64002990722659 140.46399688720706 120.55738830566408 0.040304286405444152 166.34029388427737 158.18337249755862 55.688425064086921 363.74835205078131 93.269790649414077 91.234756469726577 0.20729079842567447 0.6871042549610139 0.56613263487815868 43.459770202636726 0.11661116778850557 52.959630966186531 0.22360044717788699 94.699497222900405 212.81651306152347 7.5655400753021249 0.21803559362888339
decision_type=2 2 2 2 2 2 2 2 2 2 2 2 2 2 2 2 2 2 2 2 2 2 2 2 2 2 2 2 2 2
left_child=1 2 10 4 7 -6 9 -4 -8 -5 11 -1 13 14 23 20 17 18 -14 -17 21 -15 -22 -2 -20 29 28 -28 -27 -18
right_child=12 -3 3 6 5 -7 8 -9 -10 -11 -12 -13 16 15 -16 19 25 -19 24 -21 22 -23 -24 -25 -26 26 27 -29 -30 -31
leaf_value=0.0013687758722636867 -0.001499870218219663 -0.0038156437092675675 0.0050060278217108978 0.0025074137294459359 -0.0045135167916250064 -0.00039189556240366098 0.00052169274144687268 0.00047308294172059077 -0.0025941209838129648 0.00072911289311007111 0 0.0062035750219249629 -0.00031143881889607685 -0.0047205038695326907 0.0045711859437000697 -0.001418035873665251 -9.5046800917328035e-06 -0.00062250016867299246 0.0023426093269229742 0.0024568277881565036 -0.0066432127145244109 0.00057972801312206003 -0.0020257264928124708 0.0016145646561803195 0.0057206687094135712 0.0032590439353334961 0.00085216501871249141 -0.001184213793064414 0.00091551224674748751 -0.00080690253554735372
leaf_weight=23 23 26 20 124 42 266 76 119 56 332 25 25 38 21 22 32 45244 36 35 22 20 41 38 27 23 87 244 340 223 350
leaf_count=23 23 26 20 124 42 266 76 119 56 332 25 25 38 21 22 32 45244 36 35 22 20 41 38 27 23 87 244 340 223 350
internal_value=0 0.000360418 0.00046326 0.000304456 -0.00029599 -0.000971446 0.000769391 0.00116438 -0.000763281 0.00122409 0.00264291 0.00399851 -8.67777e-06 -0.000680929 0.00152747 -0.00162382 -5.02179e-06 0.00132502 0.00210726 6.98141e-05 -0.00242702 -0.00113971 -0.00371272 8.199e-05 0.00377578 -8.90876e-06 0.000333716 -0.000324838 0.00159018 -1.57373e-05
internal_weight=48000 1134 1108 1035 447 308 588 139 132 456 73 48 46866 246 72 174 46620 132 96 54 120 62 58 50 58 46488 894 584 310 45594
internal_count=48000 1134 1108 1035 447 308 588 139 132 456 73 48 46866 246 72 174 46620 132 96 54 120 62 58 50 58 46488 894 584 310 45594
is_linear=0
shrinkage=0.05


Tree=28
num_leaves=31
num_cat=0
split_feature=4 13 15 16 16 16 16 2 1 1 19 19 19 6 19 1 13 0 4 16 4 0 2 4 19 16 5 1 2 2
split_gain=0.44848 3.27977 1.8241 1.41588 0.495218 0.355944 0.199798 0.183946 0.133451 0.227048 0.216736 0.222592 0.14469 0.140833 0.12386 0.117871 0.114702 0.144276 0.116156 0.11175 0.11093 0.113817 0.195531 0.110346 0.110205 0.117551 0.110129 0.202188 0.138303 0.10591
threshold=5.5646476745605478 35.846841812133796 0.3777767568826676 0.064279846847057356 0.22517887502908709 0.18963271379470828 0.23898534476757052 137.21060943603518 33.130037307739265 39.199703216552741 0.20021684467792514 0.20159539580345157 0.19893393665552142 29.955487251281742 0.18822351098060611 40.832118988037116 3.7799216508865361 152.40821075439456 5.9014346599578866 0.22742936760187152 5.546093463897706 133.45573425292972 199.26999664306643 5.4723312854766855 0.23342406749725345 0.35751318931579595 94.344409942626967 32.202695846557624 176.87259674072268 181.547966003418
decision_type=2 2 2 2 2 2 2 2 2 2 2 2 2 2 2 2 2 2 2 2 2 2 2 2 2 2 2 2 2 2
left_child=2 4 3 20 8 7 23 -5 10 12 -2 -12 -10 -11 -9 -6 17 -17 -18 -3 26 29 -23 -4 25 -7 27 -1 -28 -22
right_child=1 19 6 5 15 24 -8 14 9 13 11 -13 -14 -15 -16 16 18 -19 -20 -21 21 22 -24 -25 -26 -27 28 -29 -30 -31
leaf_value=0.0025826431275430468 -0.0016333206576707262 -0.00017160453948182066 0.00018828652015750075 0.0024341902780946533 0.002588613495478469 -0.001848853637206354 0.0007064263501816607 -0.0018866953481734877 0.0028022265462136421 0.00072172272629826301 0.0045670754052737307 -8.871625455484321e-05 0.0010453759471649199 0.0033225003144894891 -0.00092017551873901536 0.0038888391265494981 0.0012613438449455489 -8.9074968685078421e-05 0.0025462165130260526 -0.00052316553477301994 0.00023089720202528467 0.00062087104984306181 -0.0026001840212396027 -5.171595789427684e-05 0.00019185274862201988 -0.0030874587319499342 9.8893664990390786e-05 1.6041094127667484e-05 -0.00074742054801308722 0.0021518423048725497
leaf_weight=82 135 10241 10890 37 420 1343 1379 406 245 3174 36 82 249 54 2210 105 1157 26 220 2934 144 183 63 8503 53 242 793 1240 1197 157
leaf_count=82 135 10241 10890 37 420 1343 1379 406 245 3174 36 82 249 54 2210 105 1157 26 220 2934 144 183 63 8503 53 242 793 1240 1197 157
internal_value=0 0.00018823 -0.000124076 -0.000758086 0.00116778 -0.0013831 0.000124443 -0.00102128 0.00084645 0.000922274 -0.000249205 0.00129202 0.0019272 0.000766881 -0.00107216 0.0018276 0.00161217 0.00306172 0.00147043 -0.000250278 -6.17865e-05 0.000595753 -0.000184438 8.27982e-05 -0.00196599 -0.0020413 -0.000171908 0.000179205 -0.00040767 0.00124984
internal_weight=48000 19078 28922 8150 5903 4291 20772 2653 3975 3722 253 118 494 3228 2616 1928 1508 131 1377 13175 3859 547 246 19393 1638 1585 3312 1322 1990 301
internal_count=48000 19078 28922 8150 5903 4291 20772 2653 3975 3722 253 118 494 3228 2616 1928 1508 131 1377 13175 3859 547 246 19393 1638 1585 3312 1322 1990 301
is_linear=0
shrinkage=0.05


Tree=29
num_leaves=31
num_cat=0
split_feature=4 18 18 4 4 4 4 19 3 1 0 17 3 1 1 1 17 5 18 5 1 6 6 15 19 4 6 4 4 4
split_gain=0.404781 2.96893 1.65175 1.27269 0.460022 0.250889 0.165697 0.16139 0.140139 0.144637 0.124753 0.14884 0.136472 0.127419 0.123181 0.13731 0.142213 0.119447 0.118421 0.214497 0.119989 0.111223 0.114306 0.105096 0.102255 0.0993913 0.0993232 0.0816544 0.0795418 0.0784569
threshold=5.5646476745605478 3207.105102539063 3207.105102539063 5.3707828521728525 5.6860399246215829 5.4849789142608651 5.422981023788453 0.24039271473884585 32.05546951293946 55.851633071899421 147.70458984375003 0.52019524574279796 22.718147277832035 40.832118988037116 29.364541053771976 59.878282546997077 1.0686815381050112 94.81735992431642 486.11897277832037 93.427497863769545 33.130037307739265 20.169959068298343 28.96763896942139 0.108684029430151 0.21233663707971576 5.6318564414978036 26.398838043212894 5.8637971878051767 5.1538591384887704 5.2756288051605233
decision_type=2 2 2 2 2 2 2 2 2 2 2 2 2 2 2 2 2 2 2 2 2 2 2 2 2 2 2 2 2 2
left_child=2 4 3 14 7 21 28 18 9 -7 11 27 23 -13 29 16 -16 -9 19 -2 -20 -5 -23 -12 -17 -3 -10 -6 -4 -1
right_child=1 25 6 5 10 8 -8 17 26 -11 12 13 -14 -15 15 24 -18 -19 20 -21 -22 22 -24 -25 -26 -27 -28 -29 -30 -31
leaf_value=-0.00135427300826004 0.001556072409012232 -5.7528380430976315e-05 0.0011253350870183301 -0.0035092887446126729 0.00016487963940398618 -8.8912300092146274e-05 -7.6030089741609469e-07 0.0014478066945402184 -0.0032226413459887134 0.00077068863650548087 0.0012636400416795486 0.0028796979673941293 0.0027401165968697246 0.0017812595884646534 -0.0019424914952654621 -0.0005502159086002487 0.00037002193565536211 -0.0030002094461922127 -0.00044764416921952069 -0.0002405979862745824 0.0010644944795824545 -0.00049337822645025876 -0.0020916940410966316 -7.1910548980440094e-05 -0.0023124435712143124 -0.00033731190867589833 0.00043927788181579211 0.002528410900835019 0.00025628343624289586 0.0017973784889473918
leaf_weight=36 230 5300 276 33 189 1639 12544 20 53 693 392 365 106 1224 2006 405 65 49 135 587 2112 2703 119 225 108 8097 25 47 8175 42
leaf_count=36 230 5300 276 33 189 1639 12544 20 53 693 392 365 106 1224 2006 405 65 49 135 587 2112 2703 119 225 108 8097 25 47 8175 42
internal_value=0 0.000178863 -0.000117838 -0.000732857 0.00113684 -0.00028121 0.000114137 0.00072817 9.26649e-05 0.000164413 0.00163734 0.00186131 0.00106488 0.00203689 -0.00162422 -0.00168361 -0.00186748 -0.00163834 0.000783147 0.000259206 0.000971404 -0.000598553 -0.000562621 0.000768573 -0.000931334 -0.000227001 -0.00198587 0.000657632 0.00028527 0.000278878
internal_weight=48000 19078 28922 7927 5681 5265 20995 3133 2410 2332 2548 1825 723 1589 2662 2584 2071 69 3064 817 2247 2855 2822 617 513 13397 78 236 8451 78
internal_count=48000 19078 28922 7927 5681 5265 20995 3133 2410 2332 2548 1825 723 1589 2662 2584 2071 69 3064 817 2247 2855 2822 617 513 13397 78 236 8451 78
is_linear=0
shrinkage=0.05


Tree=30
num_leaves=31
num_cat=0
split_feature=4 3 18 4 4 4 4 4 4 3 5 2 5 6 2 4 1 17 1 1 19 5 4 6 6 6 6 6 18 3
split_gain=0.365463 2.68147 1.49123 1.15253 0.418486 0.219334 0.151265 0.128494 0.127365 0.119743 0.119073 0.12858 0.11884 0.117696 0.131836 0.127708 0.115029 0.117998 0.110203 0.108369 0.105406 0.104718 0.100288 0.0972521 0.154391 0.095855 0.0950642 0.0901009 0.184307 0.137346
threshold=5.5646476745605478 35.846841812133796 3207.105102539063 5.4174561500549325 5.7417724132537851 5.3387103080749521 5.3854756355285653 5.509747028350831 5.6022613048553476 30.920001029968265 91.539131164550795 238.23350524902347 92.654705047607436 27.819863319396976 206.70357513427737 5.4036326408386239 59.643760681152351 0.78575778007507335 32.681364059448249 81.224212646484389 0.20047648996114734 94.375785827636733 5.7762746810913095 26.321253776550297 26.504749298095707 25.187543869018558 26.224079132080082 25.5594596862793 752.55276489257824 3.3071092367172246
decision_type=2 2 2 2 2 2 2 2 2 2 2 2 2 2 2 2 2 2 2 2 2 2 2 2 2 2 2 2 2 2
left_child=2 4 3 5 8 9 -4 19 16 20 -6 12 -12 14 -7 -15 18 -18 -2 25 -1 -11 -3 26 -25 -5 -10 29 -29 -9
right_child=1 22 6 7 10 13 -8 27 23 21 11 -13 -14 15 -16 -17 17 -19 -20 -21 -22 -23 -24 24 -26 -27 -28 28 -30 -31
leaf_value=-0.0021272531570547047 -0.0012931817096874252 -0.00017374239977831508 0.00032278757893773602 -0.00069979305474105608 0.0028952287840389428 -0.00096813108313797925 2.4017147540421541e-05 -0.0033361207710671751 0.00081998205290798585 0.0020592578328000213 0.00028140322019226313 -0.0010538358180816102 0.0018118063649649879 -0.0012873685447030037 0.00028394418593796848 -0.0044491828408661964 0.00011772988129553618 -0.0024331965757989713 0.00072092862676883477 0.0030319110091243471 -0.0013699978693970194 -0.0016088057084502822 -0.00059260997400949103 0.0035225506796944571 0.0011849175244367965 -8.3628769472155704e-05 -0.0014139062925212227 0.00074668682518568247 -0.00090953713209470126 0.00062113510099428074
leaf_weight=1026 72 11527 5915 1250 204 1219 15080 22 2153 39 150 43 1250 131 247 46 122 69 862 23 941 38 1648 80 851 1317 47 284 406 938
leaf_count=1026 72 11527 5915 1250 204 1219 15080 22 2153 39 150 43 1250 131 247 46 122 69 862 23 941 38 1648 80 851 1317 47 284 406 938
internal_value=0 0.000169949 -0.000111974 -0.000696348 0.00105567 -0.00134301 0.00010843 -0.000132825 0.000791585 -0.00169163 0.00173497 0.00156729 0.00165144 -0.000906194 -0.000753759 -0.00213936 0.000328429 -0.000778436 0.000560191 -0.000353238 -0.00176762 0.000184455 -0.00022652 0.000956388 0.00139151 -0.000385633 0.000769923 0.000210126 -0.00022059 0.000524902
internal_weight=48000 19078 28922 7927 5903 3687 20995 4240 4256 2044 1647 1443 1400 1643 1466 177 1125 191 934 2590 1967 77 13175 3131 931 2567 2200 1650 690 960
internal_count=48000 19078 28922 7927 5903 3687 20995 4240 4256 2044 1647 1443 1400 1643 1466 177 1125 191 934 2590 1967 77 13175 3131 931 2567 2200 1650 690 960
is_linear=0
shrinkage=0.05


Tree=31
num_leaves=31
num_cat=0
split_feature=18 6 6 14 16 17 19 14 6 17 1 15 2 2 1 18 5 5 6 6 2 6 1 19 5 2 3 19 1 14
split_gain=0.0520095 0.168018 0.134134 0.105153 0.128043 0.192393 0.122099 0.093203 0.088415 0.0854921 0.0595726 0.0410575 0.183955 0.105645 0.0858071 0.0815591 0.0770149 0.140317 0.0737773 0.0663198 0.0695163 0.0479088 0.0417098 0.0358213 0.261763 0.209001 0.113152 0.0790969 0.142258 0.0679147
threshold=345.84574890136724 29.373633384704593 21.5341329574585 154.26210021972659 0.013224751222878696 0.6871042549610139 0.19168321043252948 140.46399688720706 27.076081275939945 0.71238738298416149 53.845846176147468 0.040304286405444152 166.34029388427737 148.52629852294925 55.688425064086921 363.74835205078131 93.269790649414077 91.234756469726577 25.788311958312992 23.672635078430179 202.31509399414065 25.271806716918949 52.959630966186531 0.22360044717788699 94.699497222900405 212.81651306152347 7.5655400753021249 0.21803559362888339 31.006114006042484 173.3085861206055
decision_type=2 2 2 2 2 2 2 2 2 2 2 2 2 2 2 2 2 2 2 2 2 2 2 2 2 2 2 2 2 2
left_child=1 2 7 4 5 -4 -6 9 10 -1 -5 12 13 -2 19 16 17 -13 -16 -14 -21 -15 -19 27 26 -26 -25 29 -29 -17
right_child=11 -3 3 8 6 -7 -8 -9 -10 -11 -12 15 14 21 18 23 -18 22 -20 20 -22 -23 -24 24 25 -27 -28 28 -30 -31
leaf_value=0.0015817238296242965 -0.00089525577924308821 -0.0035350691027100783 -0.0043478719895194947 0.00027501963385588661 0.0016729372556012997 0.0017650641876258957 0.00027552793329498271 0 -0.0038519751804667116 0.0061758074888377977 -0.00229472433776901 -0.00025272043403531388 -0.0046285197374293175 0.0046063865369661543 0.0015257596155038632 -1.4522185932356807e-05 -0.00063189281546704253 0.0021882031351046641 -0.0022864693567267998 -0.0023341269628484214 0.00077149009693996604 0.00096857104770738079 0.0053632209317363566 0.0030335273999046119 0.00079314970764254649 -0.0011185783958188838 0.00085306802831926437 -0.0047710233202460112 -0.00049083284796459315 0.00062553433091364118
leaf_weight=26 27 27 32 81 213 20 635 25 23 22 30 38 26 23 34 44826 36 35 20 73 21 22 23 87 244 340 223 21 329 418
leaf_count=26 27 27 32 81 213 20 635 25 23 22 30 38 26 23 34 44826 36 35 20 73 21 22 23 87 244 340 223 21 329 418
internal_value=0 0.000334644 0.000433855 0.000282037 0.000480393 -0.0019019 0.00063258 0.00251253 -0.00101229 0.00379976 -0.000375942 -8.02695e-06 -0.000652291 0.00143622 -0.00154555 -4.51872e-06 0.00123585 0.00198822 1.9785e-05 -0.00229101 -0.0015871 0.00294485 0.00354038 -8.1509e-06 0.000305021 -0.000311283 0.00148191 -1.44018e-05 -0.000763215 -8.49695e-06
internal_weight=48000 1134 1107 1034 900 52 848 73 134 48 111 46866 246 72 174 46620 132 96 54 120 94 45 58 46488 894 584 310 45594 350 45244
internal_count=48000 1134 1107 1034 900 52 848 73 134 48 111 46866 246 72 174 46620 132 96 54 120 94 45 58 46488 894 584 310 45594 350 45244
is_linear=0
shrinkage=0.05


Tree=32
num_leaves=31
num_cat=0
split_feature=4 3 3 16 16 16 16 19 16 1 16 1 17 1 16 6 2 2 19 18 1 4 4 2 17 2 3 3 3 4
split_gain=0.328551 2.41397 1.35314 1.0559 0.386387 0.214909 0.157051 0.138849 0.155129 0.129978 0.157853 0.139501 0.136925 0.121143 0.109165 0.109718 0.104368 0.100612 0.192415 0.175443 0.100079 0.0955037 0.0946928 0.0902328 0.16066 0.207952 0.178327 0.10514 0.114742 0.0873229
threshold=5.5646476745605478 34.51831245422364 35.612251281738288 0.13532777130603793 0.16091510653495791 0.064279846847057356 0.23898534476757052 0.23342406749725345 0.35751318931579595 40.832118988037116 0.33450822532176977 33.130037307739265 0.46732176840305334 29.364541053771976 0.070316400378942504 23.960227012634281 197.68603515625003 156.68718719482425 0.20729079842567447 752.55276489257824 66.870925903320327 5.8508794307708749 5.668013572692872 152.22986602783206 0.93740680813789379 157.48777770996097 21.872735977172855 21.141136169433597 15.734785556793215 5.5174217224121103
decision_type=2 2 2 2 2 2 2 2 2 2 2 2 2 2 2 2 2 2 2 2 2 2 2 2 2 2 2 2 2 2
left_child=2 4 3 5 23 17 29 8 13 11 12 -6 -11 -5 15 -7 -12 18 -1 -19 -16 -3 -13 27 26 -26 -25 28 -2 -4
right_child=1 21 6 7 9 14 -8 -9 -10 10 16 22 -14 -15 20 -17 -18 19 -20 -21 -22 -23 -24 24 25 -27 -28 -29 -30 -31
leaf_value=-0.0010817372609096139 0.0015337863173662401 -0.0001755073986717667 0.0001285414532549891 0.00061105760961440065 0.00094115689320324939 -0.0042017601991154408 0.00062342025556889099 0.00048477775164404679 -0.0027682436897513065 -0.0010179680597276249 0.002586154677395279 0.0054723815704129132 0.0011016158185794824 -0.001480005987473059 -0.00071644470935310642 -0.0011212230549578687 0.0010204674961386488 0.00047372730747288267 0.0018672428616501044 -0.00025941536842566344 0.00082354228901672637 -0.00081809054634804162 0.0023191547282598356 0.00078546853994937134 -0.0051828431675631651 -0.00018149142840829838 -0.00039813119820253975 0.0042013505980192352 -0.0021571343948357052 -0.00012416947778115254
leaf_weight=445 166 12777 14984 68 217 43 1381 83 244 77 317 28 1816 2216 1408 111 180 1395 62 1961 111 611 437 1879 26 114 377 33 23 4410
leaf_count=445 166 12777 14984 68 217 43 1381 83 244 77 317 28 1816 2216 1408 111 180 1395 62 1961 111 611 437 1879 26 114 377 33 23 4410
internal_value=0 0.000161141 -0.000106166 -0.000652383 0.001024 -0.000260357 0.000107797 -0.00148163 -0.00154818 0.00140549 0.00122631 0.00202581 0.00101271 -0.00141554 -0.000733963 -0.00201599 0.00202948 -5.3938e-05 -0.000710955 4.38478e-05 -0.000600573 -0.000205213 0.00252091 0.000574407 0.000481974 -0.00114904 0.000585452 0.00154884 0.00105728 7.08194e-05
